cancel 0.29034313559532166 -0.07279665768146515 0.17111355066299438 0.008796436712145805 -0.17558613419532776 0.2716229259967804 -0.12464793771505356 0.22631940245628357 0.27891039848327637 0.04427167773246765 -0.21191219985485077 -0.05046122521162033 0.2246573567390442 -0.10456743091344833 0.025764718651771545 -0.2999631464481354 0.37746337056159973 0.09714873880147934 -0.08101457357406616 -0.13946405053138733 -0.19731652736663818 0.2669930160045624 -0.007219244260340929 -0.18492308259010315 -0.16614483296871185 0.300218403339386 0.003182873362675309 0.12227650731801987 -0.24145393073558807 0.12352637201547623 0.24326401948928833 0.17153623700141907 -0.24195596575737 0.16561530530452728 -0.1537545919418335 0.03792276978492737 -0.04078741371631622 -0.020273735746741295 0.011485469527542591 0.13068345189094543 -0.0042006755247712135 -0.15484440326690674 -0.08893363922834396 0.19853152334690094 0.24540762603282928 -0.33642029762268066 -0.05430073291063309 -0.45271721482276917 -0.1790659874677658 0.04700561240315437 -0.013753440231084824 0.1659463793039322 0.1235402375459671 -0.1260843724012375 -0.04211694374680519 0.007836509495973587 -0.18349801003932953 -0.1230633482336998 -0.017659880220890045 0.14659371972084045 -0.052464958280324936 0.3656347393989563 0.06092391163110733 0.06291656196117401 0.08834850043058395 0.21116460859775543 -0.24928723275661469 -0.030494699254631996 0.11741625517606735 0.01239188201725483 -0.09241917729377747 0.07879158854484558 -0.259113609790802 0.17099156975746155 -0.14372283220291138 0.0381648875772953 0.13870379328727722 -0.12292638421058655 -0.16090570390224457 -0.18230056762695312 -0.15708990395069122 -0.06375395506620407 -0.12050534784793854 0.263916552066803 0.1835685819387436 0.12564736604690552 0.24527180194854736 0.0059707374311983585 0.23765595257282257 0.014703580178320408 0.23929275572299957 0.03741461783647537 -0.08611761778593063 0.06405788660049438 -0.36954161524772644 -0.05067504942417145 0.3250578045845032 0.1797511726617813 -0.2884252667427063 -0.15370473265647888
recline -0.007685452699661255 0.001856077229604125 0.031120503321290016 -0.009249627590179443 -0.011304059065878391 -0.035783857107162476 0.010432898998260498 -0.018822789192199707 -0.031503625214099884 0.004104733932763338 -0.020024441182613373 0.00854004081338644 -0.0034073605202138424 0.009850001893937588 0.031327348202466965 0.042611606419086456 9.957386646419764E-4 -0.013949531130492687 -0.008369154296815395 0.02424870803952217 0.027491658926010132 0.0162730161100626 -0.006217479705810547 0.016989147290587425 -0.029132474213838577 -0.008020863868296146 -0.019230369478464127 -0.035634443163871765 -0.04195920005440712 0.0036186277866363525 0.0034431475214660168 0.035096265375614166 -0.007352749351412058 0.002457081340253353 0.0443110428750515 0.022420402616262436 -0.03192563354969025 -0.004357607569545507 0.015241353772580624 -0.011741381138563156 0.004812879953533411 -0.026828546077013016 0.04135088995099068 -0.023894350975751877 0.021151907742023468 0.012666993774473667 0.023511968553066254 8.580699795857072E-5 -0.020566808059811592 -0.006499094422906637 0.028581364080309868 -0.010624952614307404 0.010046182200312614 -0.027339711785316467 -1.8746587738860399E-4 0.0021676558535546064 0.00440979516133666 0.006520511116832495 0.029253382235765457 0.013400407508015633 -0.033496517688035965 -0.008247877471148968 0.00817389041185379 -0.017275573685765266 0.0024187308736145496 -0.02942003682255745 -0.007427312899380922 0.05015668272972107 -0.0060960291884839535 0.01619897410273552 -0.03868929296731949 -0.026165766641497612 -0.006157647352665663 0.02083336003124714 -0.0031707335729151964 0.008503198623657227 -0.005668072495609522 0.016886135563254356 0.003854868933558464 0.014037961140275002 0.015821516513824463 -0.01646958850324154 0.008241630159318447 -0.01216408796608448 -0.001465209643356502 -0.02560054510831833 0.013878868892788887 -0.01945338398218155 -0.018478738144040108 -0.044690024107694626 0.008016745559871197 0.02714904583990574 0.011329817585647106 -0.004002685192972422 0.023271875455975533 0.0037606675177812576 0.011619439348578453 0.015577311627566814 0.008325828239321709 -0.016253942623734474
spoke -0.017227020114660263 0.27697187662124634 -0.12049484252929688 -0.22314584255218506 -0.3104408085346222 0.0665559247136116 -0.4358507990837097 0.014314666390419006 -0.042232561856508255 0.030530564486980438 0.09147036820650101 0.15248198807239532 -0.21745958924293518 -0.17621098458766937 -0.18298634886741638 0.013492699712514877 0.449972540140152 0.047754522413015366 0.011748128570616245 0.17914865911006927 0.13763797283172607 0.1977202445268631 0.09268039464950562 0.07914157211780548 0.06851473450660706 -0.28212693333625793 0.011621912941336632 -0.16695630550384521 0.07803481817245483 0.06644481420516968 -0.1079498901963234 0.1008126512169838 0.00384849077090621 0.2867606580257416 0.06274712085723877 0.21432213485240936 0.09875497221946716 -0.0010840692557394505 0.1189342737197876 0.1443624496459961 -0.02604164183139801 -0.2033625841140747 0.15804238617420197 -0.042022645473480225 -0.25484699010849 0.1349366307258606 0.13533948361873627 -0.005280614364892244 0.27734360098838806 0.11877439171075821 -0.03273280709981918 -0.005891427863389254 0.09258847683668137 -0.07864298671483994 -0.04379718378186226 0.09740985929965973 -0.12674500048160553 -0.28415098786354065 0.09085800498723984 0.1271040439605713 -0.05524167791008949 0.12529951333999634 0.1984824389219284 -0.028092481195926666 0.10276829451322556 -0.10041525214910507 0.10367372632026672 0.1132359504699707 0.029021145775914192 0.0010877028107643127 -0.06602577120065689 0.047973595559597015 -0.04299716651439667 0.20854194462299347 -0.12972532212734222 0.09586670994758606 -0.10917622596025467 0.033628955483436584 -0.03534230962395668 -0.06865354627370834 0.4881351888179779 0.05342318117618561 -0.22947284579277039 -0.08027669042348862 0.11064949631690979 -0.13691434264183044 0.08902839571237564 -0.0304110087454319 -0.056274812668561935 0.19451433420181274 0.020890096202492714 -0.4026259481906891 -0.17077594995498657 -0.01143911387771368 0.10483541339635849 -0.1487995833158493 0.2529895603656769 -0.03546847030520439 0.013548234477639198 -0.20011751353740692
govern -0.19884851574897766 -0.128872349858284 -0.024584908038377762 -0.04410743713378906 -0.12101498246192932 0.16097423434257507 0.21561652421951294 0.2621645927429199 0.002110387897118926 -0.12125317007303238 -0.31656622886657715 -0.262247234582901 0.0039010755717754364 0.16891427338123322 0.01847638376057148 -0.13963919878005981 0.015597113408148289 0.2507203221321106 -0.16710826754570007 -0.0182923786342144 -0.08064009249210358 -0.025372587144374847 -0.09588613361120224 -0.10025808215141296 0.2001066356897354 -0.15912562608718872 0.02881282940506935 0.20281381905078888 -0.07883472740650177 0.1171981543302536 0.08342834562063217 0.11367004364728928 -0.3477041721343994 -0.09995759278535843 0.059967294335365295 0.2056746929883957 -0.10484670102596283 -0.09105183929204941 0.06838083267211914 0.17055584490299225 0.1267971247434616 0.03456350415945053 -0.04215351864695549 0.03248235955834389 -0.1019349992275238 -0.08201479911804199 -0.1750594973564148 -0.06836606562137604 -0.19723378121852875 0.0073270779103040695 -0.22387626767158508 0.07311844080686569 -0.1114984005689621 -0.04502702131867409 0.14870689809322357 -0.27858635783195496 -0.026183685287833214 -0.11418519914150238 0.0680161640048027 -0.15879836678504944 0.1306990087032318 0.33600765466690063 0.0095723457634449 0.04148326814174652 -0.1184472143650055 0.1746513992547989 -0.0016623340779915452 -0.006745481863617897 0.07387743890285492 0.08479972928762436 -0.10165771096944809 0.015317253768444061 -0.09113790094852448 0.23915456235408783 -0.04158595949411392 0.010216375812888145 -0.14340025186538696 -0.008405561558902264 0.0028956844471395016 -0.028407158330082893 -0.1244998425245285 -0.19351212680339813 0.12252853810787201 -0.09521861374378204 -0.024559473618865013 0.25460636615753174 0.2783493399620056 0.2673698365688324 0.15411819517612457 -0.20621968805789948 0.15895748138427734 -0.21588024497032166 0.009282541461288929 -0.05264302343130112 -0.34847667813301086 -0.13470040261745453 0.0773315504193306 0.1326170712709427 0.045208174735307693 0.10402890294790268
discourage -0.03389790654182434 -0.12053487449884415 -0.039055097848176956 0.06630262732505798 -0.0591655857861042 -0.0774012953042984 0.17585667967796326 -0.012974046170711517 -0.08588483184576035 0.06239016726613045 -0.029800206422805786 0.022186236456036568 0.10847782343626022 0.10329291969537735 -0.09673020243644714 0.06572672724723816 0.11507505178451538 -0.003675389103591442 0.0439925491809845 0.09773236513137817 0.10303987562656403 0.02513699419796467 -0.13291704654693604 0.07955287396907806 0.11976347118616104 -0.09319160133600235 0.11814107745885849 -0.13764475286006927 0.11735199391841888 -0.17171917855739594 -0.012334180995821953 0.08102045208215714 0.04555728659033775 0.012925904244184494 0.09289541095495224 0.03879842534661293 -0.020780477672815323 -0.03968121111392975 0.0551413930952549 -0.006121363490819931 -0.013469014316797256 -0.01604011096060276 -0.07239538431167603 0.10401900112628937 -0.13594992458820343 -0.16118277609348297 0.13920685648918152 0.0662921741604805 -0.08956227451562881 -0.0370376780629158 0.04448883235454559 -0.06304821372032166 -0.02224620059132576 -0.019215742126107216 0.10389252007007599 0.04099111631512642 0.0760534480214119 0.01782047189772129 9.4264664221555E-4 -0.019479937851428986 -0.10590067505836487 -0.09617859125137329 -0.1548810750246048 -0.00916239246726036 -0.024187857285141945 -0.0472867526113987 0.0697849690914154 0.10562261193990707 -0.06876964122056961 0.01649659313261509 0.0654212012887001 0.019666224718093872 0.03773761913180351 -0.00876794196665287 -0.09829799830913544 -0.027318289503455162 0.023972291499376297 -0.1574486345052719 0.06664005666971207 -0.028980951756238937 0.009338104166090488 0.07019390165805817 -0.1496650129556656 0.11363784968852997 -0.013249162584543228 0.051914703100919724 0.03398684039711952 0.08363625407218933 0.002055613324046135 -0.10186295211315155 0.02523798495531082 0.055133603513240814 0.08547576516866684 0.16886073350906372 0.06025630980730057 -0.04925122112035751 -0.05532709136605263 0.001001984579488635 -0.047151412814855576 0.18476389348506927
rupture -0.05531999096274376 -0.15435604751110077 -0.24215242266654968 -0.005106945522129536 0.16209010779857635 -0.40820783376693726 -0.08454407751560211 0.20325200259685516 0.11381807178258896 0.27489015460014343 0.23215313255786896 0.20100264251232147 -0.06521737575531006 -0.19092217087745667 -0.007268686778843403 0.25109776854515076 0.4017011225223541 0.16468779742717743 0.2150428295135498 0.12455589324235916 0.0011940033873543143 0.22959750890731812 0.07266245782375336 -0.19167646765708923 0.06010614335536957 0.06172514706850052 0.07175920158624649 -0.19913549721240997 -0.003479001112282276 -0.009999098256230354 0.46206286549568176 0.23392832279205322 0.23957815766334534 0.34464573860168457 0.18003001809120178 -0.29985249042510986 -0.3614620566368103 -0.008965251967310905 0.10831770300865173 0.13735531270503998 0.2833576798439026 -0.05252738296985626 0.20556049048900604 -0.07442295551300049 0.062146496027708054 -0.038958702236413956 -0.3061268627643585 -0.2899816632270813 -0.11675761640071869 -0.255095511674881 -0.23954923450946808 0.025492852553725243 -0.16557443141937256 -0.2013980597257614 0.043189939111471176 -0.07546286284923553 0.1034872829914093 -0.33432382345199585 0.2530701756477356 0.14702998101711273 -0.17705994844436646 -0.39064306020736694 -0.4232949912548065 -0.07410398125648499 0.24311402440071106 -0.4208052456378937 0.021464087069034576 -0.14729611575603485 -0.5112873911857605 0.2264544814825058 0.07308495789766312 -0.06738601624965668 5.471784970723093E-4 -0.20797862112522125 -0.07422470301389694 -0.0030218239407986403 0.23835550248622894 -0.31456640362739563 -0.10305850207805634 0.5364901423454285 -0.07105646282434464 -0.1783069223165512 -0.5513055324554443 0.12804386019706726 -0.3730626404285431 0.19622664153575897 0.3403902053833008 0.10231230407953262 0.009427933022379875 0.1059507355093956 0.007023542188107967 0.14962267875671387 -0.07337227463722229 0.15803669393062592 -0.12481795996427536 0.09420517086982727 -0.1789853274822235 -0.04370664805173874 0.2727344036102295 -0.018409593030810356
lacquer -0.11781866103410721 -0.25003334879875183 -0.3376938998699188 0.09072432667016983 -0.1318109780550003 -0.17677178978919983 0.08889590948820114 0.17622141540050507 -0.09051387012004852 0.15517908334732056 0.19245389103889465 -0.15694749355316162 -0.2548196613788605 0.0046507385559380054 0.04648624733090401 0.17663611471652985 -0.06659024953842163 0.17633876204490662 0.1210978627204895 -0.05543143302202225 -0.009932825341820717 -0.09824735671281815 -0.15107601881027222 -0.12342210114002228 0.0159761905670166 0.12751241028308868 -0.007520420476794243 -0.0528278574347496 0.1100258156657219 -0.021253887563943863 -0.3159253001213074 -0.06450101733207703 0.18822041153907776 0.07176236808300018 0.46614328026771545 0.2329249233007431 -0.24182793498039246 0.08230139315128326 0.2887178063392639 -0.16968199610710144 0.20532985031604767 -0.11850375682115555 -0.051687054336071014 -0.00259520229883492 -0.19645477831363678 0.06407304853200912 0.2518519163131714 0.2580060660839081 -0.08262208104133606 0.09384818375110626 -0.2904966473579407 -0.05683763697743416 0.037297606468200684 0.15080979466438293 0.19855856895446777 0.22174595296382904 -0.11970167607069016 0.12096767872571945 0.1549166887998581 -0.02059093862771988 -0.2688661813735962 0.07921110838651657 -0.5062543749809265 0.08623723685741425 -0.0796886533498764 0.17334389686584473 0.058887552469968796 -0.01727169193327427 -0.18705637753009796 0.13608071208000183 0.043687742203474045 -0.08930457383394241 0.017252368852496147 -0.21910372376441956 0.15700243413448334 -0.22121286392211914 0.026876168325543404 0.09412059187889099 0.2394496500492096 -0.004154435358941555 0.011961021460592747 0.20550721883773804 -0.02777811884880066 0.4052525460720062 0.13819746673107147 0.4225212633609772 -0.04849380627274513 -0.17422431707382202 0.13704520463943481 -0.1066407859325409 -0.4210655391216278 -0.13312196731567383 0.10594283044338226 0.12341064214706421 -0.013180296868085861 0.14929942786693573 -0.17582929134368896 -0.13934236764907837 0.24962803721427917 0.17837302386760712
pick 0.0776905044913292 0.11004173010587692 0.20431803166866302 -0.05454421415925026 -0.15904265642166138 -0.01751895062625408 0.2391062080860138 -0.012312788516283035 0.03445720672607422 -0.14708948135375977 0.029981723055243492 -0.1313835084438324 0.1539677381515503 0.16457684338092804 -0.042611438781023026 0.12365797907114029 0.056461744010448456 0.11605274677276611 0.092417873442173 0.15218093991279602 -0.11606796085834503 0.025814924389123917 -0.021945735439658165 0.031529828906059265 0.2868524193763733 0.24609443545341492 0.11272072046995163 -0.030271274968981743 -0.29315587878227234 -0.1179661750793457 -0.011144869029521942 -0.0830477774143219 0.05909222736954689 0.11808615922927856 0.195127472281456 0.17638368904590607 -0.12107119709253311 -0.10818471759557724 0.20692400634288788 0.07956679165363312 -0.2602972090244293 -0.0010726501932367682 0.059686608612537384 0.09165168553590775 0.017176665365695953 -0.13805676996707916 0.13376274704933167 -0.20643778145313263 -0.07753834128379822 -0.21204699575901031 -0.16395235061645508 0.06847381591796875 -0.07221643626689911 -0.08931683003902435 0.12914954125881195 0.16007719933986664 0.06571974605321884 -0.08533404022455215 -0.053703222423791885 -0.031880397349596024 0.06532122939825058 -0.015295815654098988 -0.14609239995479584 0.08171221613883972 -0.01935700513422489 0.11645966023206711 -0.01390848122537136 -0.021289028227329254 -0.22535023093223572 -0.04043794050812721 -0.08460864424705505 0.1514488309621811 0.021014537662267685 -0.042024366557598114 0.01767667755484581 -0.02702179178595543 -0.08227888494729996 0.0814661905169487 -0.04030422121286392 -0.10954837501049042 0.020109035074710846 0.01378527283668518 0.061749622225761414 0.1299668699502945 0.27989140152931213 0.06841301172971725 0.12121735513210297 -0.01468238327652216 0.1136535108089447 -0.23737794160842896 0.038159023970365524 -0.17178593575954437 0.34743595123291016 0.06854800134897232 0.007848236709833145 0.08790268748998642 0.17741677165031433 0.12938863039016724 0.022198833525180817 0.0710938572883606
constrict 0.21693067252635956 0.21346308290958405 0.046399880200624466 -0.06853245943784714 0.024865878745913506 -0.06718923896551132 -0.14722009003162384 0.2729344367980957 0.17676448822021484 -0.08644478768110275 -0.1127760037779808 0.1350550353527069 0.08233150839805603 0.276996374130249 -0.2807954251766205 0.18593420088291168 0.370780348777771 0.10447652637958527 -0.19085939228534698 -0.10926699638366699 -0.27432382106781006 0.04192408174276352 -0.06925670057535172 0.11419608443975449 0.17208129167556763 -0.008464625105261803 0.15127569437026978 -0.18789605796337128 0.3608015179634094 0.3509272634983063 -0.0924297496676445 -0.0571545735001564 -0.03927202895283699 0.1225285455584526 -0.034641530364751816 -0.17235183715820312 -0.0560147687792778 -0.013985267840325832 0.07356218993663788 0.029574256390333176 -0.1505478173494339 0.2538008689880371 -0.05033695325255394 0.07556752115488052 -0.04148513078689575 -0.08606671541929245 0.18939977884292603 0.0072682746686041355 -0.013191214762628078 -0.35631388425827026 0.14929278194904327 -0.1725977659225464 -0.14685213565826416 -0.13480979204177856 0.09791266173124313 -0.24438093602657318 0.008329534903168678 0.18120555579662323 0.16942957043647766 -0.02736482210457325 -0.020995834842324257 -0.10713424533605576 -0.023106640204787254 -0.0014124151784926653 0.07980379462242126 -0.04699871689081192 0.05756142735481262 -0.06731952726840973 0.08552832156419754 -0.02405615709722042 0.08386845141649246 0.12704291939735413 -0.17751778662204742 -0.12748482823371887 -0.1257445514202118 0.1600024551153183 0.19958700239658356 -0.1044578030705452 0.14252446591854095 -0.12626643478870392 0.10880093276500702 -0.00313769094645977 -0.2524964511394501 0.13614200055599213 -0.3031159043312073 -0.016973981633782387 0.1896675080060959 -0.06188325583934784 -0.035845719277858734 0.2423364520072937 0.08072749525308609 0.10686761885881424 -0.35686275362968445 0.24655772745609283 -0.053495582193136215 -0.16596457362174988 -0.1350311040878296 0.01261280756443739 -0.00687823910266161 0.06820380687713623
fluctuate -0.1637657731771469 -0.232476606965065 -0.037819646298885345 -0.06147376447916031 -0.038308896124362946 0.23056785762310028 0.13614650070667267 0.14328689873218536 0.16770011186599731 0.00225357455201447 -0.17161086201667786 -0.09981448203325272 0.11487365514039993 -0.12389209121465683 0.06643751263618469 -0.16249871253967285 0.05706310272216797 0.23456113040447235 0.07497017830610275 0.03356017544865608 -0.10623699426651001 0.18254195153713226 -0.022895900532603264 -0.21573615074157715 -0.02320634387433529 -0.008784624747931957 0.06645029038190842 0.05827128142118454 -0.026060394942760468 -0.027067946270108223 0.2668198049068451 -0.11046367138624191 -0.09597355127334595 -0.1273801028728485 -0.11717359721660614 -0.12117627263069153 -0.07768853008747101 0.03239243105053902 -0.027974996715784073 0.06222616881132126 0.09663974493741989 0.10855824500322342 -0.07632414996623993 0.06933542340993881 -0.03602846711874008 -0.13147950172424316 -0.04730057716369629 -0.09588927030563354 -0.14314094185829163 -0.07980857789516449 -0.11566369235515594 0.12724533677101135 -0.07200716435909271 -0.10001783072948456 -0.007186537142843008 -0.07278130948543549 -0.020979594439268112 -0.00424486119300127 0.1068914607167244 0.004237284418195486 0.09731090813875198 -0.03440246358513832 0.001604379853233695 0.07651782035827637 0.08563752472400665 0.18509383499622345 -0.11594617366790771 -0.07462289184331894 0.026695625856518745 0.1392187625169754 0.0010216861264780164 0.020371727645397186 -0.053975705057382584 0.00934839341789484 -0.009258567355573177 0.007057403679937124 -0.07315022498369217 -0.16515487432479858 -0.011120615527033806 0.017860906198620796 -0.20191757380962372 -0.18791964650154114 -8.59935418702662E-4 0.12528187036514282 -1.0237630340270698E-4 0.1670629233121872 -0.030791448429226875 0.08781585097312927 0.21829695999622345 -0.05978976935148239 -0.01005751546472311 -0.12408936023712158 0.0264070276170969 0.023577768355607986 -0.10027280449867249 0.06575728952884674 0.19716709852218628 0.18084566295146942 -0.1904095858335495 0.05671806260943413
calculate -0.17596662044525146 0.020697079598903656 -0.06190153583884239 -0.11122362315654755 -0.19858957827091217 0.4858434200286865 0.15827533602714539 -0.010611188597977161 0.44007861614227295 -0.14929354190826416 -0.35411012172698975 -0.34188780188560486 0.35851654410362244 0.19956709444522858 0.15403462946414948 0.007636434864252806 0.5129849910736084 0.5507624745368958 0.2555992305278778 -0.006338678300380707 -0.21280156075954437 0.316555917263031 -0.09030358493328094 -0.5916134715080261 0.09449105709791183 0.3402804136276245 0.2765607535839081 0.36267754435539246 -0.3336391746997833 0.16580167412757874 0.5916264057159424 -0.5055399537086487 -0.4948142468929291 -0.0316951759159565 0.0020290513057261705 0.28566884994506836 -0.21677999198436737 -0.19910962879657745 -0.052547700703144073 -0.20691587030887604 0.17999669909477234 0.1726190745830536 -0.31260576844215393 0.13417360186576843 0.13211415708065033 -0.10330644994974136 -0.31290507316589355 -0.21158981323242188 -0.03890419006347656 -0.0304759182035923 -0.20751264691352844 0.2745966911315918 0.01663394644856453 0.24603521823883057 0.01414716336876154 -0.19797195494174957 -0.018840020522475243 -0.2423737496137619 0.2373240888118744 0.35953307151794434 -0.06775221973657608 0.07894182950258255 0.21237047016620636 -0.03981979191303253 0.09956130385398865 0.021178865805268288 0.1614709049463272 -0.13562047481536865 -0.002001010812819004 0.29795870184898376 -0.2878020107746124 0.09462630748748779 0.14192457497119904 0.057908348739147186 0.2037489414215088 0.518371045589447 -0.26927584409713745 -0.22010259330272675 0.013939913362264633 0.31477829813957214 -0.4610937237739563 -0.24907685816287994 0.2790520489215851 0.26675716042518616 -0.13305941224098206 0.2947165071964264 -0.06301198154687881 -0.030366722494363785 0.4410422146320343 -0.15146909654140472 0.07284678518772125 -0.2935408353805542 0.24680930376052856 -0.3300841450691223 -0.03765033558011055 -0.2625967860221863 0.3787212669849396 0.62850421667099 -0.25198641419410706 0.24216121435165405
authorize -0.09033894538879395 -0.07171769440174103 -0.002553613856434822 -0.035241976380348206 -0.014868097379803658 0.037258245050907135 0.02647709846496582 0.01985134556889534 0.032923560589551926 -0.01829845830798149 -0.0750536173582077 -0.07323526591062546 0.005809783935546875 -0.017574826255440712 0.03059335984289646 -0.026583023369312286 0.029671670868992805 0.08837184309959412 0.03645353019237518 0.005026288330554962 0.02496376261115074 0.03252146765589714 -0.015238595195114613 -0.0887792557477951 5.598221905529499E-4 -0.016727125272154808 -0.010013684630393982 0.05713241547346115 -0.006422669626772404 -0.04311370104551315 0.07342198491096497 -0.020767048001289368 -0.03171360865235329 -0.03153953328728676 -0.008822907693684101 -0.014519700780510902 -0.019192028790712357 -0.013793401420116425 -0.014139442704617977 -0.02249692566692829 0.021809760481119156 -0.001049372716806829 -0.02721639908850193 0.011661576107144356 0.013646603561937809 -0.044864147901535034 -0.064774289727211 -0.01948314905166626 -0.027112172916531563 -0.027783766388893127 -0.006440611090511084 0.0384952537715435 0.009389390237629414 -0.031371861696243286 0.009126877412199974 -0.015288443304598331 0.007104815915226936 0.006588068325072527 0.004827525001019239 -0.005409120582044125 0.04235140234231949 0.018771640956401825 0.006869968492537737 -0.009317856281995773 -6.533393170684576E-4 0.03214754909276962 0.004838405642658472 -0.06171214580535889 -0.003617403795942664 0.028796033933758736 -0.03910937160253525 0.04376772791147232 0.008686966262757778 0.035413265228271484 0.002436504466459155 0.018178576603531837 -0.0467497892677784 -0.006542199291288853 -0.023148903623223305 0.026863964274525642 -0.036274541169404984 -0.0379314199090004 -0.016390228644013405 0.025315728038549423 0.025007788091897964 0.03970526531338692 0.025463948026299477 0.0598045215010643 0.05548985302448273 -0.04051303490996361 0.0024927423801273108 0.007900433614850044 0.010051059536635876 0.004530187696218491 -0.02403414621949196 -0.03732556849718094 0.04406728222966194 0.04978977143764496 -0.05418802425265312 0.0029976977966725826
conceal -2.0389148266986012E-4 -0.013852295465767384 0.0783734992146492 -0.14349299669265747 -0.3721424341201782 -0.15865111351013184 0.21160654723644257 -0.13122700154781342 -0.11007649451494217 -0.09434917569160461 -0.17804482579231262 -0.08274266123771667 0.04154791310429573 -0.02718237042427063 -0.26519009470939636 0.3152547776699066 0.08198513835668564 -0.06259920448064804 -0.025709889829158783 0.07775017619132996 0.37320029735565186 -0.031099949032068253 -0.10847074538469315 -0.03573603555560112 -0.07563658058643341 -0.014550264924764633 0.05099593475461006 -0.3242143988609314 -0.21660591661930084 0.09062589704990387 -0.16316667199134827 0.09562702476978302 -0.2630472481250763 0.0981244221329689 0.16479693353176117 0.11448003351688385 -0.30768072605133057 0.1494276225566864 0.5529312491416931 0.23975436389446259 0.04016602411866188 -0.10579624772071838 0.3483717739582062 0.041121941059827805 -0.11348123103380203 0.3149377107620239 0.15822629630565643 0.031867917627096176 -0.2738761603832245 0.04864489659667015 0.2539732754230499 -0.12004837393760681 0.12831667065620422 0.03664436191320419 0.13609687983989716 0.07968287169933319 0.20688877999782562 -0.02258434146642685 0.20601089298725128 0.018779771402478218 -0.3090536892414093 -0.0974602922797203 -0.07622169703245163 -0.07795213162899017 -0.11281842738389969 -0.38451337814331055 0.09724104404449463 0.48598921298980713 -0.08098416775465012 0.08761696517467499 -0.05163798853754997 0.053301647305488586 0.15214668214321136 -0.08830168843269348 -0.03961955010890961 0.11745984107255936 -0.15788310766220093 0.0035530049353837967 -0.019951261579990387 -0.04350775107741356 0.21765702962875366 -0.43269896507263184 -0.2333100587129593 0.08114434033632278 -0.07808409631252289 -0.05487135425209999 0.0760718584060669 -0.04800640046596527 -0.19811034202575684 -0.2504677176475525 0.020491207018494606 0.04341728612780571 0.3221224248409271 0.021546365693211555 0.1400567591190338 -0.011607347056269646 -0.1229993999004364 0.19630907475948334 -0.08175823837518692 0.1772812455892563
possess 0.02405439130961895 -0.1491207331418991 -0.06575655937194824 -0.06346447765827179 -0.0998302698135376 0.06862080097198486 -0.012491677887737751 0.1025538519024849 0.050987981259822845 0.06914640963077545 0.05026160553097725 -0.10660970211029053 0.04612407460808754 0.013955377042293549 0.04358227178454399 0.07046195864677429 0.1950814574956894 0.20981062948703766 -0.019599610939621925 0.10604387521743774 -0.0863742083311081 0.02348903939127922 0.11095626652240753 0.13714927434921265 0.14733794331550598 0.11981561034917831 -0.01814742386341095 -0.05926329270005226 0.039567478001117706 0.2306051403284073 -0.07125996798276901 0.00851555448025465 0.09140461683273315 0.017803357914090157 0.18788279592990875 0.029234452173113823 -0.03748568892478943 0.06857410073280334 0.08215358853340149 0.027203988283872604 0.04307541996240616 -0.014012634754180908 0.13767561316490173 -0.1687389612197876 0.14503705501556396 -0.015821870416402817 -0.026476480066776276 -0.048476312309503555 -0.08873672038316727 0.03679382801055908 -0.19965188205242157 -0.0875120684504509 0.14665666222572327 -0.13155417144298553 0.2751239836215973 -0.002870547352358699 -0.3024832010269165 -0.1730978637933731 0.12910473346710205 0.1370578557252884 -0.06861225515604019 -0.10519762337207794 -0.1832137405872345 0.08347974717617035 -0.00170256313867867 -0.03815348073840141 -0.05564995855093002 -0.14925384521484375 0.09428028762340546 -0.11047756671905518 0.03118448331952095 -0.11242970824241638 0.07817597687244415 0.2904970645904541 0.026116078719496727 0.01220688782632351 -0.0018534730188548565 -0.08826340734958649 0.2092352956533432 0.08679508417844772 0.22606788575649261 -0.17364589869976044 -0.005358817987143993 0.08755752444267273 -0.07585202902555466 0.07182548195123672 0.24035227298736572 0.07460144907236099 0.05311410501599312 0.13011132180690765 -0.19584912061691284 -0.020608218386769295 0.0439000204205513 0.04696942865848541 -0.007806163746863604 -0.05363009124994278 -0.21917539834976196 0.03758522868156433 0.0521421954035759 -0.005455798469483852
scratch 0.07494781166315079 -0.3037681579589844 -0.47419336438179016 0.3069838285446167 -0.14768457412719727 -0.1753002554178238 -0.057636138051748276 0.05549497902393341 -0.14048662781715393 0.04095877707004547 -0.12689009308815002 -0.21772293746471405 -0.0961632952094078 -0.08225750178098679 -0.019654661417007446 0.22289949655532837 -0.0829000324010849 -0.1589454710483551 0.16893863677978516 0.025679294019937515 0.13909578323364258 0.07839854061603546 -0.06533636897802353 -0.022771865129470825 -0.09218116104602814 0.18435147404670715 0.24120116233825684 -0.13280518352985382 0.07525482028722763 -0.10431910306215286 0.11372173577547073 0.05242051184177399 0.3559839427471161 0.10989875346422195 0.330064594745636 0.03185199573636055 -0.16303382813930511 0.2212323397397995 0.1418757289648056 -0.046835191547870636 0.2420850545167923 -0.14549295604228973 -0.12261363118886948 -0.030603963881731033 -0.11096860468387604 -0.2600471079349518 0.13678598403930664 0.26152923703193665 -0.14358115196228027 0.22059084475040436 0.00546113308519125 -0.0375882089138031 0.1448068916797638 0.014876686036586761 0.28497833013534546 0.11454247683286667 -0.14695550501346588 0.1253615766763687 0.04046085849404335 0.15089546144008636 -0.26386865973472595 -0.04212570935487747 -0.3035880923271179 -0.046041179448366165 0.16192832589149475 -0.19812209904193878 -0.043324586004018784 0.2967606782913208 -0.39229223132133484 0.017269929870963097 -0.08641719818115234 -0.18670347332954407 0.03740399703383446 -0.2371780425310135 -0.018553048372268677 -0.0601707361638546 -0.024796124547719955 0.13354597985744476 0.1005108579993248 0.12275160849094391 0.035246334969997406 -0.02561209723353386 -0.19071869552135468 0.32243621349334717 0.06759820878505707 0.3438795208930969 0.010928676463663578 -0.08972793817520142 0.008456473238766193 -0.03355308994650841 -0.39576470851898193 -0.008814048022031784 -0.011986986733973026 0.24917727708816528 -0.1298953741788864 0.0458831749856472 -0.03724151477217674 -0.035415466874837875 0.06585328280925751 -5.255031283013523E-4
require -0.14660444855690002 -0.10162285715341568 -0.001886440790258348 -0.24610388278961182 -0.22804316878318787 0.14150036871433258 0.22774967551231384 0.22038382291793823 -0.2104041874408722 -0.14237666130065918 -0.2077115774154663 -0.1768178790807724 0.07847122848033905 0.048900239169597626 0.054093822836875916 0.07490113377571106 -0.05396364629268646 0.20785290002822876 0.003997886553406715 0.18029160797595978 -0.017175931483507156 -0.10256190598011017 0.08862103521823883 0.01525426097214222 0.05759558081626892 -0.05944278836250305 -0.02704952098429203 -0.03671158850193024 0.19221198558807373 -0.018425997346639633 0.19153349101543427 0.06678778678178787 0.040541719645261765 -0.06234544515609741 0.20289640128612518 0.08630958199501038 -0.14700782299041748 0.017968637868762016 0.09619756042957306 0.007906562648713589 0.14425136148929596 -0.11223462969064713 0.136780247092247 0.1374559849500656 -0.07559937238693237 -0.16943496465682983 -0.10088852047920227 -0.12912370264530182 -0.12482696026563644 0.1788991093635559 0.21164052188396454 -0.17899397015571594 -0.0829625055193901 -0.048094503581523895 -0.028397653251886368 -0.15756617486476898 -0.08704205602407455 -0.31069374084472656 0.20040059089660645 0.016834719106554985 0.0096090417355299 -0.2356835901737213 -0.13829348981380463 0.04492748901247978 -0.11164391040802002 0.10805284976959229 0.012146458961069584 0.2252911627292633 0.01729581132531166 -0.007428820710629225 -0.03197219595313072 0.1512746661901474 0.2170887291431427 0.08006995916366577 -0.02730715647339821 0.10844633728265762 -0.26801201701164246 0.07068458199501038 0.050315048545598984 -0.1960430145263672 -0.1374475657939911 -0.2897082567214966 0.012803249061107635 0.2393508106470108 0.28111550211906433 0.07020825892686844 0.1533539593219757 0.29954782128334045 0.0654715895652771 -0.005762113723903894 -0.27674806118011475 0.21938487887382507 -0.06378877907991409 -0.147530198097229 0.04824463650584221 -0.16161316633224487 0.03194628655910492 0.1453806757926941 0.0919979065656662 -0.09005140513181686
honeycomb 0.4014483690261841 -0.8075262308120728 -0.319265216588974 0.33178550004959106 0.01055491529405117 -0.3221907913684845 -0.30018946528434753 -0.1694374829530716 0.024758927524089813 -0.19481854140758514 0.11064920574426651 -0.12188262492418289 -0.48568469285964966 -0.15890750288963318 -0.6704316139221191 0.3199657201766968 -0.1745135635137558 0.36356499791145325 -0.14924506843090057 -0.4120064377784729 0.025757720693945885 0.12601786851882935 -0.2094719558954239 -0.08543714135885239 -0.22173002362251282 0.525219202041626 0.21950824558734894 -0.234294593334198 0.0783158540725708 0.35596930980682373 -0.771816074848175 -0.1696871668100357 0.02111036516726017 0.49973317980766296 0.07342348247766495 -0.13703539967536926 -0.1804732382297516 -0.45046254992485046 -0.028416357934474945 0.15390808880329132 0.15432317554950714 -0.12073180079460144 -0.21016955375671387 0.09555698931217194 -0.21833619475364685 -0.0578194260597229 -0.2480931431055069 -0.3032299876213074 0.1057104617357254 0.13223257660865784 -0.17434674501419067 0.03804618865251541 0.13775953650474548 -0.041606418788433075 0.17913539707660675 0.2761707603931427 -0.13466066122055054 -0.11217565089464188 0.4005381762981415 0.35325437784194946 -0.12454483658075333 -0.13234040141105652 -0.2765049934387207 0.21619361639022827 0.1764562726020813 -0.4580208659172058 0.11975382268428802 -0.25301945209503174 0.2027597874403 0.008927448652684689 -0.29532745480537415 -0.05667963624000549 -0.27086400985717773 0.4343278408050537 0.16687119007110596 -0.5233230590820312 -0.13175024092197418 -0.4748633801937103 0.3982783257961273 -0.2668902575969696 0.2631659507751465 0.599938690662384 -0.4385053515434265 0.4167596399784088 -0.17167173326015472 0.1343318372964859 -0.3901197016239166 0.08310312032699585 0.5597156286239624 0.11140797287225723 -0.6414243578910828 0.034706518054008484 -0.16591006517410278 -0.11778616160154343 0.06727921217679977 0.3875889480113983 -0.2615687847137451 -0.03980304300785065 0.6052166819572449 0.42665353417396545
size -0.0529496893286705 -0.018047580495476723 -0.25582101941108704 0.1155824139714241 -0.12909755110740662 0.13274884223937988 -0.03155988082289696 0.10516864061355591 0.03886545076966286 -0.013436409644782543 0.130071222782135 0.14005941152572632 0.021962260827422142 0.11465013772249222 -0.021100884303450584 0.16937917470932007 0.019264034926891327 0.2948364317417145 -0.17319242656230927 0.15121184289455414 0.06257390975952148 0.09286600351333618 0.03393620252609253 -0.07223553955554962 0.15308412909507751 0.12809687852859497 0.05112692341208458 -0.14668698608875275 0.2937784790992737 0.18287838995456696 -0.07603045552968979 -0.048858076333999634 -0.14623422920703888 -0.10756716132164001 0.18919846415519714 0.0024130591191351414 -0.028564289212226868 0.0017449328443035483 0.004378680605441332 0.007815713062882423 0.15699352324008942 -0.1480618119239807 0.4677375853061676 -0.053842250257730484 0.039329834282398224 0.11239951848983765 0.19596576690673828 -0.04041004553437233 -0.040641043335199356 0.28960442543029785 0.04571988433599472 -0.12682916224002838 0.1371738761663437 0.15332342684268951 0.0057465918362140656 -0.28452250361442566 -0.10740821063518524 -0.03317977115511894 0.07998418807983398 0.07292880117893219 -0.19136486947536469 -0.2941085994243622 0.20566332340240479 0.09885445237159729 0.026869624853134155 -0.059411369264125824 0.15386229753494263 0.05565289780497551 0.04522015526890755 0.014563669450581074 -0.06937333941459656 -0.05727000534534454 -0.04798732325434685 0.09385693073272705 0.04400916025042534 -0.022877361625432968 -0.050684381276369095 0.38660773634910583 0.2719392776489258 -0.07777588069438934 0.003360897768288851 -0.09029154479503632 -0.018658459186553955 0.02212851494550705 -0.0633949488401413 0.16043925285339355 -0.02281814068555832 0.10911765694618225 -0.04045034945011139 -0.13794776797294617 -0.13924482464790344 0.041670043021440506 -0.11262615025043488 0.14328725636005402 0.08369076997041702 -0.2680193781852722 -0.06850641965866089 0.058310847729444504 -0.28013747930526733 0.1413915753364563
clutch -0.3567505180835724 -0.1951862871646881 0.20452015101909637 -0.26055827736854553 0.15946179628372192 0.17179086804389954 -0.3328251838684082 0.45246508717536926 0.41209325194358826 0.6099411845207214 -0.2186930775642395 0.07309546321630478 -0.11076728999614716 -0.3841029107570648 -0.09819038212299347 -0.19556143879890442 -0.014141606166958809 -0.29407796263694763 -0.42255643010139465 0.3349035680294037 0.1128515899181366 0.37975791096687317 -0.4325861632823944 0.07338634133338928 -0.12755727767944336 -0.18834595382213593 -0.3277621567249298 0.3671456277370453 -0.3589036464691162 0.47164997458457947 0.41432252526283264 0.5833401679992676 -0.014386375434696674 -0.18405602872371674 -0.09885501116514206 0.13876861333847046 -0.2826631963253021 -0.17001603543758392 -0.19712603092193604 -0.05360148474574089 0.047765303403139114 -0.31641072034835815 3.1627563294023275E-4 0.6199588179588318 0.18593819439411163 -0.06438212096691132 -0.0405425950884819 -0.2334289699792862 -0.04990703985095024 0.2434321641921997 -0.09357307106256485 0.4010881781578064 -0.03958391770720482 -0.3964546024799347 -0.29155614972114563 -0.013306742534041405 0.05194475129246712 -0.3328230679035187 0.6082798838615417 -0.5121814012527466 -0.06726261973381042 0.31201156973838806 0.5356044769287109 0.12405521422624588 -0.15720243752002716 0.2699192464351654 -0.45953527092933655 -0.3610345423221588 -0.2217911183834076 -0.5440623164176941 0.098116934299469 0.05551377683877945 -0.1458515226840973 0.21676398813724518 -0.7704524993896484 -0.14990796148777008 -0.14301027357578278 0.08331649005413055 0.10130608826875687 0.16462281346321106 0.06757102906703949 -0.06188877299427986 0.4089033603668213 -0.1359768509864807 0.3776788115501404 0.3933115303516388 -0.31847336888313293 -0.33358946442604065 -0.023322315886616707 -0.2912929356098175 0.24961324036121368 -0.053655724972486496 -0.053941093385219574 0.5636444091796875 -0.3885462284088135 -0.02226458676159382 0.03814290836453438 0.30745965242385864 -0.3454166352748871 0.029953859746456146
temper 0.013149605132639408 -0.214213564991951 -0.5001858472824097 0.3225928843021393 -0.13639746606349945 -0.14326241612434387 0.10047228634357452 0.46389326453208923 -0.09443096071481705 0.2112208902835846 -0.0698617622256279 -0.1765764057636261 -0.026819495484232903 0.10250910371541977 0.08668991923332214 -0.010588955134153366 0.09018208831548691 0.1890449970960617 -0.08119706064462662 -0.14214585721492767 -0.1237204521894455 0.04079428315162659 0.3529796302318573 -0.2204573005437851 0.22236138582229614 0.3560574948787689 -0.024397708475589752 0.1331349015235901 0.29301154613494873 0.04969415441155434 -0.35826408863067627 -0.07780855894088745 0.32408154010772705 -0.1457080990076065 0.4180424213409424 -0.11384033411741257 -0.37124499678611755 0.18865551054477692 0.2116309106349945 0.18273600935935974 0.21854333579540253 0.010066095739603043 -0.0169405285269022 -0.08146820217370987 -0.09730010479688644 0.2615586817264557 0.03414621576666832 0.2510889768600464 0.16587947309017181 -0.04570426791906357 -0.2949157655239105 0.15995649993419647 -0.03754928335547447 -0.05791783332824707 -0.02063673920929432 0.06763846427202225 -0.05259690061211586 -0.07872737944126129 0.22143560647964478 0.07383331656455994 -0.03601931408047676 0.2744567394256592 -0.34518346190452576 0.10960610210895538 0.3335433900356293 0.33206695318222046 0.010758969001471996 -0.1297910511493683 -0.1679498702287674 0.3193018436431885 0.05488036572933197 -0.010516064241528511 0.0477587915956974 0.281148761510849 0.21424992382526398 0.027565136551856995 -0.10227593779563904 -0.25643375515937805 0.11541876941919327 -0.13251470029354095 -0.23936912417411804 0.2349405586719513 -0.08598166704177856 0.5660155415534973 0.010943383909761906 0.4155218005180359 0.05376274138689041 -0.016618628054857254 0.33196380734443665 0.05683521926403046 -0.4880736768245697 -0.13874319195747375 0.076544389128685 0.023988142609596252 0.029676584526896477 0.17455482482910156 -0.03396783024072647 -0.09574978053569794 0.11788438260555267 0.04241703823208809
evacuate 0.021733654662966728 -0.06838218867778778 0.05459063872694969 -0.1988198608160019 -0.047399066388607025 -0.23175139725208282 0.24381017684936523 0.2360774576663971 0.18540947139263153 -0.1940794736146927 -0.14562936127185822 0.0044869957491755486 -0.12942878901958466 -0.17952054738998413 -0.06270383298397064 -0.014006092213094234 -0.11644424498081207 0.390618234872818 0.18062299489974976 0.11530063301324844 -0.24195466935634613 0.04595881700515747 -0.12357477098703384 0.00980739202350378 0.1389460265636444 0.058353573083877563 -0.024253323674201965 -0.2453496903181076 0.049722820520401 -0.10323701053857803 0.13520225882530212 -0.23110529780387878 -0.00682420888915658 -0.19415974617004395 0.027492759749293327 -0.09377602487802505 -0.26376116275787354 0.15241436660289764 -0.011279200203716755 0.06285227835178375 -0.2445211410522461 -0.0248306505382061 0.13016295433044434 0.05255510285496712 -0.08607005327939987 -0.35206839442253113 0.060307737439870834 -0.32966816425323486 -0.302683025598526 -0.3195994794368744 -0.2777102291584015 0.11381654441356659 -0.26955392956733704 -0.02855410985648632 0.10395050793886185 -0.15252447128295898 0.19897489249706268 -0.14588592946529388 0.05786236375570297 -0.1339823603630066 0.1486862152814865 -0.30190035700798035 -0.15697051584720612 0.015656163915991783 -0.11638829112052917 0.13084721565246582 0.027797987684607506 0.1623072326183319 0.11233969032764435 0.18469272553920746 0.09715410321950912 0.1588936597108841 -0.12832367420196533 -0.276842325925827 0.24837447702884674 -0.10176573693752289 0.18123090267181396 -0.2468409389257431 -0.13939525187015533 -0.13898149132728577 -0.06775111705064774 -0.10926290601491928 -0.24602735042572021 0.10408297926187515 -0.027137205004692078 -0.1030234545469284 0.14096148312091827 -0.1915501356124878 -0.2001582235097885 0.0028026453219354153 0.11773046106100082 0.017340037971735 0.019749853760004044 0.022160645574331284 -0.08218426257371902 0.28080472350120544 0.045176297426223755 0.11999942362308502 -0.2811191976070404 0.29453882575035095
wind 0.21665233373641968 -0.08705835044384003 -0.3565829396247864 -0.2540803849697113 -0.2728067636489868 0.5485165119171143 0.06473738700151443 -0.22440440952777863 0.16809110343456268 -0.2339416891336441 -0.1162111684679985 -0.12282594293355942 0.12191791832447052 -0.20621895790100098 -0.1368081271648407 0.05739656090736389 0.27297911047935486 0.42872920632362366 -0.22651362419128418 0.450003057718277 -0.17130114138126373 -0.055880799889564514 -0.03535494580864906 -0.05669510364532471 -0.09110040217638016 -0.1487836092710495 0.04438491538167 0.017466554418206215 -0.13498741388320923 -0.15304693579673767 -0.10429117828607559 0.24735279381275177 0.16061554849147797 0.34925195574760437 0.5801796913146973 -0.197811558842659 0.08842748403549194 0.05973368138074875 0.13286404311656952 -0.06862737983465195 0.17881886661052704 -0.21461644768714905 -0.03466767817735672 -0.11112897843122482 0.009474590420722961 0.08154576271772385 -0.20550216734409332 -0.20644454658031464 0.6353809833526611 0.11174475401639938 -0.07424497604370117 0.14140576124191284 -0.03390008583664894 -0.1640697866678238 -0.0980844721198082 0.1288929581642151 0.18456341326236725 -0.41019394993782043 0.052649933844804764 0.004914622753858566 -0.04373840242624283 0.2570866644382477 0.3508257269859314 -0.22113658487796783 0.06583411991596222 0.3467608094215393 -0.3310246467590332 -0.09811761230230331 -0.2785691022872925 0.012198434211313725 -0.01572979800403118 0.5004582405090332 0.17407284677028656 0.09062082320451736 -0.060917265713214874 -0.18770454823970795 -0.4653222858905792 0.1132158562541008 0.1033523753285408 -0.39461514353752136 0.2719770669937134 -0.07585728168487549 -0.18996278941631317 0.07743704319000244 -0.13016726076602936 0.20624245703220367 -0.16988714039325714 0.052500855177640915 -0.15019680559635162 0.04686909541487694 0.2381054311990738 -0.2206610143184662 0.38239002227783203 -0.04013969004154205 -0.08941490948200226 -0.1507895588874817 0.029489552602171898 0.10312259197235107 -0.01289171539247036 -0.42691633105278015
hang -0.010786809027194977 0.3592987358570099 -0.24600714445114136 -0.19811923801898956 -0.512704610824585 -0.17642785608768463 0.10505877435207367 -0.30837514996528625 -0.007552982773631811 -0.05648896098136902 -0.153603196144104 0.015108900144696236 0.041906923055648804 -0.2042967677116394 -0.12790587544441223 0.1372620314359665 0.26663345098495483 -0.06513864547014236 -0.019007116556167603 0.17636188864707947 0.21649889647960663 0.01604330725967884 0.271140992641449 -0.11627039313316345 -0.2074051946401596 -0.12822099030017853 0.04186791926622391 -0.454844206571579 0.056725889444351196 0.23403200507164001 -0.1960955709218979 0.1755516678094864 -0.13037584722042084 0.14703993499279022 0.06900915503501892 -0.07448344677686691 -0.03909363970160484 0.2548031806945801 0.5661531686782837 0.4928240478038788 0.07033570855855942 -0.15011368691921234 0.059367887675762177 -0.11042924970388412 -0.005022039171308279 0.24199192225933075 0.29886212944984436 0.030835874378681183 -0.12186112254858017 0.04010051488876343 0.30322808027267456 0.034126315265893936 0.04022149369120598 -0.22143074870109558 0.3030450940132141 0.0954839438199997 -0.04132520779967308 -0.26569488644599915 0.33939382433891296 0.03087514080107212 -0.43250906467437744 -0.11158285290002823 0.027152979746460915 -0.004918869584798813 -0.2524241805076599 -0.1772165596485138 0.17509575188159943 0.34561240673065186 -0.19717243313789368 0.11723023653030396 -0.2845638394355774 0.2623478174209595 0.006478180177509785 -0.12090129405260086 0.028704853728413582 0.24632787704467773 -0.1177840530872345 0.04515596851706505 -0.33678683638572693 -0.2620895504951477 0.2860163450241089 -0.3776652216911316 -0.13581745326519012 0.0031806030310690403 0.2025856077671051 0.08566439896821976 -0.4087696373462677 -0.10887382924556732 -0.07836586982011795 -0.21601344645023346 -0.016910485923290253 -0.21208535134792328 0.2377154529094696 -0.2735413610935211 0.2579995393753052 0.19672369956970215 0.1224183589220047 0.2398921400308609 -0.13286103308200836 -0.06691417843103409
poise -0.02332664281129837 -0.05906284227967262 -0.06624705344438553 0.012795289047062397 -0.03980465233325958 -0.04298325255513191 -0.002372064394876361 0.02842472307384014 -0.051518697291612625 0.07565717399120331 -0.0070755030028522015 -8.480623364448547E-5 -0.05006962642073631 0.015624094754457474 -0.004038719460368156 0.005970324389636517 0.01896422915160656 0.09525242447853088 -0.006053300108760595 -0.01727244257926941 -8.469321182928979E-4 -0.06945506483316422 0.04211264103651047 -0.035097602754831314 0.07002784311771393 0.03166528418660164 0.015203525312244892 -0.03464604541659355 -0.03987003490328789 0.006024936214089394 -0.05112096667289734 -0.008583322167396545 0.06974873691797256 -0.020755989477038383 0.08901306241750717 -0.07555149495601654 -0.033775318413972855 0.0404835119843483 0.053759075701236725 0.004844439681619406 0.02749047987163067 -0.03334488347172737 -0.023598914965987206 -0.01742006465792656 -0.08166342228651047 0.055727895349264145 0.027856577187776566 0.046833619475364685 0.008902470581233501 0.01055897492915392 -0.10523263365030289 0.010785133577883244 0.004268771503120661 -7.87860422860831E-4 0.0525517500936985 0.009924007579684258 0.03888208791613579 -0.029773149639368057 -0.022150540724396706 0.019653819501399994 -0.03410019353032112 0.030240613967180252 -0.12757453322410583 0.07383540272712708 0.020173540338873863 0.025164561346173286 -0.005824836902320385 -0.07585252821445465 9.973328560590744E-4 0.046706415712833405 0.0556095689535141 -0.01934228651225567 -0.020052287727594376 -0.03421568125486374 0.05258458852767944 -0.01942984201014042 -0.007913471199572086 -0.02358824387192726 0.02884254977107048 -0.03012634813785553 -0.03178538754582405 0.07643365114927292 -0.002159212017431855 0.06698901206254959 0.04813452064990997 0.08474788069725037 0.03722139447927475 -0.013344011269509792 0.04980165883898735 0.0012052101083099842 -0.009973649866878986 -0.05203429237008095 0.012345189228653908 0.024364085868000984 0.012193356640636921 0.029516756534576416 -0.06023591011762619 -0.03469901531934738 0.014153026044368744 0.03191017732024193
roll 0.04621949791908264 -0.07783422619104385 -0.23498226702213287 0.37125736474990845 -0.06871624290943146 0.13954752683639526 -0.24490830302238464 -0.2504955232143402 0.19657203555107117 0.026479994878172874 -0.0923924595117569 0.06305065006017685 0.2615117132663727 -0.1281564086675644 -0.06877003610134125 0.2578912079334259 0.13894228637218475 0.036799341440200806 -0.024281039834022522 0.2347709983587265 -0.03598092496395111 0.1145438477396965 0.08701784163713455 -0.18495973944664001 0.11005651950836182 0.1442282497882843 0.2754298746585846 0.2011580914258957 -0.17475111782550812 0.4919358193874359 -0.19226673245429993 0.10936466604471207 0.11022769659757614 0.36618369817733765 0.10946428775787354 0.05203436687588692 -0.18701085448265076 0.1228969618678093 -0.14747966825962067 0.15991313755512238 -0.07644034177064896 -0.028301691636443138 0.27556777000427246 -0.10540051758289337 0.14041276276111603 -0.15776196122169495 0.13667625188827515 0.1814194619655609 0.1340753734111786 0.2231164425611496 -0.07939089089632034 0.01039578951895237 0.308615118265152 0.15364034473896027 0.2828661799430847 0.007537399884313345 -0.08203966915607452 0.05018655210733414 -0.007764050271362066 0.08750976622104645 0.26157277822494507 -0.06863300502300262 0.32613125443458557 -0.08663211017847061 0.01686709001660347 0.36652374267578125 -0.08910222351551056 -0.03610123321413994 -0.38547205924987793 -0.1457802653312683 -0.09705449640750885 -0.30332112312316895 -0.2801443338394165 0.5801941752433777 0.09956829249858856 -0.20141439139842987 -0.04585453122854233 0.11867832392454147 -0.1572018265724182 -0.21239401400089264 -0.010779203847050667 -0.06681845337152481 -0.26269662380218506 0.17522481083869934 0.12487374991178513 0.26166218519210815 -0.07550247758626938 -0.30102869868278503 -0.13622936606407166 0.3923330307006836 -0.4952923357486725 -0.17459093034267426 0.31557273864746094 0.22529910504817963 -0.248770609498024 -0.16338494420051575 1.0987541463691741E-4 -0.1292363852262497 -0.058807242661714554 -0.6621733903884888
blur -0.0842471644282341 -0.04728720709681511 -1.3292874791659415E-4 0.06238967552781105 -0.11347675323486328 0.07307464629411697 -0.03491446375846863 -0.001961497822776437 0.0519295297563076 -0.11102811992168427 0.0263154748827219 -0.05332033708691597 0.07943356782197952 0.02230158820748329 -0.0032940940000116825 -0.07354510575532913 0.049795132130384445 0.0762273520231247 -0.004340698476880789 -0.003176202764734626 0.002156553091481328 -0.01869072951376438 -0.0344538614153862 -0.02935023233294487 -0.045107848942279816 0.03415077179670334 0.11356326937675476 -0.013146508485078812 -0.04420462250709534 -0.03380813077092171 -0.03021647036075592 -0.06545563787221909 -0.010207930579781532 0.09423422813415527 0.1080172136425972 0.1468275785446167 0.0027690741699188948 -0.03673623502254486 0.07446900755167007 0.004603806417435408 0.07189170271158218 -0.06364187598228455 0.01657639630138874 -0.018105661496520042 -0.01966814324259758 0.017838235944509506 0.04025490954518318 -0.010812598280608654 0.07218407094478607 -0.020929262042045593 0.09421027451753616 -0.06331264227628708 0.1951112300157547 0.06042022630572319 0.06828487664461136 0.10806592553853989 -0.09272333234548569 0.06964538246393204 0.011721796356141567 0.007261142134666443 -0.1105470359325409 -0.029648663476109505 -0.05157732591032982 -0.026921065524220467 -0.043383222073316574 0.02255852520465851 0.07311858236789703 0.09925028681755066 0.03397906944155693 -0.019925320520997047 0.01534158643335104 6.976322620175779E-4 0.07050123810768127 0.02139325439929962 -0.010797626338899136 0.012216557748615742 0.00900823064148426 0.022581232711672783 -0.0054930332116782665 0.042084455490112305 0.07557445764541626 0.001417094492353499 0.03904692083597183 0.11069308966398239 0.029265325516462326 0.11404044181108475 -0.0035397117026150227 -0.13489916920661926 -0.010934426449239254 -0.10748113691806793 -0.0021080595906823874 0.010196840390563011 0.06186037138104439 -0.0051514757797122 0.10039129853248596 -0.09465013444423676 0.04639606550335884 0.06655535846948624 0.05084166303277016 0.08696230500936508
turn 0.11866406351327896 0.04461301490664482 0.16026851534843445 -0.10655590891838074 -0.15633073449134827 0.17184527218341827 0.15248426795005798 0.057517554610967636 0.1582893431186676 -0.0758325532078743 -0.056676529347896576 -0.13078145682811737 0.06129033491015434 0.11200690269470215 0.09209004044532776 0.004526646342128515 0.19621597230434418 0.14085574448108673 -0.09099602699279785 0.06569697707891464 0.1426600217819214 0.07814779132604599 -0.11407627910375595 0.003823922947049141 -0.048882342875003815 -0.1534695327281952 0.048873670399188995 0.018408751115202904 0.06965958327054977 0.10783617943525314 -0.03271453455090523 -0.027285676449537277 0.04204559326171875 -8.354400051757693E-5 0.15922552347183228 0.02463957481086254 0.05243421718478203 -0.07747462391853333 0.14796526730060577 -0.0511268675327301 -0.008247558027505875 -0.006397271528840065 0.01560045313090086 -0.1802988201379776 0.09404478967189789 -0.19734930992126465 0.03730618953704834 -0.20404565334320068 0.014041933231055737 0.04136769846081734 0.12852545082569122 0.04348430782556534 -0.059098899364471436 -0.14613386988639832 0.03228335082530975 0.038730721920728683 0.018291912972927094 0.08217476308345795 0.07432609051465988 -0.08186236023902893 0.0941932201385498 0.1508684605360031 -0.0030261336360126734 -0.10023216903209686 -0.0447361133992672 0.1304624080657959 -0.13799907267093658 -0.033457886427640915 0.040441952645778656 -0.07801811397075653 -0.05645351484417915 0.12101143598556519 -0.031531043350696564 0.14880692958831787 -0.0678490474820137 0.06507675349712372 -0.10147006064653397 -0.0552193857729435 -0.06164424121379852 -0.13664934039115906 0.17848823964595795 0.09432635456323624 -0.09416680783033371 0.06266198307275772 0.1903693526983261 0.02424069680273533 0.06138163432478905 0.05059961974620819 -0.12874791026115417 -0.20495766401290894 0.20570151507854462 0.18425743281841278 0.1873459666967392 0.05577516555786133 0.05032128468155861 -1.053886953741312E-4 0.043959494680166245 -0.002172994427382946 -0.224946528673172 -0.022992774844169617
adduct -0.19045954942703247 -0.23298577964305878 -0.2553146481513977 -0.03976009041070938 -0.062214601784944534 -0.08620841056108475 0.1451779007911682 0.09262654930353165 -0.07380559295415878 0.15811292827129364 -0.002271567704156041 -0.13135825097560883 -0.029062917456030846 -0.08843103796243668 -0.009442702867090702 0.03597148507833481 -0.17143075168132782 0.2006521373987198 0.08306964486837387 -0.015177515335381031 -0.053059328347444534 -0.0032769781537353992 -0.06877513229846954 -0.06678834557533264 0.10892882943153381 0.15621165931224823 0.004970310255885124 0.01863834634423256 0.0650220662355423 0.027430640533566475 -0.14128857851028442 -0.16093923151493073 -0.007520580664277077 -0.056571055203676224 0.14255215227603912 0.01347443275153637 -0.06252962350845337 0.046916861087083817 -0.017140915617346764 -0.05116758123040199 0.16633646190166473 0.0016877236776053905 -0.06553203612565994 -0.023637229576706886 -0.10184945911169052 0.1678076535463333 -0.0639411211013794 0.16534358263015747 -0.09605886042118073 0.01646077260375023 -0.12852632999420166 0.029711244627833366 0.05145755037665367 0.005624007899314165 0.11040356755256653 0.041636306792497635 -0.060916971415281296 0.04057836905121803 -0.10883151739835739 -0.006702864076942205 -0.038716237992048264 0.03884763643145561 -0.14042150974273682 0.13145743310451508 0.01059444434940815 0.01849229820072651 0.040185991674661636 -0.049061041325330734 -0.03443903848528862 0.1332799345254898 0.11931027472019196 0.08661893755197525 0.03554956614971161 0.004135891795158386 0.03465595096349716 -0.040243905037641525 -0.09271270781755447 0.04334743693470955 0.14783048629760742 0.04544730484485626 -0.14052601158618927 0.14708149433135986 0.00865397322922945 0.29186901450157166 0.09857719391584396 0.19354313611984253 -0.0302338395267725 -0.04706418886780739 0.1772640198469162 -0.17849551141262054 -0.2108621448278427 -0.09881387650966644 0.01510586030781269 -0.11720000207424164 0.09310353547334671 0.049240294843912125 0.008826110512018204 -0.018270447850227356 0.18719372153282166 -0.014227421022951603
evaporate -0.3391135334968567 -0.13382922112941742 -0.038335077464580536 -0.28324663639068604 0.05739457160234451 -0.1802598536014557 0.5002922415733337 0.47227445244789124 0.02528415434062481 -0.12766088545322418 0.2558704614639282 -0.17262032628059387 -0.18160943686962128 -0.09955716133117676 -0.09867779910564423 0.17832845449447632 -0.07202151417732239 0.5257223844528198 0.3748275637626648 0.18129833042621613 -0.11074072867631912 0.14174149930477142 0.083222895860672 0.0036262909416109324 0.4415125548839569 0.011326543986797333 0.20007961988449097 0.09179168939590454 0.2680617868900299 -0.30896055698394775 -0.2842652201652527 -0.09243319928646088 0.17938093841075897 -0.13629519939422607 0.0725892186164856 -0.2350722998380661 -0.013635079376399517 0.15371809899806976 -0.04805940389633179 0.23769789934158325 0.03309011831879616 -0.1526011824607849 -0.12566323578357697 0.10426051914691925 -0.21397003531455994 0.0141073577105999 0.12003079056739807 0.06607463210821152 0.23995159566402435 -0.43826553225517273 -0.25104475021362305 0.29179829359054565 -0.20212720334529877 0.0154682956635952 0.10194357484579086 0.19150882959365845 0.03970611095428467 0.2786691188812256 0.02630622871220112 0.07893875241279602 0.03767341747879982 -0.334243506193161 -0.2652457356452942 0.2783436179161072 0.003211488015949726 0.21500559151172638 -0.04891468957066536 -0.028673090040683746 -0.08018998056650162 0.16944094002246857 -0.03856470063328743 0.3240913152694702 -0.23238961398601532 -0.08908426016569138 -0.15646003186702728 0.0271812304854393 0.028966641053557396 -0.11626072973012924 0.26178431510925293 -0.10819194465875626 -0.2514570653438568 0.3137274980545044 -0.12301409244537354 0.19705554842948914 0.1607089787721634 0.505233645439148 -0.16561715304851532 -0.2938229739665985 0.13879208266735077 -0.25021734833717346 -0.1161239892244339 -0.20295821130275726 -0.1142188012599945 0.3378128707408905 0.05012889206409454 -0.04490718990564346 0.24461328983306885 -0.1725921779870987 -0.15613625943660736 0.38730910420417786
quiet -0.10575884580612183 -0.026386968791484833 -0.3221360445022583 0.04856119677424431 -0.32913801074028015 -0.02212761715054512 0.1646575778722763 0.26714393496513367 0.19180089235305786 0.08743904531002045 -0.31129637360572815 0.09626402705907822 0.007542655803263187 -0.12237701565027237 -0.04990910738706589 -0.1587391197681427 0.1408216655254364 0.1004614606499672 -0.2349318563938141 0.0675719603896141 -0.2098281979560852 0.1254458725452423 0.0666283667087555 0.060385119169950485 0.021620767191052437 -0.24153797328472137 0.05478831008076668 -0.26431527733802795 0.02706378884613514 -0.03477748483419418 0.14861655235290527 0.03628406673669815 -0.04127106815576553 -0.15262281894683838 -0.04218178614974022 0.06296885758638382 -0.04378190636634827 0.0423891618847847 -0.01949658989906311 0.1675141453742981 -0.04875453934073448 0.0032199162524193525 -0.02829623781144619 0.148762509226799 -0.09648168832063675 -0.32423093914985657 0.13806062936782837 -0.059349868446588516 -0.044188424944877625 0.1400994062423706 0.05464649200439453 0.04085678607225418 0.03429259732365608 -0.06025248020887375 -0.1285119354724884 -0.058240871876478195 -0.11612977087497711 -0.07505137473344803 -0.05674682557582855 -0.04520663246512413 -0.051342662423849106 -0.2254471778869629 -0.13392765820026398 0.10006322711706161 -0.07837790250778198 0.055793557316064835 -0.013340817764401436 0.11533424258232117 -0.0027415540535002947 0.06351408362388611 0.007094359956681728 0.09107706695795059 -0.03808245062828064 0.13746054470539093 -0.02795828878879547 -0.052158206701278687 -0.1261647641658783 -0.013768102042376995 0.20782062411308289 -0.22750256955623627 -0.06909075379371643 -0.04319910705089569 -0.2910390794277191 0.2320813536643982 0.09867735952138901 0.004813949577510357 -0.08858659863471985 -0.060012299567461014 -0.06822052597999573 -0.03189384937286377 0.05677475780248642 -0.11141659319400787 0.2020779699087143 0.18353374302387238 -0.2534642815589905 -0.02616681344807148 0.0341450534760952 -0.030305687338113785 -0.08106047660112381 0.24221284687519073
incapacitate -0.08652006089687347 -0.04822666198015213 -0.04556644335389137 -0.0357135646045208 -0.028609108179807663 0.0527900829911232 0.08667957782745361 -0.01754174567759037 0.021514106541872025 -0.024314602836966515 0.007522644940763712 -0.07964713126420975 0.07692874222993851 -0.014295057393610477 0.024359161034226418 0.008420009166002274 0.07932651787996292 0.09267260134220123 0.0070318421348929405 0.056840069591999054 0.020482508465647697 0.04897959157824516 -0.03612976148724556 -0.05821206048130989 -0.027186352759599686 0.006322180852293968 0.07055933773517609 0.012644135393202305 -0.026313157752156258 -0.034457046538591385 0.06556251645088196 -0.049154896289110184 -0.008376849815249443 0.02119164727628231 0.05688367038965225 0.10274052619934082 -0.03858741745352745 -0.048927027732133865 0.0058358293026685715 0.009536681696772575 0.05986316129565239 -0.03473270311951637 -0.03566533699631691 0.005267418455332518 0.03302339091897011 -0.04479488730430603 -0.042293522506952286 -0.0537613108754158 -0.025203224271535873 0.013927964493632317 -0.011303126811981201 0.033217452466487885 0.04434219002723694 0.01253595296293497 0.014158581383526325 0.04114508628845215 -0.060999978333711624 -0.01998167112469673 0.012875576503574848 0.053838152438402176 -0.02801508828997612 -0.0314578041434288 -0.06290507316589355 0.02288600243628025 -0.07138299196958542 -0.014385635033249855 -9.41693433560431E-4 0.008696521632373333 0.03393726050853729 0.04082624241709709 -0.016782250255346298 -0.02125885896384716 0.04132462292909622 -0.058423299342393875 -0.02171083353459835 0.0190800242125988 -0.04862181842327118 -0.023656712844967842 0.03700391948223114 0.11599696427583694 -0.015815265476703644 -0.04146677255630493 -0.04693888872861862 0.015465239994227886 0.02180522121489048 0.06879036128520966 0.03278906270861626 0.02752206102013588 0.008995383977890015 -0.14788199961185455 0.028101325035095215 -0.006088998168706894 0.06911491602659225 0.0387575589120388 8.625659393146634E-4 -0.03290005773305893 0.002111714333295822 0.09360825270414352 0.03942294418811798 0.010450530797243118
flip -0.08122074604034424 0.07125437259674072 -0.029813900589942932 0.11299139261245728 -0.07001125812530518 0.04984443262219429 0.07783235609531403 -0.008012096397578716 -0.16871632635593414 -0.019222868606448174 -0.14654143154621124 -0.06567524373531342 0.20152243971824646 0.041560735553503036 -0.017139386385679245 0.1273413747549057 0.13579075038433075 -0.15012799203395844 0.0065528517588973045 0.22695034742355347 0.06394106894731522 0.04197685047984123 0.06525678187608719 0.04361514002084732 0.13238075375556946 -0.1455334573984146 0.17910605669021606 -0.15901757776737213 -0.14159591495990753 -0.09347056597471237 0.029858723282814026 0.05449572205543518 0.07456950098276138 0.0723191425204277 0.21758465468883514 0.052351947873830795 -0.1581074446439743 0.17353177070617676 0.3591868579387665 0.18135465681552887 0.03650042414665222 -0.07662945240736008 0.04527165740728378 -3.895889676641673E-4 -0.10762108862400055 -0.12824313342571259 0.15855476260185242 0.048318855464458466 -0.15872929990291595 -0.027533497661352158 0.18719501793384552 -0.09554041177034378 -0.021354829892516136 0.009341387078166008 0.1487523466348648 0.05150197818875313 0.1600388139486313 -0.1292780339717865 0.14769922196865082 0.05513044074177742 -0.28362712264060974 -0.16994532942771912 -0.07777584344148636 -0.08832776546478271 -0.08244437724351883 -0.11372155696153641 0.11438468843698502 0.2778371274471283 -0.14761754870414734 0.14996397495269775 -0.06517554074525833 -0.04315192997455597 -0.026259727776050568 0.04005160927772522 -0.10380757600069046 0.19947022199630737 -0.13729050755500793 -0.04645414650440216 0.0281089898198843 0.11545349657535553 0.09689638018608093 -0.24827268719673157 -0.19172146916389465 0.13825778663158417 0.040288232266902924 0.19926436245441437 0.05475471168756485 -0.11463133990764618 0.0024747992865741253 -0.04365472495555878 -0.04479622468352318 0.10842432826757431 0.10116461664438248 0.0570526085793972 -0.07663553953170776 0.01293189451098442 0.04020373895764351 -0.04714269936084747 -0.09130840748548508 0.1424553543329239
connect 0.37718045711517334 0.3244294822216034 0.05599665269255638 0.006542706396430731 -0.09190694242715836 0.18907946348190308 -0.059925809502601624 0.2578538656234741 -0.054927948862314224 0.029734864830970764 -0.058189235627651215 -0.3080310821533203 0.19605344533920288 0.05600937455892563 -0.013679513707756996 0.10402979701757431 -0.2277611941099167 0.18481303751468658 -0.2063058614730835 0.06913349032402039 -0.0814022421836853 -0.14509625732898712 -0.18234553933143616 -0.034914348274469376 -0.12710891664028168 0.03324490040540695 -0.0340464822947979 0.014280026778578758 -0.08849561959505081 -0.01977812871336937 -0.14362306892871857 0.18836598098278046 -0.07745607942342758 0.004894940182566643 -0.1167740449309349 0.17080549895763397 0.01612776145339012 0.062005363404750824 0.12240350246429443 0.09916866570711136 -0.20442399382591248 0.1104116290807724 0.06422840803861618 -0.244039848446846 0.20089022815227509 -0.009696729481220245 -0.08035839349031448 -0.010452535934746265 0.1430148333311081 -0.008503236807882786 0.12570208311080933 0.08276696503162384 0.03154188022017479 -0.07143189758062363 0.03445091471076012 0.12752299010753632 -0.3092290163040161 -0.12470365315675735 0.27636101841926575 -0.05896162614226341 0.26343363523483276 0.013907070271670818 0.25386571884155273 0.5731906890869141 0.14220848679542542 -0.17771202325820923 0.006743921432644129 0.12098560482263565 -0.38698333501815796 0.21071302890777588 -0.1475970447063446 -0.030324483290314674 -0.1910705715417862 -0.10979697108268738 -0.017614033073186874 -0.30161556601524353 -0.07062860578298569 -0.05817800760269165 0.11256100237369537 0.08922171592712402 0.1198393777012825 0.0035222249571233988 0.13105115294456482 -0.2237841635942459 0.11660107970237732 -0.05010588467121124 -0.034255992621183395 -0.08764222264289856 -0.08513515442609787 0.015421677380800247 0.1688706874847412 0.2952943742275238 0.06585308164358139 -0.05204126983880997 0.38764476776123047 -0.07405261695384979 0.011156650260090828 0.07498826086521149 -0.021075783297419548 -0.24207165837287903
resume -0.10596086084842682 -0.3259522616863251 -0.011664329096674919 0.10898013412952423 0.024532122537493706 -0.028445281088352203 0.18351013958454132 -0.08454815298318863 0.10817676037549973 0.1266392320394516 -0.41981908679008484 0.033715855330228806 0.05258620157837868 0.06172986701130867 0.009956400841474533 0.007470780052244663 0.06147885322570801 0.14092928171157837 0.2280435860157013 0.0990268737077713 0.2175280749797821 0.1875908523797989 0.025974925607442856 -0.31822434067726135 -0.11800512671470642 -0.47113949060440063 0.2179366648197174 0.1476074457168579 0.008207207545638084 -0.2392437905073166 0.35575205087661743 0.13543148338794708 -0.15672948956489563 -0.03854324668645859 -0.10724861174821854 -0.09561197459697723 -0.07381577044725418 0.041658662259578705 0.2120651751756668 -0.05368684604763985 0.09365129470825195 0.07912278920412064 -0.19084487855434418 0.1662462204694748 -0.19307079911231995 -0.6091848015785217 -0.08161374181509018 -0.17659717798233032 -0.41553571820259094 -0.1821862906217575 -0.022843800485134125 0.19361929595470428 -0.2403697520494461 -0.2166939377784729 0.1777881532907486 -0.14930397272109985 0.3006473481655121 -0.11526299268007278 -0.1569797396659851 0.0131388483569026 0.18375828862190247 -0.011858982034027576 0.045280247926712036 -0.23209835588932037 -0.03106222301721573 -0.018783601000905037 0.1625058352947235 0.03772251307964325 -0.18179471790790558 0.1331825703382492 -0.15221108496189117 0.22748367488384247 -0.07685791701078415 0.33602020144462585 -0.19911114871501923 0.047079190611839294 -0.1210101991891861 -0.22825443744659424 -0.06625522673130035 0.11199504882097244 -0.007721628528088331 -0.27522408962249756 -0.13849540054798126 0.16432161629199982 0.03189471364021301 0.1359749734401703 0.10242285579442978 0.16022206842899323 0.24808862805366516 -0.18942686915397644 0.03660396486520767 0.28178706765174866 0.059860650449991226 0.033762283623218536 -0.17034420371055603 -0.15832366049289703 0.1456286758184433 0.036515768617391586 -0.24142906069755554 0.1585446000099182
sharpen 0.1317010223865509 0.2135733813047409 -0.16043256223201752 0.013551561161875725 -0.3160180151462555 -0.04126294329762459 -0.08302414417266846 -0.039025187492370605 -0.0922716036438942 0.09998418390750885 -0.16166764497756958 0.10728492587804794 0.3604068160057068 0.05066869035363197 -0.25028836727142334 0.19663120806217194 0.19379295408725739 -0.0487593375146389 0.18068811297416687 0.15659260749816895 0.09846092015504837 0.12699547410011292 -0.059764314442873 -0.2231704592704773 -0.007279235869646072 -0.09445779025554657 0.25207388401031494 -0.27769389748573303 0.101946160197258 -0.06902123987674713 0.12156586349010468 0.11679673939943314 -0.007361546158790588 0.4868199825286865 0.5367308259010315 0.20844276249408722 -0.1840256303548813 -0.14208850264549255 0.4592316150665283 0.06280149519443512 0.05065406113862991 0.0986897423863411 -0.10695209354162216 0.017487993463873863 -0.12468437850475311 0.14879384636878967 0.05649225041270256 -0.04004551097750664 0.10154018551111221 -0.16753731667995453 0.28545889258384705 0.0222823116928339 -0.0959482416510582 -0.2146337777376175 0.13182058930397034 0.24915069341659546 0.03323102742433548 -0.07179123163223267 -0.004760940559208393 0.07556435465812683 -0.378948837518692 -0.059908002614974976 -0.020725484937429428 -0.18235550820827484 0.1121334359049797 -0.1506234109401703 0.32186344265937805 0.2401491403579712 -0.21004219353199005 0.09093979001045227 0.09520130604505539 -0.010069462470710278 0.3020327389240265 0.09005080163478851 -0.01005604863166809 0.25098809599876404 0.03876874968409538 0.029391227290034294 -0.09747543185949326 0.07956161350011826 0.32896971702575684 0.103236123919487 0.0983697697520256 0.40530452132225037 -0.028205495327711105 0.18355056643486023 0.13936570286750793 -0.09555995464324951 -0.07878752052783966 -0.09872300177812576 -0.2788079082965851 0.022619493305683136 0.18524739146232605 0.21644903719425201 0.25612157583236694 -0.09354256093502045 0.1305568963289261 -0.10747595876455307 -0.12000671029090881 -0.08392620086669922
denature 0.017644479870796204 -0.014200509525835514 -0.008742069825530052 -0.0019780704751610756 -0.0047799814492464066 -0.021185165271162987 -0.010744662955403328 0.0016466483939439058 -0.007310275919735432 0.002104527782648802 0.002705709543079138 0.017088625580072403 0.006869470700621605 -0.0020847816485911608 -0.009457811713218689 0.03377686068415642 -0.0029962093103677034 0.013091707602143288 0.010730195790529251 2.3590726777911186E-4 0.013338245451450348 -0.008665277622640133 0.012379116378724575 -0.006534624844789505 -0.003411628771573305 0.006685946136713028 0.009742176160216331 -0.006622376851737499 0.008019455708563328 0.013694483786821365 -0.012520535849034786 -0.008617307990789413 0.018575597554445267 0.013160420581698418 0.029844606295228004 0.006749859545379877 -0.01561114564538002 0.010726667009294033 -0.0011592230293899775 0.0077272579073905945 0.01612524315714836 -0.010321255773305893 0.009552744217216969 -0.007461118046194315 -0.012684847228229046 0.001971355639398098 0.01339707337319851 0.011959463357925415 -0.007282186299562454 0.013121424242854118 -0.007349885068833828 -0.006723935715854168 0.0012549054808914661 0.010925104841589928 0.005932895466685295 0.002225655596703291 0.00557313859462738 0.004720176570117474 0.012293010950088501 0.0022405479103326797 -0.009853746742010117 -0.006941698025912046 -0.018634190782904625 -0.008938080631196499 0.021726619452238083 2.0820926874876022E-4 7.362472242675722E-4 0.023556195199489594 -0.02354418858885765 -0.0020886161364614964 0.015198316425085068 -0.004056395497173071 -0.0031947516836225986 -0.009083658456802368 0.010123390704393387 -0.014063674956560135 0.00511429226025939 -1.8492224626243114E-4 4.8671686090528965E-4 -0.017292749136686325 0.006521862465888262 -0.0012301416136324406 -0.02266210876405239 0.012910289689898491 7.574466289952397E-4 0.022692162543535233 0.011549322865903378 -0.00623394176363945 -0.002013179939240217 0.0012161536142230034 -0.028959888964891434 0.001216121600009501 -0.00930111575871706 0.007061654701828957 -0.0020808461122214794 0.007931908592581749 -0.008056455291807652 -0.015607178211212158 0.003180720144882798 0.0024510049261152744
posture -0.013856751844286919 0.026384124532341957 0.008089158684015274 0.2717856764793396 -0.17225347459316254 0.15661033987998962 -0.025875095278024673 0.03368830308318138 0.02935258485376835 -0.1531933695077896 -0.26567956805229187 -0.026031900197267532 0.1297796070575714 0.09176556020975113 -0.06755711883306503 -0.09907496720552444 0.14543963968753815 -0.06357946991920471 -0.10627082735300064 0.16507384181022644 0.006296637933701277 0.05669071897864342 0.00910470262169838 -0.13470393419265747 -0.006301731336861849 -0.030508939176797867 0.22813311219215393 -0.06545887887477875 -0.11114921420812607 0.077816441655159 0.08407919108867645 -0.009935058653354645 -0.0633859932422638 0.12636040151119232 0.09628762304782867 0.16598203778266907 -0.13253852725028992 0.059317447245121 0.18240110576152802 0.08109036087989807 0.03435153886675835 -0.018046047538518906 -0.11016152054071426 -0.06609407067298889 0.08233015984296799 -0.26639026403427124 0.11445022374391556 0.04285430908203125 -0.014853115193545818 0.09319470822811127 0.23277884721755981 -0.028334710747003555 0.10448203235864639 -0.03497860208153725 0.07605704665184021 -0.035075750201940536 -0.010954826138913631 0.028498705476522446 -0.1290610134601593 -1.7465445853304118E-4 -0.07117132842540741 0.015408044680953026 0.1268366128206253 -0.061199359595775604 -0.1318887621164322 0.13004139065742493 0.02433173917233944 0.17310310900211334 -0.0820339173078537 0.07614200562238693 -0.08906163275241852 -0.04116049408912659 0.006390625610947609 0.06102246046066284 -0.035892412066459656 0.05529913678765297 -0.1200813576579094 0.13511794805526733 -0.03162546083331108 0.029747024178504944 0.1412082314491272 -0.2627812325954437 -0.023947110399603844 0.19476436078548431 0.17996157705783844 0.15694166719913483 -0.07975933700799942 -0.1426023244857788 -0.06514663994312286 -0.090242899954319 0.03343002870678902 0.028514692559838295 0.1358427256345749 0.018267009407281876 -0.14884443581104279 -0.13968618214130402 0.21843907237052917 0.054707787930965424 -0.05456097051501274 -0.19265301525592804
spiral 0.4220808148384094 0.3503012955188751 0.024178054183721542 0.048241037875413895 -0.24839352071285248 0.030404603108763695 -0.10656001418828964 -0.011539929546415806 0.22911497950553894 -0.0641576498746872 0.3976757526397705 -0.31735479831695557 -0.01826772280037403 -0.02428278513252735 -0.27874577045440674 0.12090396881103516 0.1315344125032425 0.14469702541828156 -0.08060461282730103 -0.0395464263856411 0.25226637721061707 -0.0897832065820694 -0.1600314974784851 -0.04830179363489151 -0.01994471251964569 0.05654260516166687 -0.07188039273023605 0.10670255124568939 -0.0029481754172593355 0.1035047248005867 -0.33182597160339355 -0.014859466813504696 -0.008784143254160881 0.1264195442199707 0.2781532406806946 0.3634941577911377 -0.12371234595775604 -0.44902971386909485 0.02017274871468544 0.15036427974700928 -0.22399382293224335 -0.06677357852458954 -0.004276082385331392 -0.03922620043158531 -0.22257539629936218 -0.09526142477989197 0.3155064582824707 -0.14867304265499115 0.4115336835384369 0.2233421355485916 0.09767604619264603 -0.15643957257270813 -0.3349163830280304 -0.0376562774181366 0.08014968782663345 -0.013119052164256573 0.05880851671099663 0.08831486850976944 -0.02055089734494686 0.32283565402030945 -0.14130578935146332 -0.22849592566490173 0.012288489378988743 -0.2676403224468231 0.19492484629154205 0.36193782091140747 -0.02336285077035427 -0.24879570305347443 -0.2783706486225128 -0.10161423683166504 0.14541088044643402 0.4780797064304352 -0.2306772917509079 0.26570695638656616 -0.16067644953727722 -0.13443705439567566 -0.030592696741223335 -0.026396144181489944 0.49888771772384644 -0.45456984639167786 0.30546700954437256 0.18272225558757782 -0.0391237698495388 -0.05510574206709862 -0.12207391858100891 -0.2626602351665497 0.04875512421131134 -0.27097517251968384 0.01653723604977131 0.161729097366333 -0.31891873478889465 -0.006317328196018934 -0.06653536856174469 4.2898388346657157E-4 0.002750540617853403 0.03714514151215553 0.1284818947315216 -0.281573086977005 -0.08330713957548141 -0.12588827311992645
metabolize -0.0037789917550981045 -9.82370926067233E-4 -0.0026007462292909622 -0.004628114402294159 -0.003085825825110078 0.004850686527788639 -7.721453439444304E-4 0.006906874943524599 -0.0027714914176613092 0.0031670485623180866 0.005669519305229187 -1.4933149213902652E-4 0.0011163901071995497 0.0016414087731391191 -2.101437421515584E-4 4.18135488871485E-4 0.0029318961314857006 0.006549634039402008 -0.0014230901142582297 -4.7314283438026905E-4 -0.0026749689131975174 0.003532877890393138 0.0012892477679997683 0.0033729644492268562 -5.377463530749083E-4 0.003154667792841792 0.005774816498160362 -0.004428092390298843 6.011351943016052E-4 -0.0031951686833053827 5.209667142480612E-4 0.004512502811849117 0.007086116820573807 -0.005825935862958431 -0.0018958020955324173 0.0013987567508593202 0.0014751701382920146 7.7168078860268E-4 -0.0037059953901916742 -0.003078657202422619 -0.0013418898452073336 -0.0039011600892990828 4.1969501762650907E-4 -0.0039399294182658195 3.8883346132934093E-4 0.0031707880552858114 0.005049926228821278 0.0038487138226628304 9.364458965137601E-4 0.0018034185050055385 -0.0043542818166315556 -2.646512584760785E-4 -1.691930228844285E-4 0.003163060173392296 -0.0063812825828790665 0.003081175033003092 -0.005284582730382681 -0.0022324849851429462 7.442765054292977E-4 4.0564878145232797E-4 0.006159141194075346 0.0016097241314128041 -0.0028751911595463753 -0.0017700368771329522 -0.003638668917119503 4.445548402145505E-4 -0.0027887155301868916 1.813315466279164E-4 -0.004523543640971184 0.002708321437239647 -0.002730503212660551 0.0032056865748018026 -6.283269030973315E-4 -0.003897535614669323 0.003921827767044306 0.0037014929112046957 -0.0038981528487056494 -1.93057072465308E-4 0.0011069361353293061 -2.3206844343803823E-4 -0.0022721218410879374 -0.0036715916357934475 -0.0035843709483742714 -9.921550517901778E-4 -6.367515306919813E-4 0.004834004677832127 4.0029973024502397E-4 3.9828623994253576E-4 -0.0011245321948081255 -0.00181376573164016 -0.0021242599468678236 -0.0061453478410840034 -0.001890009269118309 0.006155228707939386 8.730131667107344E-4 -0.0038756688591092825 2.833864709828049E-4 -0.0020147166214883327 5.04412513691932E-4 8.883356349542737E-4
excavate 0.04128874093294144 0.0466572642326355 -0.10201065242290497 0.026449620723724365 -0.04845082387328148 -0.12978394329547882 0.06532967835664749 0.03843387961387634 0.04748549684882164 -0.06698158383369446 -0.062744140625 0.06074662506580353 0.06854807585477829 -0.03906244784593582 -0.08185425400733948 0.08116364479064941 0.03740867227315903 0.04130406677722931 0.04096229374408722 0.08205312490463257 -0.02742733061313629 0.04053064435720444 0.003474751254543662 -0.06787403672933578 0.02654610574245453 -0.05387144535779953 0.014116467908024788 -0.09150730073451996 0.10308920592069626 -0.04422946274280548 0.01379753090441227 -0.04746808111667633 0.06567538529634476 0.05949804186820984 0.23721937835216522 -0.02167084626853466 -0.1271594911813736 0.07899218052625656 0.06716392934322357 0.012235843576490879 0.06754572689533234 0.02361706830561161 -0.06944981217384338 0.034743405878543854 -0.10344324260950089 -0.08973357081413269 0.014456008560955524 -0.04112514108419418 3.235230688005686E-4 -0.0707317367196083 0.05400162190198898 0.040897004306316376 -0.06787286698818207 -0.037810131907463074 0.010160989128053188 0.06643472611904144 0.026234714314341545 -0.04121219739317894 0.05191677808761597 -0.004943502135574818 -0.07999654859304428 -0.1787673532962799 -0.07663682103157043 -0.07449009269475937 0.06427615135908127 -0.007982786744832993 0.07430357486009598 0.06333556026220322 -0.09974152594804764 0.06779364496469498 0.10050683468580246 0.04978784918785095 0.045916616916656494 -0.052182912826538086 -0.03509444370865822 -0.05024740472435951 0.053143460303545 -0.09059448540210724 -0.019115637987852097 -0.05267238989472389 0.16650742292404175 -0.013987937942147255 -0.020242586731910706 0.06411083042621613 -0.015231162309646606 0.08877799659967422 0.03732913359999657 -0.0912618339061737 -0.05030965059995651 -0.08574539422988892 -0.11821065098047256 0.030405765399336815 0.026444826275110245 0.011143945157527924 0.05348731577396393 -0.0012481359299272299 0.06537456065416336 -0.08563078939914703 0.023580949753522873 -0.04213613644242287
wipe 0.2277803272008896 -0.12617741525173187 -0.16367682814598083 0.2910498082637787 -0.08716103434562683 -0.04361359402537346 0.09965027868747711 0.014311117120087147 -0.0024281374644488096 -0.016578983515501022 -0.11176864057779312 0.10034952312707901 -0.03831356018781662 -0.04303402826189995 -0.17647531628608704 0.16516350209712982 -0.19277501106262207 -0.17885398864746094 0.20410756766796112 0.14766637980937958 -0.21217568218708038 0.09380368143320084 0.004426948726177216 0.14158187806606293 0.2863105833530426 -0.0337643027305603 0.1877945512533188 -0.01996469870209694 0.016399972140789032 0.12929891049861908 -0.016326220706105232 -0.20116272568702698 0.26749950647354126 0.08815598487854004 0.22860147058963776 0.12459522485733032 -0.2015717327594757 0.09010094404220581 0.0710497573018074 -0.09920274466276169 -0.017483577132225037 -0.21941325068473816 -0.019414210692048073 0.08590617030858994 -0.2717733085155487 -0.4034825265407562 0.4266969561576843 -0.03812169283628464 -0.08435461670160294 -0.05317370221018791 -0.11968904733657837 -0.10606379061937332 0.23203319311141968 0.16167262196540833 0.0927920937538147 0.0868883952498436 0.04653390496969223 -0.04086683690547943 -0.1822604089975357 0.17477157711982727 0.03682571277022362 -0.09822646528482437 -0.10744550824165344 -0.014128286391496658 0.16593174636363983 0.0654488354921341 0.05064236372709274 0.1829264909029007 -0.3302910625934601 -0.014184423722326756 0.1277700811624527 0.06215592846274376 0.05119859799742699 -0.15481768548488617 -0.023366620764136314 -0.2016301304101944 0.13876713812351227 -0.10449795424938202 -0.02946113422513008 0.0026263021863996983 -0.042264845222234726 0.20344968140125275 -0.13489265739917755 0.1700473576784134 -0.034362372010946274 0.24606841802597046 0.028590694069862366 -0.3305882513523102 -0.1901274174451828 0.1295723021030426 -0.39444929361343384 0.13087105751037598 -0.07759414613246918 0.3649994134902954 -0.13626481592655182 0.0638563483953476 0.1315084844827652 -0.10802813619375229 -0.06654984503984451 -0.0378621444106102
halt -0.006797905545681715 -0.19321736693382263 0.04189007356762886 0.043444711714982986 -0.005252701696008444 0.09876423329114914 0.30656278133392334 -0.026734281331300735 0.18455907702445984 -0.0792296975851059 -0.2805648148059845 -0.039069436490535736 0.1374696046113968 0.026293128728866577 0.07386095076799393 -0.10665656626224518 0.150692880153656 0.16692890226840973 -0.04913443699479103 0.08342322707176208 0.006549653597176075 0.33607152104377747 -0.19021351635456085 -0.22366651892662048 0.16253983974456787 -0.10435806959867477 0.19089087843894958 0.3092363774776459 -0.12102432548999786 -0.14631280303001404 0.39010632038116455 0.03867858275771141 -0.011813357472419739 0.016998419538140297 -0.10277378559112549 -0.0465439110994339 -0.04969959706068039 -0.1154591515660286 0.23627535998821259 -0.09378708153963089 -0.24574719369411469 0.07421832531690598 -0.2534831464290619 0.046003710478544235 -0.07933175563812256 -0.5399789810180664 -0.11430008709430695 -0.16071817278862 -0.4297601282596588 -0.20838052034378052 -0.13197413086891174 0.24426956474781036 -0.12980146706104279 -0.2583150267601013 0.07329243421554565 -0.01467006467282772 0.17468641698360443 0.09780780225992203 0.21241995692253113 -0.029593242332339287 0.17122791707515717 0.17010043561458588 -0.055931445211172104 -0.044750627130270004 -0.13198864459991455 -0.04387631639838219 0.016787827014923096 -0.10583966225385666 -0.051218848675489426 -0.17181876301765442 -0.10776986926794052 0.12531806528568268 -0.27042102813720703 0.13649718463420868 -0.09426946938037872 0.02042367495596409 -0.13631130754947662 -0.23773826658725739 -0.2401752471923828 0.1018592119216919 -4.7628182801418006E-4 -0.06266088038682938 -0.1808038055896759 -0.06382743269205093 0.08915092796087265 0.2373451441526413 0.09184270352125168 0.14744457602500916 0.030118025839328766 -0.28743159770965576 0.038019999861717224 0.2224348932504654 -0.020598389208316803 0.12417948991060257 -0.10092733800411224 0.044500529766082764 0.21177098155021667 0.12811937928199768 -0.24781110882759094 0.21880050003528595
throw -0.23435750603675842 0.019916633144021034 -0.042311131954193115 0.17534437775611877 -0.2450757771730423 0.1393771469593048 -0.05606076866388321 -0.15029408037662506 0.042529523372650146 -0.04811406135559082 0.009052829816937447 0.1804923266172409 0.1744173765182495 0.05797509849071503 -0.03262139484286308 0.2007114440202713 0.2895475924015045 -0.07867232710123062 -0.02133883722126484 0.28655916452407837 0.3133591115474701 0.18211545050144196 -0.1654253602027893 0.09255772083997726 0.003596245776861906 -0.09772183746099472 0.18368284404277802 0.05741729959845543 -0.19565637409687042 -0.03524225205183029 -0.09628921002149582 -0.07838785648345947 0.05785075202584267 0.16328035295009613 0.40543001890182495 0.13183477520942688 -0.23287184536457062 -0.039602283388376236 0.4677475392818451 0.17257608473300934 -0.22326306998729706 -0.029476532712578773 -0.006722127553075552 -0.07591802626848221 0.12359853833913803 1.673229708103463E-4 -0.003258600365370512 -0.33215445280075073 -0.009556028060615063 0.24980786442756653 -0.014023338444530964 0.0801607146859169 0.22927093505859375 -0.149628147482872 -0.11680231988430023 -0.020708689466118813 0.07211536914110184 -0.22923544049263 -0.1554563343524933 -0.1381845623254776 0.05323006957769394 -0.04816966503858566 -0.3244868218898773 -0.021586261689662933 -0.16780896484851837 -0.04727153852581978 0.05186410993337631 0.07750121504068375 0.041690994054079056 -0.10044334828853607 0.13358506560325623 -0.018315231427550316 -0.06828577816486359 0.07083285599946976 0.0864410400390625 0.06078211963176727 -0.12363946437835693 -0.13220827281475067 -0.11579757183790207 0.21913127601146698 -0.04360673576593399 -0.10108678042888641 -0.004315677098929882 0.04099755734205246 0.20009678602218628 0.1326798051595688 0.1256919503211975 -0.09963173419237137 0.0013935744063928723 -0.074940986931324 0.36141228675842285 -0.1054731085896492 0.3646309971809387 0.24481220543384552 -0.09953729063272476 0.0029859000351279974 0.09287432581186295 -0.07285602390766144 -0.14286193251609802 0.16795691847801208
disguise -0.01773233897984028 -0.006941709667444229 0.014125946909189224 0.03845101222395897 -0.023517603054642677 -0.010238699615001678 0.018203217536211014 0.0162605419754982 -0.005155459512025118 -5.858574295416474E-4 -0.03752882778644562 -0.02220594882965088 0.03264107182621956 0.010157391428947449 0.0037717155646532774 0.04221973940730095 0.038338929414749146 -0.014654569327831268 0.010258280672132969 0.05644930154085159 0.03507281467318535 0.00424534548074007 0.004422012250870466 -0.03711536526679993 -0.014081049710512161 -0.008199064992368221 0.009483597241342068 -0.021547576412558556 -0.022206256166100502 0.028142381459474564 0.041118595749139786 0.02423267625272274 -0.03781333193182945 0.04205156862735748 0.0627564787864685 0.010859126225113869 -0.04823814705014229 0.013134240172803402 0.04039447754621506 0.019052404910326004 0.013232755474746227 -0.023723630234599113 -0.009614012204110622 -0.02079080045223236 0.008914181962609291 -0.02847232297062874 0.035726699978113174 0.04259369894862175 -0.02509908564388752 0.01564044877886772 0.023469185456633568 -1.32058747112751E-4 -0.004046572372317314 -0.020558759570121765 0.02208719030022621 0.007345203310251236 0.02653009071946144 -0.0507785938680172 0.02030177228152752 0.015690380707383156 -0.04330853000283241 0.012677036225795746 0.00844629481434822 -0.008454966358840466 0.001697602216154337 -0.005526423454284668 0.003411483485251665 0.05856601893901825 -0.02665111981332302 0.017059842124581337 -0.01510155014693737 -0.014734920114278793 0.03132370486855507 0.002545269438996911 -0.021529750898480415 0.0458221435546875 -0.020042965188622475 0.016255447641015053 0.006823709700256586 0.01684117503464222 0.009689624421298504 -0.03534555062651634 -0.012856824323534966 0.01170628983527422 0.023010384291410446 0.06154952943325043 -0.0030185063369572163 -0.007583274971693754 -0.009232550859451294 -0.022909147664904594 -0.03541433811187744 0.026585811749100685 0.02618592604994774 -0.005494042299687862 0.004842844791710377 0.0028988979756832123 0.027450138702988625 0.016660017892718315 -0.013517343439161777 -0.016466662287712097
wrap 0.1943424791097641 0.13259346783161163 -0.10857543349266052 0.013777917250990868 -0.20813314616680145 -0.1002625972032547 -0.236485555768013 0.0045897881500422955 0.37545835971832275 0.08085490018129349 0.3017646372318268 -0.23587484657764435 0.028203777968883514 -0.30460575222969055 -0.2378048300743103 0.36858874559402466 -0.02598155476152897 0.03321830555796623 0.2781361937522888 0.11530491709709167 0.2907419204711914 0.16445085406303406 -0.181272953748703 -0.23090597987174988 -0.13434770703315735 -0.22364911437034607 -0.09903568774461746 -0.1448390632867813 0.023584360256791115 0.016922900453209877 -0.36472031474113464 0.11248701065778732 -0.1739950329065323 0.28147464990615845 0.3034626841545105 0.4038470983505249 0.0971926748752594 0.16831852495670319 0.10180826485157013 0.05099693313241005 -0.11681824922561646 0.10401622951030731 -0.1805873066186905 -0.12480778247117996 -0.18902860581874847 -0.09463796019554138 0.09989123046398163 -0.04645788297057152 0.07040537148714066 0.46638762950897217 0.36686262488365173 -0.03401941806077957 -0.35261330008506775 0.1340331882238388 -0.04444645717740059 0.2823490798473358 0.18540693819522858 -0.11183468997478485 0.03880106657743454 0.3494485318660736 -0.37403470277786255 -0.15069621801376343 -0.15995831787586212 0.2960797846317291 0.0012123099295422435 -0.04642150178551674 0.036275941878557205 0.06220724433660507 -0.36617428064346313 -0.07632237672805786 -0.20484672486782074 0.4425804913043976 -0.16787652671337128 -0.22606123983860016 0.09883393347263336 -0.13037976622581482 0.13809077441692352 0.0877341702580452 0.2750296890735626 -0.0892016664147377 0.08678063750267029 -0.0699835792183876 -0.005615974776446819 0.024029886350035667 -0.05604461207985878 0.21971115469932556 0.184300497174263 -0.2545938789844513 -0.1951751559972763 0.14274811744689941 -0.2504330575466156 -0.47023993730545044 -0.27769142389297485 0.034357950091362 -0.23576441407203674 0.07760710269212723 0.11035768687725067 -0.07815103232860565 -0.018791336566209793 -0.09048330038785934
buff 0.003996117971837521 -0.03506578877568245 -0.04437403753399849 0.05687651038169861 0.027323832735419273 -0.00971314124763012 0.05545353889465332 0.012235786765813828 0.014665724709630013 -0.002648741938173771 -0.01702522113919258 -0.045235782861709595 -0.013628659769892693 -0.056008584797382355 -0.033443305641412735 -0.023762313649058342 0.023543911054730415 -0.011170187033712864 0.024993477389216423 0.02447989583015442 -0.017979580909013748 0.021872220560908318 0.011480012908577919 0.03389803320169449 0.01754635013639927 -0.0014538364484906197 0.08456695079803467 0.02782854624092579 0.017939934507012367 -0.017085008323192596 0.03825320303440094 -0.006129695102572441 0.03703993931412697 -0.03205012157559395 -0.026772934943437576 -0.017297575250267982 -0.041343722492456436 -0.001999573316425085 -0.00839313492178917 0.010031923651695251 0.023224392905831337 0.02210812270641327 0.03394586965441704 0.010574410669505596 -0.03294021636247635 -0.0425453819334507 3.7430861266329885E-4 0.03779656067490578 -0.05914166569709778 -0.03925175592303276 -0.04479697346687317 -0.03169137239456177 -0.0015838698018342257 0.018886923789978027 0.016171298921108246 0.020542502403259277 0.02537345699965954 -0.005458774510771036 -0.03469451889395714 -0.015673138201236725 0.09256533533334732 -0.060785792768001556 -3.226116532459855E-4 -0.0036942041479051113 0.007358868140727282 -0.014194541610777378 0.01153859868645668 0.012301310896873474 0.022375227883458138 0.0624646432697773 0.00983936432749033 0.020536312833428383 -0.004515703301876783 -0.01942625269293785 0.006702415645122528 0.030847059562802315 0.015132730826735497 0.01210184209048748 -0.024761894717812538 6.695933407172561E-4 -0.010470596142113209 -1.2063767644576728E-4 -0.057559333741664886 0.014363743364810944 -0.044255975633859634 0.03887364640831947 -0.05311926454305649 0.019695095717906952 0.00894926954060793 -0.04326026514172554 0.04631983861327171 0.024278204888105392 6.888982024975121E-4 0.013116654939949512 -0.039090752601623535 0.00833956990391016 -0.0372106172144413 0.013450742699205875 0.045826978981494904 0.03553587570786476
fluoresce -0.05846792459487915 -0.044848594814538956 -0.03409705311059952 -0.07794041931629181 -0.04765651375055313 0.038201954215765 0.042338959872722626 0.01573266088962555 0.005044984165579081 0.00435468927025795 0.042020417749881744 -0.08343794196844101 -0.006807839032262564 0.02115863561630249 -0.00685611367225647 0.0041923606768250465 0.013455921784043312 0.1424771249294281 -0.02152131497859955 -0.01019335724413395 0.04986114054918289 0.0018083563772961497 -0.0477122887969017 -0.017999909818172455 -0.024267597123980522 0.06220085918903351 0.0073155895806849 -0.021315574645996094 0.030325835570693016 -0.00930045172572136 -0.04556504264473915 -0.02021035924553871 0.02181442268192768 0.03449714928865433 0.13449472188949585 0.06268488615751266 -0.017192669212818146 -0.016737448051571846 0.03881713002920151 0.02465243637561798 0.09413454681634903 -0.07883977144956589 0.029283743351697922 -0.06626284122467041 -0.02332029864192009 0.049711670726537704 0.016218222677707672 0.04048467054963112 0.03030990995466709 0.03387640789151192 0.00535168219357729 0.010842900723218918 0.08644527196884155 0.01992977224290371 0.04266344755887985 0.0715188980102539 -0.07703708857297897 -0.019717194139957428 0.016161201521754265 0.009494288824498653 -0.023562969639897346 -0.03616873919963837 -0.09099864959716797 0.06191513314843178 -0.027648471295833588 0.013850918039679527 0.014004849828779697 0.014130293391644955 0.0569055899977684 0.027540476992726326 0.016752047464251518 0.014737068675458431 0.006753099616616964 0.00859508290886879 0.007683899253606796 -0.06249098852276802 0.00993267074227333 0.043478772044181824 0.028863640502095222 0.026763785630464554 -0.007791721262037754 0.01851036585867405 0.01609768532216549 0.0800289660692215 0.07153531908988953 0.08343548327684402 -0.016217529773712158 -0.03062117099761963 -0.006236782763153315 -0.09034451097249985 -0.006736585404723883 -0.009618779644370079 0.08903636038303375 -0.020633192732930183 0.03929142281413078 -0.036910708993673325 0.03678353503346443 0.038308169692754745 0.051152925938367844 -0.007711651269346476
resolve -0.1151835024356842 -0.12716855108737946 -0.02564474567770958 0.031357746571302414 -0.07568951696157455 0.09759818017482758 0.053709160536527634 0.07647494971752167 0.0656757578253746 -0.04071329906582832 0.010951503179967403 -0.10834219306707382 0.07932783663272858 0.03432979807257652 0.02985181100666523 -0.024923700839281082 0.08801042288541794 0.023914050310850143 0.00805846881121397 0.021381651982665062 -0.0010443308856338263 0.03219660371541977 -0.053674984723329544 -0.07365545630455017 0.03832235932350159 0.01597452536225319 0.09909003973007202 0.08196374028921127 -0.06523505598306656 -0.027092289179563522 0.004150572698563337 -0.032454103231430054 -0.016476904973387718 0.06485528498888016 0.04649730026721954 0.11017348617315292 -0.06772273778915405 -0.07902272045612335 0.045830368995666504 0.025165466591715813 0.0545787513256073 -0.038875848054885864 -0.018612463027238846 0.016961097717285156 0.004989849869161844 -0.06234002858400345 0.04180529713630676 0.02361328713595867 -0.014795811846852303 -0.02203870192170143 0.0284467414021492 -0.03596051409840584 0.12120967358350754 0.07021018862724304 0.030136972665786743 0.06520140171051025 -0.0764412134885788 -0.013669749721884727 -0.0415600910782814 0.06163749843835831 -0.03074398636817932 -0.039334986358881 -0.12654665112495422 -0.022537996992468834 5.624461336992681E-4 0.0018744745757430792 0.07149811834096909 -0.014822117052972317 0.02510000392794609 -0.005031575448811054 -0.02302863821387291 -0.056496135890483856 0.040906306356191635 0.02809804491698742 -0.028275802731513977 0.025684744119644165 -0.07580407708883286 -0.03402399644255638 0.04727538675069809 0.08464384824037552 -0.04409809410572052 -0.030233055353164673 -0.04604094475507736 0.04851527512073517 0.07838255167007446 0.09606446325778961 0.043503277003765106 -0.03431233391165733 0.1426752507686615 -0.07855294644832611 -0.022577041760087013 -0.02347009815275669 0.08686589449644089 0.031074875965714455 -0.029754191637039185 -0.09574273228645325 0.043113626539707184 0.05193444341421127 0.03520210459828377 -0.0021624118089675903
