cancel 0.07588088512420654 0.24147439002990723 -0.09264203161001205 0.05016055330634117 -0.27536848187446594 0.8315123319625854 0.313674658536911 -0.1414749026298523 -0.17232069373130798 0.2401999682188034 -0.2796061038970947 -0.11806079000234604 0.1737392395734787 -0.5360075235366821 -0.15770626068115234 0.07751429080963135 -0.10118438303470612 -0.4862357974052429 0.3127553462982178 -0.16324666142463684
recline -5.951017956249416E-4 -0.015298623591661453 0.004107849206775427 0.007290747482329607 -0.012626812793314457 -0.023531483486294746 0.01440899632871151 0.014409508556127548 0.005396045278757811 -0.0046112206764519215 0.02161899395287037 -0.018833916634321213 -0.005702889058738947 -0.019466666504740715 0.0172091256827116 -0.019719179719686508 -0.019252436235547066 0.023782892152667046 -0.01690315641462803 0.007373475935310125
spoke -0.05928514525294304 0.25871163606643677 -0.20258992910385132 0.23558051884174347 -0.6756863594055176 0.7572990655899048 0.17235462367534637 -0.24694927036762238 -0.3991967737674713 0.14244791865348816 0.21514731645584106 0.04152015969157219 -0.46884092688560486 0.762073814868927 -0.04390629753470421 -0.37417247891426086 0.3241386413574219 -0.17122624814510345 0.1724725365638733 -0.4943755567073822
govern -0.03099772334098816 0.22995692491531372 -0.4288827180862427 -0.5922623872756958 0.6145144701004028 0.532785177230835 -0.0679333359003067 -0.6614060401916504 -0.10606154799461365 0.004710286855697632 0.10009541362524033 0.042845770716667175 0.35025754570961 -0.5318840146064758 0.061402302235364914 -0.22097459435462952 0.028068486601114273 -0.5072464942932129 -0.3501766324043274 0.13444533944129944
discourage 0.005720361135900021 0.15603004395961761 -0.19247528910636902 0.05233270302414894 -0.06730400770902634 -0.10965624451637268 0.09399360418319702 0.031738411635160446 -0.13321074843406677 -0.10021106153726578 0.10297612100839615 0.06664462387561798 0.05168783292174339 -0.03722820430994034 0.02435886487364769 0.1723484843969345 0.016261771321296692 -0.024801334366202354 0.003493992844596505 0.028776604682207108
rupture 0.402323842048645 0.011549998074769974 0.008494053035974503 0.2269458770751953 0.03439268842339516 -0.22828726470470428 0.30017465353012085 0.28825393319129944 0.5366147756576538 0.2401614785194397 -0.45639199018478394 0.26071473956108093 0.017236219719052315 0.5124465823173523 0.7292925119400024 0.6443242430686951 -0.060441892594099045 -0.3380257189273834 0.2109370082616806 0.17302699387073517
lacquer 0.3092370927333832 0.223139688372612 -0.1354873776435852 0.6672893166542053 -0.24063046276569366 0.14405490458011627 -0.07615851610898972 0.19968552887439728 -0.7245084643363953 0.07014890015125275 0.9892463684082031 0.31353291869163513 -0.031785450875759125 0.2801159620285034 0.24195943772792816 0.4550754129886627 -0.4073428809642792 0.39896002411842346 -0.47180312871932983 0.4528760015964508
pick 0.05824819579720497 0.10676931589841843 0.18860706686973572 -0.3612937927246094 0.4660377502441406 0.24964603781700134 -0.22559918463230133 0.15660026669502258 -0.4762096107006073 -0.2529730498790741 0.11449788510799408 0.35920900106430054 0.10923059284687042 0.3150186836719513 -0.19856560230255127 0.2877884805202484 -0.25190532207489014 -0.20371825993061066 0.3706146776676178 -0.3344802260398865
constrict 0.08931239694356918 -0.33482134342193604 0.0399990938603878 -0.41260045766830444 0.32585304975509644 -0.0700516551733017 0.5806400179862976 0.07157580554485321 0.15743865072727203 0.13869787752628326 0.04491889849305153 0.4214511811733246 -0.2840426564216614 -0.24693062901496887 -0.03840868920087814 -0.15224650502204895 0.24225261807441711 0.051292549818754196 0.3506731688976288 -0.16280920803546906
fluctuate -0.12230899930000305 0.09224703162908554 -0.19899116456508636 -0.2886723577976227 0.13800321519374847 0.06199801340699196 0.16791969537734985 8.879093220457435E-4 0.13410213589668274 0.16678161919116974 -0.20726044476032257 0.22712816298007965 0.08817610144615173 -0.22117169201374054 -0.005288116168230772 0.04976480454206467 -0.2001485824584961 -0.07689007371664047 0.15291288495063782 0.2651536464691162
calculate -0.09419162571430206 0.5816136598587036 -0.7393193244934082 0.0788116604089737 0.08586820214986801 0.3564757704734802 -0.19345730543136597 -0.12947328388690948 0.17307953536510468 -0.09813375771045685 0.22980113327503204 -0.5901462435722351 0.5718338489532471 -0.6608858108520508 -0.5294449329376221 0.7741727828979492 0.06818040460348129 -0.8722473978996277 0.1875055581331253 0.04104180261492729
authorize -0.0053861383348703384 0.018838750198483467 -0.020854715257883072 -0.0012961520114913583 -0.006661580875515938 -0.006667129695415497 0.013701338320970535 -0.022283107042312622 0.020318681374192238 -0.02033114805817604 0.006621909327805042 0.021610967814922333 -0.018293779343366623 0.020331893116235733 -0.004907179623842239 -0.01809503696858883 -0.024395612999796867 0.018989047035574913 -0.006634083576500416 0.01686546765267849
conceal 0.2820521891117096 0.16570541262626648 0.14560148119926453 0.008646493777632713 0.38528385758399963 -0.13299265503883362 -0.6489667296409607 0.7283273339271545 -0.13985081017017365 0.33335691690444946 0.3168678879737854 -0.6392739415168762 -0.27785706520080566 0.22513394057750702 0.4981173574924469 0.2940308153629303 0.5213533043861389 0.01668110117316246 -0.04764990136027336 -0.23494498431682587
possess 0.2931979298591614 0.11139771342277527 -0.18599797785282135 0.27058348059654236 -0.29549482464790344 0.2111746072769165 -0.08774492144584656 0.12518157064914703 -0.12008950859308243 0.27844706177711487 0.2691388726234436 0.16315597295761108 -0.19728608429431915 0.037956953048706055 0.13996601104736328 0.19960761070251465 0.012781700119376183 0.0029063622932881117 -0.030696671456098557 0.268280029296875
scratch 0.4998807907104492 0.22460216283798218 -0.018515348434448242 0.4038381576538086 -0.13816538453102112 0.358219712972641 0.1562635749578476 0.2592194974422455 -0.3541749119758606 0.46124017238616943 0.4122282862663269 0.5383201241493225 -0.15289632976055145 0.10491577535867691 0.262859582901001 0.7226012349128723 0.31667301058769226 0.4669933319091797 -0.1349734663963318 0.36747923493385315
require -0.16642624139785767 -0.03779508173465729 -0.0628550797700882 0.12796445190906525 0.2733621299266815 0.13155624270439148 -0.3545728623867035 0.13995757699012756 -0.04856698960065842 0.1528283655643463 -0.1145295798778534 0.04022923484444618 -0.13242322206497192 0.15818916261196136 0.30485689640045166 0.3097238540649414 -0.04254943132400513 -0.5886344909667969 -0.3305058777332306 0.23800812661647797
honeycomb 0.8773484230041504 -0.3094075322151184 -0.055867999792099 0.3104362487792969 -0.24837514758110046 -0.22726787626743317 -0.17677432298660278 -0.021006543189287186 -0.43872687220573425 0.17561490833759308 0.52544105052948 0.25887036323547363 -0.43810799717903137 0.35867077112197876 0.06891007721424103 0.6050943732261658 -0.7649306654930115 0.31933921575546265 0.11452273279428482 0.5601164102554321
size -0.02946741133928299 -0.4361667037010193 -0.14078058302402496 0.1943676620721817 0.2127590924501419 0.10435682535171509 -0.28993576765060425 0.16941207647323608 -0.129896879196167 0.5513200759887695 0.17304688692092896 0.25124433636665344 -0.003772062249481678 -0.17047017812728882 0.21680134534835815 0.20304782688617706 0.006004725117236376 -0.12376152724027634 -0.06751767545938492 -0.2660161554813385
clutch -6.911231321282685E-4 -0.06986680626869202 0.6178297400474548 0.2850920557975769 -0.06592173874378204 0.6072573065757751 -0.10521478950977325 -0.49396589398384094 0.037550799548625946 0.37861353158950806 -0.2807101905345917 -0.43204936385154724 1.7061617374420166 0.4715029299259186 -0.3967793583869934 -0.7344501614570618 -0.4027576148509979 -0.5844432711601257 0.326702743768692 0.2139640599489212
temper 0.2728886604309082 0.10566899180412292 -0.5473071336746216 -0.38127702474594116 0.12406078726053238 0.035809606313705444 0.41940513253211975 -0.15458932518959045 -0.47387298941612244 -0.05152665451169014 0.3463420569896698 0.3475421369075775 0.00621844781562686 0.6130716800689697 0.24607831239700317 0.1953398436307907 -0.4486456513404846 0.36260974407196045 -0.17160585522651672 -0.020483175292611122
evacuate 0.014997223392128944 0.21481695771217346 0.40412911772727966 -0.8096840977668762 0.4140777885913849 -0.07297470420598984 0.4671473801136017 -0.16177445650100708 -0.045718055218458176 0.03443927317857742 0.07451105862855911 0.2676257789134979 -0.0371890552341938 0.024890758097171783 0.10691151022911072 0.3845079839229584 -0.17439068853855133 -0.3274557888507843 0.37998273968696594 0.384407103061676
wind 0.22684259712696075 0.5727003812789917 -0.046540770679712296 0.527478039264679 0.4391592741012573 0.2734512686729431 -0.04304114729166031 -0.49642038345336914 -0.22447092831134796 -0.18197734653949738 0.03233254700899124 0.06667566299438477 -0.36128994822502136 0.41464707255363464 -0.018906742334365845 -0.3399660289287567 -0.34773966670036316 -0.5928464531898499 -0.01983398199081421 -0.18013450503349304
hang 0.16747033596038818 0.12409259378910065 0.13772886991500854 -0.08788593858480453 0.1080000102519989 0.28988033533096313 -0.21189641952514648 0.47498470544815063 0.11890673637390137 0.19814899563789368 -0.011462845839560032 -0.8049887418746948 -0.546687126159668 0.6573556065559387 0.6876522898674011 0.01617051474750042 0.2244863063097 -0.11111868172883987 -0.09515909850597382 -0.49301519989967346
poise 0.009716690517961979 -0.029285965487360954 -0.07692655175924301 0.0743742287158966 -0.03750691935420036 0.015819046646356583 0.03875798359513283 -0.04469525068998337 -0.03158784285187721 -0.037467971444129944 0.11935059726238251 0.07059706747531891 0.042327240109443665 0.045311715453863144 -0.019182246178388596 0.11854330450296402 0.01686619408428669 -0.08162151277065277 -0.029892325401306152 0.012100409716367722
roll -0.6193028688430786 0.04497593268752098 -0.02072880044579506 0.676559567451477 -0.3609509766101837 0.3513031005859375 -0.13540567457675934 -0.03825376182794571 -0.4047025144100189 0.5038619041442871 0.35029974579811096 0.4167083203792572 -0.211796835064888 0.1336589902639389 0.31973960995674133 -0.3227451741695404 0.20486947894096375 -0.12031236290931702 0.1861916035413742 0.11726056039333344
blur 0.0934886634349823 -0.04433631896972656 0.12867088615894318 0.08082153648138046 -0.05269106104969978 0.2027611881494522 -0.12012814730405807 0.0738527700304985 -0.03008442185819149 0.013334943912923336 0.0704760029911995 -0.012202388606965542 -0.15967509150505066 -0.04802955687046051 0.10182305425405502 0.10278049111366272 0.01533078495413065 0.14365534484386444 0.1577029973268509 -0.16740165650844574
turn 0.030010581016540527 0.3066948354244232 0.006723825354129076 0.0890873447060585 0.39786240458488464 0.31671905517578125 -0.037140537053346634 1.723725872579962E-4 0.045259613543748856 -0.2144950032234192 0.017411109060049057 0.01914600096642971 0.05816247686743736 -0.04880835860967636 -0.03531549870967865 -0.20539402961730957 -0.010503974743187428 -0.22423340380191803 0.20695632696151733 -0.12828385829925537
adduct 0.09070943295955658 -0.2546350061893463 -0.17582127451896667 -0.11706934124231339 -0.03458535671234131 -0.020138708874583244 0.17560739815235138 0.0779503658413887 -0.028405101969838142 -0.18421612679958344 0.42942163348197937 0.010330052115023136 0.1687677800655365 0.11208253353834152 -0.0820760726928711 0.5584883093833923 -0.19582228362560272 -0.07254260778427124 -0.3291059136390686 0.32100197672843933
evaporate -0.008070286363363266 -0.3643307089805603 -0.5546454787254333 -0.5319167375564575 0.6555063724517822 0.003270098241046071 0.2710236608982086 0.6198137998580933 -0.3646983206272125 -0.19888952374458313 -0.16424444317817688 0.48256972432136536 -0.07576929777860641 0.6237367987632751 -0.25595369935035706 0.9650389552116394 -0.882601797580719 -0.08808711171150208 0.03841525688767433 -0.1576736569404602
quiet 0.20283091068267822 -0.2538710832595825 -0.10815034061670303 -0.20586416125297546 -0.17614051699638367 0.1471172571182251 -0.08371667563915253 -0.31591424345970154 -0.2675107717514038 0.32940199971199036 -0.1985335797071457 0.2673322856426239 0.482505202293396 0.1908620148897171 -0.4123136103153229 0.3244283199310303 -0.2717980742454529 0.15928031504154205 0.2551001310348511 0.28998368978500366
incapacitate 0.02184319868683815 0.009181155823171139 -0.054697077721357346 -0.0315605066716671 0.025551926344633102 0.07671839743852615 -0.05815163627266884 0.007071556523442268 0.04846571013331413 0.05285833030939102 0.01883033663034439 -0.02080325409770012 0.05313669517636299 -0.05872820317745209 -0.03079991601407528 0.018200645223259926 0.013273696415126324 -0.04026370123028755 0.03843339532613754 -0.02556598372757435
flip 0.23712091147899628 0.3157830834388733 -0.05742670223116875 -0.024801526218652725 0.006814281921833754 0.47276994585990906 0.19150394201278687 -0.25023138523101807 0.0673619732260704 0.09470605850219727 -0.32713404297828674 -0.14561398327350616 0.13009057939052582 0.045160312205553055 0.5806370973587036 -0.25292521715164185 0.2531229853630066 -0.00422782963141799 0.1380932778120041 -0.18940351903438568
connect 0.11479275673627853 0.2319328635931015 -0.007925783284008503 -0.06136179342865944 0.023602966219186783 0.17900805175304413 -0.08459798991680145 0.12162907421588898 0.2611791491508484 0.17597033083438873 0.013910934329032898 -0.16178806126117706 -0.30399855971336365 0.1996784657239914 -0.3281187117099762 -0.4394749402999878 -0.030955195426940918 -0.09372717887163162 -0.056625496596097946 0.05543014034628868
resume -0.0872998833656311 -0.11802396178245544 -0.25327786803245544 -0.20612411201000214 0.5956507325172424 0.3235156536102295 0.5780118107795715 -0.24971643090248108 0.21555621922016144 0.05222185701131821 -0.20169220864772797 0.17257915437221527 0.5052551031112671 -0.16417458653450012 1.0898749828338623 0.6921584010124207 0.35562002658843994 -0.4469977021217346 0.9593034386634827 0.12233112752437592
sharpen 0.0772073045372963 -0.04843883216381073 -0.17130759358406067 0.1301615983247757 0.20174549520015717 0.1624995470046997 0.14074555039405823 0.38527679443359375 0.32811835408210754 0.09653980284929276 0.47887346148490906 0.1666882187128067 -0.30113211274147034 0.1649642139673233 0.3146250545978546 -0.06913392245769501 0.7990666031837463 -0.35863161087036133 0.13988527655601501 -0.7054481506347656
denature -0.02260402962565422 0.0113145150244236 0.007922185584902763 -0.014419082552194595 -0.014009764418005943 0.018251817673444748 -0.02437848225235939 -0.012117287144064903 -0.003944292198866606 0.01322890818119049 -3.428221680223942E-4 0.011646131053566933 0.017576998099684715 0.0031464865896850824 0.01832604594528675 -0.010867713950574398 -0.0079128947108984 0.0029026037082076073 -0.02343013696372509 -0.012985571287572384
posture -0.12247058749198914 0.07260788232088089 -0.2375844419002533 0.11803613603115082 0.4862682819366455 0.3968120813369751 -0.26341408491134644 0.21764400601387024 0.012173166498541832 -0.016000080853700638 0.0298710148781538 -0.2907089293003082 0.32109472155570984 -0.03211282566189766 0.6722162961959839 0.2050313949584961 0.1401991993188858 -0.023790771141648293 0.39205223321914673 0.04224942624568939
spiral 0.7130913138389587 0.16118213534355164 -0.16009676456451416 0.6294376850128174 0.13776011765003204 0.1292310655117035 0.19262219965457916 -0.046346861869096756 -0.48355385661125183 -0.18363730609416962 0.41162505745887756 0.8231702446937561 -0.7554155588150024 0.1142912358045578 -0.3438121974468231 -0.613679051399231 -0.018593216314911842 -0.011483070440590382 0.2859632968902588 -0.2587350308895111
metabolize -0.0030608708038926125 0.0018158250022679567 0.0072435676120221615 0.02470477670431137 0.004523707088083029 -0.0026214071549475193 0.015800051391124725 0.017868410795927048 0.001419537584297359 0.02182583510875702 0.014444483444094658 0.014058484695851803 -0.015352712944149971 0.009003275074064732 -0.003967974800616503 -0.01452954113483429 0.013350725173950195 0.018787331879138947 -0.018846295773983 -0.019404979422688484
excavate 0.0967649295926094 -0.09936510026454926 -0.049734655767679214 -0.14554758369922638 0.30382463335990906 0.07696054130792618 -0.07377777248620987 0.18645243346691132 0.06171854957938194 0.09390731900930405 0.08926860243082047 0.07448708266019821 -0.03285571560263634 0.2808932960033417 0.2917284369468689 -0.08296775817871094 0.23335671424865723 0.059080980718135834 0.022147303447127342 -0.05135580152273178
wipe -0.1855614334344864 -0.05652224272489548 0.5389021635055542 -0.06855028122663498 0.235804483294487 0.4813476502895355 0.1870993971824646 0.5160720944404602 -0.24408654868602753 0.32708999514579773 0.2751312553882599 0.7180172204971313 -0.08295907080173492 0.07204103469848633 0.15477754175662994 0.022454632446169853 0.08531899750232697 0.5874351859092712 0.42513906955718994 0.3598775565624237
halt 0.008388957940042019 0.32830631732940674 -0.15413743257522583 -0.21594876050949097 0.04427323490381241 -0.07482828944921494 -0.03339343145489693 0.02928982861340046 0.343950092792511 -0.010336707346141338 -0.2743028402328491 0.236899733543396 0.6237475275993347 -0.40220412611961365 0.4518178403377533 0.33961746096611023 -0.008443493396043777 -0.5823333263397217 0.32994693517684937 0.31050553917884827
throw 0.1320674866437912 0.5787618160247803 0.06752784550189972 0.04324384406208992 -0.26002034544944763 0.37781205773353577 -0.5262648463249207 0.2770599126815796 -0.16915571689605713 -0.26909634470939636 0.3264879882335663 -0.19215504825115204 0.41861164569854736 0.1668003499507904 0.5442272424697876 -0.493381530046463 0.0470111109316349 -0.5492714047431946 0.08687546104192734 -0.3048955500125885
disguise 0.002540546003729105 -0.10589156299829483 -0.00522144278511405 0.06156060844659805 0.06067907065153122 0.1457882523536682 -0.049492139369249344 0.12464305758476257 -0.039334919303655624 0.04833894968032837 -0.15709924697875977 -0.0744330957531929 -0.03376437723636627 0.03517305478453636 0.04127146676182747 -0.04884257912635803 -0.0026227342896163464 -0.019443152472376823 0.10261770337820053 0.024237526580691338
wrap 0.4415012001991272 0.03434180095791817 -0.18848729133605957 0.68900066614151 0.09110715240240097 0.17599047720432281 0.5700128078460693 0.07801748812198639 -0.20514434576034546 0.0917549580335617 0.4550960659980774 3.6695037852041423E-4 -0.2570060193538666 0.6944953203201294 -0.08223757147789001 -0.3162049949169159 -0.032974857836961746 0.023285292088985443 0.4368443489074707 -0.18196755647659302
buff 0.23407556116580963 0.08703417330980301 0.049966197460889816 -0.49407580494880676 0.058046720921993256 -0.08886543661355972 0.0077192592434585094 0.0018486923072487116 -0.1340828537940979 0.1597995012998581 0.0542239286005497 0.19517531991004944 0.08167418837547302 -0.10449919104576111 0.017616551369428635 -0.01847766898572445 0.08358559757471085 0.06986117362976074 0.24288596212863922 0.031384967267513275
fluoresce 0.06088901683688164 -0.04914664849638939 0.003224372398108244 0.05358050391077995 -0.04187455400824547 0.0474555566906929 -0.0233574528247118 0.05845635011792183 -0.08934079855680466 0.022854337468743324 0.09121519327163696 -0.04118118807673454 -0.04132470861077309 0.07039269059896469 -0.008905329741537571 0.15679946541786194 -0.13306166231632233 0.12013629078865051 -0.08161842823028564 0.008204061537981033
resolve -0.015975601971149445 0.15150773525238037 -0.08756592124700546 -0.025337573140859604 0.00398380309343338 0.25491392612457275 -0.11487804353237152 -0.0431339293718338 -0.05287204682826996 0.049398280680179596 0.037098683416843414 -0.05374974384903908 0.08559940755367279 -0.15133561193943024 -0.17369718849658966 0.13334745168685913 -0.02024642750620842 0.05511586368083954 0.024746175855398178 -0.13024777173995972
correct -0.26605111360549927 0.11063703149557114 -0.8596997857093811 -0.0643368512392044 0.08225743472576141 0.4956735670566559 -0.073378786444664 -0.47225674986839294 0.11496041715145111 0.20904317498207092 0.4900393486022949 -0.46472159028053284 0.7012625336647034 -0.7797992825508118 -0.2029391974210739 0.8355357050895691 0.593625545501709 -0.5993809103965759 -0.27176398038864136 -0.09886511415243149
chill -0.7443545460700989 0.0501074455678463 -0.5067059397697449 -0.25597453117370605 0.3882700204849243 0.009688165970146656 -0.18821729719638824 0.22758175432682037 -0.28188255429267883 0.043902937322854996 0.1369341015815735 0.3834056854248047 -0.34123435616493225 0.688310980796814 0.053606368601322174 0.30866363644599915 -0.8496482968330383 -0.11430823802947998 -0.14130602777004242 0.09667731076478958
undulate 0.02633138746023178 0.0032476771157234907 -0.0030834947247058153 0.04366042837500572 -0.019431784749031067 0.04903126507997513 0.014223616570234299 -0.003941374830901623 -0.02136392518877983 -0.015168335288763046 -0.00875299796462059 0.0023226907942444086 0.01450132206082344 0.04366404190659523 0.006079776678234339 -0.11950533092021942 0.019920513033866882 -0.06210913136601448 -0.026115352287888527 -0.049665313214063644
imitate -0.01524317730218172 0.00936099048703909 -0.003721298649907112 -0.010826739482581615 -0.0030113202519714832 0.013791026547551155 -0.024851232767105103 -0.00885346531867981 -0.004234562162309885 0.02202697843313217 0.004007925745099783 0.012178273871541023 0.004508097656071186 0.021950459107756615 -0.02022809535264969 0.004634120501577854 -0.01513988059014082 0.019821206107735634 -0.010655759833753109 0.01116771437227726
dominate 0.023075232282280922 0.038112323731184006 -0.04896601289510727 -0.1012410819530487 0.03036838211119175 0.0481211319565773 0.03688066452741623 -0.04120003432035446 0.024149933829903603 -0.05001236870884895 0.05571936070919037 0.00728199677541852 0.13577476143836975 -0.08356640487909317 0.11475897580385208 0.05390897020697594 0.03298889473080635 -0.10187719017267227 0.08298995345830917 -0.009133276529610157
empty 0.09987282752990723 0.39584997296333313 -0.2920421361923218 -0.31813839077949524 -0.16809333860874176 -0.14025621116161346 -0.05690155178308487 0.7171812057495117 -0.015660986304283142 0.11449483036994934 -0.16933690011501312 0.13386058807373047 0.018072258681058884 0.061643730849027634 0.15877532958984375 0.25804758071899414 -0.08016178011894226 -0.2071959227323532 0.43745720386505127 -0.17594057321548462
deploy 0.238623708486557 0.458343505859375 0.29754626750946045 0.045891519635915756 0.14992445707321167 0.36435335874557495 -0.05010595917701721 0.21632881462574005 -0.4699861407279968 -0.42304325103759766 -0.09736369550228119 -0.35516050457954407 -0.0871996283531189 0.1906910240650177 0.5212519764900208 0.27095508575439453 0.25253576040267944 -0.2447742372751236 0.24499712884426117 -0.3716345727443695
compute 0.10152219980955124 0.48190975189208984 -0.6770035624504089 -0.04856986179947853 0.13941702246665955 0.3602644205093384 -0.16638143360614777 -0.5803925395011902 0.23665279150009155 -0.09314505010843277 0.3859969675540924 -0.19992755353450775 0.5336777567863464 -0.6653019189834595 -0.0429377481341362 0.5180377960205078 0.13746358454227448 -0.8760094046592712 -0.18800820410251617 -0.30941352248191833
tie 0.0749097615480423 -0.02327902801334858 -0.3034152686595917 0.39521247148513794 0.14045745134353638 -0.004681664984673262 0.5364397168159485 0.21212220191955566 -0.09178074449300766 0.48388567566871643 0.2753758430480957 -0.37068048119544983 -0.16893276572227478 0.8806406855583191 0.15175026655197144 -0.5179399251937866 0.6415939331054688 -0.2516678273677826 0.1440744698047638 -0.6181264519691467
pad -0.21515926718711853 -0.10027702897787094 0.5023489594459534 0.19460730254650116 -0.5695655941963196 0.5496240258216858 0.37419775128364563 -0.3452494144439697 -0.33251070976257324 0.44951945543289185 0.15596219897270203 -0.5494642853736877 0.1264561265707016 0.771486759185791 0.17668502032756805 0.2032882124185562 0.4390105605125427 0.45876461267471313 0.2872210144996643 0.4307427704334259
exceed -0.48326289653778076 0.2858826816082001 -0.7667751312255859 -0.057500068098306656 -0.06904536485671997 0.4159852862358093 0.4499378502368927 -0.07627081871032715 0.4269091486930847 0.2515729069709778 -0.4223748743534088 -0.06673935800790787 0.5740281939506531 -0.23913250863552094 0.28685200214385986 0.7317001819610596 -0.04276441037654877 -0.42020121216773987 0.2790987491607666 0.13944832980632782
enlarge -0.5497423410415649 -0.10525539517402649 -0.16946470737457275 0.07823117077350616 0.14715969562530518 0.12946735322475433 0.17090214788913727 0.3195658028125763 -0.030174994841217995 0.2588658332824707 -0.11509805172681808 0.7830111384391785 0.1924673169851303 0.12337025254964828 0.30699220299720764 0.15214265882968903 0.7663235068321228 -0.39950278401374817 0.5884653329849243 -0.15745224058628082
backfill -0.15025581419467926 -0.06349406391382217 -0.1073281541466713 -0.058962661772966385 -0.010849603451788425 0.17933228611946106 0.2710407078266144 0.05352752283215523 -0.10523229837417603 -0.0153243662789464 -0.06981245428323746 0.2647876441478729 0.10284559428691864 0.10340127348899841 8.464136044494808E-4 0.07030566781759262 0.18098726868629456 -0.05964323878288269 0.03453122824430466 0.05586117506027222
disperse 0.3612755239009857 0.08671360462903976 -0.027315855026245117 0.12483768165111542 -0.08001947402954102 0.467641681432724 -0.3230297267436981 0.25864219665527344 -0.23615233600139618 -0.01628248207271099 0.30127447843551636 0.6580384373664856 -0.39658936858177185 -0.4149635136127472 -0.1216522753238678 0.6535918116569519 -0.10722353309392929 -0.19914773106575012 0.04990984871983528 -0.4484769403934479
implement -0.27910012006759644 0.22260022163391113 -0.04698525369167328 0.039233867079019547 0.20144544541835785 0.15978696942329407 -0.6571199297904968 -0.028385130688548088 -0.16567941009998322 0.12637561559677124 0.14001873135566711 0.01995602436363697 0.2985849380493164 -0.005060484632849693 0.07350004464387894 0.140852689743042 0.014958546496927738 -0.6238778829574585 -0.258280873298645 0.03668694198131561
tip 0.22504663467407227 -0.21455933153629303 0.17791612446308136 0.1595064252614975 -0.04455715790390968 -0.014907234348356724 0.27344706654548645 0.12176378071308136 0.3611372411251068 -0.01042180135846138 0.43562689423561096 0.32216668128967285 -0.4054598808288574 0.008383393287658691 0.0017354449955746531 -0.04977193474769592 0.28369227051734924 -0.08836142718791962 0.37576425075531006 -0.2702309489250183
avert -0.004271493759006262 0.15244366228580475 -0.03438998758792877 -0.09883765131235123 0.05414462834596634 0.053450316190719604 -0.051820531487464905 -0.032695721834897995 -0.0460333414375782 0.0608171746134758 0.0647427886724472 0.17113858461380005 0.13973243534564972 0.09510555118322372 0.027542002499103546 0.3131372630596161 -0.011863852851092815 -0.13050973415374756 -0.15004955232143402 0.1756495237350464
export -0.11686045676469803 0.10981912910938263 -0.003971206955611706 0.03555453568696976 0.09404747188091278 0.049251556396484375 -0.08056192845106125 0.13844095170497894 -0.09753918647766113 -0.018720868974924088 0.017634164541959763 0.062178269028663635 -0.022031152620911598 -0.023766105994582176 -0.10851240158081055 0.024064000695943832 -0.10362870246171951 -0.12901544570922852 -0.09338849782943726 -0.014538943767547607
incinerate 0.27236291766166687 -0.07471289485692978 -0.0984916239976883 -0.3287256062030792 -0.2801312208175659 0.07859591394662857 0.2779397964477539 -0.20849891006946564 -0.5045406818389893 -0.3477310538291931 0.33261120319366455 0.3375852406024933 0.2295359969139099 0.3487318158149719 -0.05125177279114723 0.9525865912437439 -0.25446251034736633 -0.622119128704071 0.00868445634841919 -0.05382945016026497
lace 0.2065185159444809 0.044616151601076126 -0.40828683972358704 0.31691133975982666 0.08905337750911713 0.09077721834182739 0.04031158238649368 0.46424978971481323 -0.12199410051107407 0.412617951631546 0.21087972819805145 -0.21471530199050903 -0.15193937718868256 0.3197053074836731 -0.05037982389330864 -0.14595972001552582 0.2844758927822113 -0.04130297899246216 0.08558730036020279 -0.17121872305870056
erode 0.04775359109044075 -0.017810683697462082 -0.022488627582788467 0.013440475799143314 0.0552099272608757 0.03953160345554352 0.06799601763486862 0.07878923416137695 0.09536582976579666 -0.015651049092411995 -0.007136212661862373 0.08318629860877991 -0.016336264088749886 -0.003515667514875531 0.0455332025885582 0.11739199608564377 -0.006690382491797209 -0.03608093783259392 0.18249475955963135 -0.03923739120364189
nestle -0.02061273902654648 0.008687430061399937 0.0022264316212385893 0.008375115692615509 0.005987619981169701 0.009028208442032337 -9.819513652473688E-4 0.008550981059670448 -0.002825117204338312 0.01338021457195282 0.020353049039840698 0.024691307917237282 -0.01011218037456274 0.004756540525704622 -0.009241067804396152 -0.020782476291060448 0.0045577059499919415 0.018921034410595894 -0.005416866857558489 -0.00966553669422865
check -0.11223362386226654 0.7125362157821655 0.05643947422504425 -0.5626504421234131 0.2398584634065628 -0.36194372177124023 -0.06066727265715599 0.14144651591777802 0.23903433978557587 0.5228326320648193 -0.23156233131885529 0.4195985794067383 0.4144105017185211 -0.3478066623210907 0.05604983866214752 0.006953731179237366 0.09377247095108032 -0.06471956521272659 0.16282452642917633 0.35254669189453125
sand 0.08176560699939728 0.2304491102695465 -0.33145028352737427 0.15004579722881317 -0.28230971097946167 -0.18394704163074493 0.11499694734811783 -0.07601544260978699 -0.5392102003097534 -0.010395215824246407 0.3330177366733551 0.7169263958930969 0.13351844251155853 0.7631664276123047 0.17301823198795319 0.43036404252052307 -0.2809515595436096 0.13973230123519897 0.3741866946220398 0.4759683310985565
wire 0.6169000267982483 0.5322913527488708 -0.06300711631774902 0.7207695841789246 0.3748185932636261 -0.08943592756986618 0.4419472813606262 0.004804841708391905 -9.896550327539444E-4 0.09701351821422577 0.45025908946990967 -0.5661715865135193 -0.46054285764694214 0.6112510561943054 0.09185636788606644 -0.15999768674373627 -0.19854237139225006 -0.19246695935726166 0.09690675139427185 0.07336926460266113
straddle -0.1979803442955017 -0.4200677275657654 0.4223203957080841 -0.23874537646770477 -0.06719136238098145 0.2793600261211395 0.1612975001335144 0.2566991448402405 0.23547787964344025 0.29815909266471863 0.1413353979587555 -0.163181871175766 -0.3975464701652527 0.818874716758728 0.458149254322052 -0.41172149777412415 0.6444120407104492 -0.029716352000832558 0.12267419695854187 -0.10763369500637054
harm 0.07984380424022675 -0.22769054770469666 0.3862782120704651 -0.39436283707618713 0.08693726360797882 -0.009617961943149567 0.05643764138221741 0.02200273610651493 -0.14015795290470123 -0.03326808661222458 0.06510438770055771 0.013740278780460358 0.04270041733980179 0.4722411632537842 0.12953513860702515 1.3408172130584717 -0.22849415242671967 -0.36934375762939453 -0.04408770054578781 0.08112625777721405
rope 0.47611185908317566 0.7480436563491821 -0.06202869862318039 0.6432176828384399 0.5512829422950745 0.02378721721470356 0.6138793230056763 -0.047854337841272354 -0.24191425740718842 0.12111986428499222 0.5550544261932373 -0.41985252499580383 -0.10959148406982422 1.3338676691055298 0.24646946787834167 -0.2725847661495209 0.809917151927948 -0.37252077460289 0.3222106695175171 -0.24987775087356567
sculpt -0.022347671911120415 -0.012237416580319405 0.00947588961571455 -0.007908194325864315 0.012575886212289333 -0.013813666068017483 -0.014921475201845169 -0.0020391778089106083 -0.01842123456299305 0.023696687072515488 0.012925826013088226 -0.011970735155045986 -0.014119965955615044 0.016732370480895042 -0.004438129719346762 0.009744158014655113 -0.007316598203033209 -0.018149735406041145 0.009730158373713493 0.01365096028894186
orientate 0.061612535268068314 -0.05898056924343109 0.10704309493303299 -0.06349564343690872 -0.04246553033590317 0.1455979347229004 -0.21189934015274048 0.11197900772094727 -0.07227492332458496 -0.09547815471887589 0.12158304452896118 -0.10859672725200653 -0.024312149733304977 0.05846980959177017 0.10074838250875473 -0.20264719426631927 0.061024073511362076 -0.07649238407611847 -0.13521790504455566 -0.05526663362979889
outgas -0.003329032100737095 0.006876006722450256 0.02233639545738697 -0.012430506758391857 0.027122579514980316 0.014741216786205769 0.006740199867635965 0.024769136682152748 -0.011628159321844578 0.02467404305934906 -0.004403396043926477 -0.003186897374689579 0.031045252457261086 -0.011233426630496979 -0.018370766192674637 0.01803455874323845 -0.01168777421116829 -0.016763998195528984 0.016112929210066795 0.014018513262271881
spoil 0.04044162854552269 -0.023417744785547256 0.05996251106262207 -0.37486177682876587 0.19584067165851593 -0.08318834006786346 0.11771552264690399 0.013164879754185677 0.05957585945725441 -0.0018503394676372409 0.053585562855005264 0.23389197885990143 0.07664510607719421 -0.22346580028533936 -0.052991773933172226 0.46724700927734375 -0.28773096203804016 -0.050255924463272095 0.2741728127002716 0.2288527488708496
multiply 0.011075745336711407 0.5501863956451416 0.1555059254169464 0.2499629408121109 -0.1068570464849472 0.4285709857940674 -0.027267687022686005 0.19098107516765594 -0.38203540444374084 -0.13167797029018402 0.18307530879974365 -0.0860193744301796 -0.09132812917232513 0.12507769465446472 -0.08958631008863449 0.21492506563663483 0.1494259089231491 -0.40270543098449707 -0.14200258255004883 -0.30309033393859863
pilot 0.003995018545538187 0.5495818853378296 0.2965260148048401 -0.3861623704433441 0.3017173707485199 -0.19904230535030365 -0.09277764707803726 -0.14889897406101227 0.015007475391030312 0.27577564120292664 -0.010224508121609688 0.10922480374574661 -0.0791291892528534 -0.5512318015098572 -0.008296838030219078 -0.1816006898880005 0.11195158958435059 -0.5622110962867737 -0.05663854256272316 0.23641343414783478
twine -0.07210784405469894 -0.12785279750823975 -0.11506300419569016 0.28213196992874146 0.08765824139118195 0.12702681124210358 -0.08972178399562836 -0.037856731563806534 -0.2015356719493866 0.06764249503612518 0.14250944554805756 0.05313267558813095 0.027765538543462753 0.40081435441970825 0.05809606611728668 -0.03371064364910126 -0.013206814415752888 -0.158933624625206 0.10277148336172104 0.012031324207782745
peak -0.19456803798675537 -0.33592966198921204 -0.6195127367973328 0.05179997533559799 0.05484432354569435 0.5352777242660522 0.08542003482580185 -0.26502758264541626 0.1095317080616951 0.0669722780585289 -0.05560761317610741 -0.12777049839496613 0.21513471007347107 -0.3693683445453644 -0.04356257617473602 0.5729378461837769 -0.2835007905960083 -0.45183873176574707 0.22196725010871887 -0.4058442711830139
expose -2.622203028295189E-4 0.021604018285870552 -0.05367107316851616 -0.15033870935440063 0.3948078751564026 -0.047365155071020126 -0.34739166498184204 0.518394410610199 0.06728850305080414 0.1122843325138092 0.19479331374168396 0.06962864845991135 0.20635762810707092 0.30336177349090576 0.6159542202949524 0.3974056541919708 0.22143933176994324 0.5319460034370422 0.49806514382362366 -0.16650910675525665
concentrate -0.03559084236621857 0.08254177868366241 0.16268326342105865 -0.2785569429397583 0.02801397629082203 0.7991723418235779 -0.06322365999221802 0.40344956517219543 -0.5377697348594666 -0.18146635591983795 0.3285600543022156 0.2868857681751251 -0.8002946376800537 0.14083145558834076 -0.4609745740890503 0.4413030445575714 -0.23890499770641327 0.17756518721580505 -0.2861292362213135 -0.09958014637231827
weld 0.36946067214012146 -0.3325832486152649 -0.4819481074810028 0.5449250936508179 0.04371212422847748 -0.195468470454216 0.41904234886169434 0.12855583429336548 0.27680858969688416 0.5429052114486694 0.5087112188339233 -0.01718842424452305 -0.21427907049655914 0.6342265605926514 0.3615836799144745 0.12012550979852676 0.14802208542823792 0.040808748453855515 0.08383115381002426 0.08741528540849686
populate -0.023268043994903564 0.022396940737962723 0.020198438316583633 -0.0027603968046605587 -0.013581041246652603 0.008289721794426441 0.017355071380734444 0.0161050446331501 0.012177241034805775 -0.021011149510741234 0.022737868130207062 -0.014956453815102577 0.02168150432407856 -0.022353436797857285 0.015465158969163895 0.025120817124843597 0.016342375427484512 -0.0017333838623017073 0.02220732346177101 0.013764288276433945
puncture 0.047414381057024 -0.1544659286737442 0.2736814618110657 0.053027935326099396 -0.11051933467388153 -0.010417204350233078 0.13366059958934784 0.21075884997844696 -0.06128745526075363 0.11961421370506287 0.03633074834942818 0.03776627779006958 -0.0831364244222641 -0.13538429141044617 0.24939925968647003 0.17849989235401154 0.3075445294380188 0.14941281080245972 0.3364241123199463 0.034501612186431885
service -0.20437048375606537 0.20936428010463715 -0.08140260726213455 0.028740568086504936 0.29587504267692566 0.237574964761734 -0.12759515643119812 -0.022646721452474594 0.38046619296073914 0.6522064208984375 -0.18424443900585175 0.036283545196056366 0.12587018311023712 0.503547191619873 0.39883750677108765 0.4126240611076355 0.018585486337542534 -0.1968115121126175 -0.2820378243923187 0.5145443081855774
automate 0.02601245604455471 0.02222190611064434 -0.03013491816818714 -0.012409902177751064 0.0044610342010855675 0.028583185747265816 -0.006785549223423004 -0.010831478983163834 0.0020877185743302107 0.015221897512674332 -0.004453655332326889 0.013992829248309135 -0.011710155755281448 -4.064589738845825E-4 -0.00799736101180315 0.005300489254295826 9.594089933671057E-4 0.012163004837930202 -0.0018684181850403547 0.016132771968841553
permit 0.10898278653621674 0.10094041377305984 0.08638784289360046 -0.29642271995544434 0.2912270128726959 0.23085550963878632 -0.11211507022380829 0.17106883227825165 -0.016464103013277054 0.051833875477313995 -0.2367391139268875 0.06152777746319771 0.1720455139875412 -0.08037964999675751 0.1994437277317047 0.13813737034797668 0.27452436089515686 0.20784525573253632 0.18252457678318024 -0.012444124557077885
inject -0.010884646326303482 -0.7321851849555969 0.30558204650878906 -0.4745643436908722 0.2982240319252014 -0.47828614711761475 0.2737268805503845 0.09816230088472366 -0.12491878122091293 -0.20959089696407318 0.989280104637146 -0.16226576268672943 0.26737362146377563 -0.6288080811500549 -0.21113374829292297 0.3115748167037964 9.3269714852795E-4 -0.6380577683448792 -0.47693461179733276 0.36658525466918945
splash 0.2630869150161743 0.09367845207452774 0.5977317690849304 -0.28855109214782715 0.10219006985425949 0.17463400959968567 -0.03304964676499367 0.10817992687225342 0.12400388717651367 0.33585676550865173 0.14143449068069458 0.3871493935585022 0.08375140279531479 0.8802008032798767 0.19307662546634674 0.6629739999771118 -0.20523475110530853 0.3521150052547455 0.1266300231218338 -0.10363622009754181
dimple 0.032627131789922714 -0.5151159167289734 -0.11861346662044525 0.24203410744667053 0.03302915766835213 -0.062180276960134506 -0.13061627745628357 0.3825768232345581 0.2482299953699112 0.28350305557250977 0.08781116455793381 0.41264963150024414 -0.3797972798347473 -0.05041954666376114 0.29757505655288696 -0.11325686424970627 0.5232755541801453 0.3394734561443329 0.511272132396698 -0.014073687605559826
pocket -0.15352565050125122 -0.32193687558174133 -0.07436623424291611 0.3518376648426056 -0.2754143476486206 -0.18505308032035828 -0.3113066852092743 0.3001566231250763 -0.30870136618614197 0.31314951181411743 0.24380162358283997 0.44272321462631226 -0.12824183702468872 -0.08192387223243713 0.1217411458492279 -0.3466319441795349 0.13375458121299744 0.09625244140625 0.6494328379631042 -0.17059293389320374
pile 0.18859897553920746 -0.23801665008068085 -0.00216879160143435 0.17992544174194336 -0.13648129999637604 0.12281922250986099 0.2279776930809021 0.3442192077636719 -0.40577223896980286 -0.45827266573905945 0.19876158237457275 0.20949195325374603 -0.37620875239372253 0.7515265941619873 -0.13638590276241302 0.03867051750421524 0.16589054465293884 -0.4575161635875702 -0.33819347620010376 -0.12428948283195496
channel 0.36479565501213074 -0.05347287654876709 -0.15122850239276886 -0.4165925681591034 0.0237024687230587 -0.19875235855579376 -0.026331590488553047 -0.1353650540113449 0.06848140060901642 0.16782164573669434 0.11605050414800644 0.4194325804710388 -0.2924489378929138 0.0544944666326046 -0.3128247559070587 -0.15176866948604584 -0.12715840339660645 0.3777456283569336 0.246080219745636 -0.17992524802684784
focus 0.10633061826229095 0.46934348344802856 0.4535196125507355 0.1947394609451294 0.4024454355239868 1.4216523170471191 -0.5591716766357422 0.3435390591621399 -0.41633203625679016 -0.038509637117385864 0.8125231266021729 -0.28290557861328125 -0.8754220604896545 -0.32305198907852173 -0.1608031988143921 0.3663230836391449 -0.29115214943885803 0.23226235806941986 -0.24520647525787354 -0.7971338629722595
hamper 0.17856256663799286 0.16185897588729858 0.029467986896634102 -0.12265628576278687 0.09389357268810272 -0.023724449798464775 0.016527121886610985 0.09354446828365326 -0.09698431938886642 0.001813940703868866 -0.01885310932993889 0.044819317758083344 -0.09693052619695663 0.14987100660800934 0.09209092706441879 0.040118683129549026 -0.0424448698759079 -0.015897290781140327 0.10131972283124924 0.21188752353191376
implant 0.0057740723714232445 -0.007386296056210995 -0.4917187988758087 -0.002322971588000655 0.05353811755776405 0.049672141671180725 -0.24316084384918213 0.2895289957523346 -0.04172530397772789 -0.0969792976975441 0.3214893043041229 0.34295377135276794 0.1039135530591011 0.5907870531082153 -0.14059334993362427 0.21683140099048615 0.3288072645664215 -0.4969768226146698 -0.12709550559520721 -0.023186879232525826
approach -0.13727915287017822 0.08548282086849213 -0.22481931746006012 0.002985617145895958 0.2652845084667206 0.5283278822898865 0.32037603855133057 -0.05083458870649338 0.09317059814929962 -0.1942790448665619 0.13519196212291718 -0.07171716541051865 0.04075416550040245 -0.5843430757522583 0.2887910306453705 0.2923736870288849 -0.13234345614910126 -0.2773117125034332 0.22103989124298096 -0.2059454768896103
normalize 0.042559634894132614 0.20058386027812958 -0.005265791434794664 -0.2331596165895462 0.21881096065044403 0.09522197395563126 -0.024245690554380417 0.014937099069356918 -0.10988403111696243 0.04874274134635925 0.009759286418557167 -0.14484356343746185 0.14486047625541687 -0.055375032126903534 -0.061000972986221313 -0.14596305787563324 -0.06846718490123749 -0.2998974025249481 0.10741142928600311 0.12191610038280487
bump 0.45009079575538635 -0.12537257373332977 0.13671956956386566 0.06393405050039291 0.052250318229198456 0.22227466106414795 0.20098301768302917 0.29397112131118774 0.21513694524765015 0.03220187872648239 0.10734584927558899 0.17200370132923126 -0.2074335366487503 0.3231624662876129 0.4685736298561096 0.31145983934402466 0.234034925699234 0.034695666283369064 0.36049172282218933 0.054682858288288116
block 0.2562428414821625 0.061185333877801895 0.0889284759759903 -0.2341856062412262 -0.07405225187540054 -0.10282368957996368 -0.35405609011650085 0.06532040238380432 -0.09103255718946457 0.04063046723604202 -0.0455581359565258 0.04690682515501976 -0.02354758232831955 0.04804619401693344 0.12643952667713165 -0.175031378865242 0.18416728079319 0.20267347991466522 0.22770605981349945 0.187962144613266
miniaturize -0.043596334755420685 -0.011945153586566448 -0.05588991940021515 -0.07165003567934036 -0.05009475350379944 0.06902016699314117 -0.03923318162560463 -0.019308777526021004 -0.006468683015555143 0.08399079740047455 0.012767522595822811 -0.08030488342046738 -0.05451777204871178 0.02870098315179348 -0.052033063024282455 0.08131303638219833 0.0219610296189785 -0.08235545456409454 -0.041811857372522354 -0.013872501440346241
write -0.07885784655809402 0.5548065900802612 -0.08488453924655914 0.05185320973396301 0.533700704574585 0.30661919713020325 -0.12822094559669495 0.16919414699077606 -0.3405486047267914 0.4170059859752655 0.47547686100006104 -0.45960533618927 -0.15891258418560028 -0.12085485458374023 -0.3094616234302521 0.38263174891471863 0.3580784201622009 -0.2183782309293747 -0.4279065728187561 -0.521026611328125
flow -0.09552769362926483 -0.06365543603897095 0.2276715785264969 -0.45995208621025085 0.30436161160469055 -0.19502347707748413 0.18197929859161377 -0.4316181242465973 -0.08977774530649185 0.5483997464179993 0.11881466209888458 0.38753122091293335 -0.003344631753861904 -0.3270505964756012 0.32731372117996216 0.0026336798910051584 -0.6950995326042175 -0.2526150941848755 0.11833030730485916 -0.40019476413726807
order -0.03430408239364624 -0.12909795343875885 -0.019333593547344208 0.02389247715473175 0.2543227970600128 0.3096928596496582 0.0998421236872673 -0.17269626259803772 -0.13125252723693848 0.2761717140674591 -0.1339941918849945 0.09418722987174988 0.12843948602676392 -0.16677896678447723 0.11286391317844391 0.36730092763900757 -0.022564467042684555 -0.2692683935165405 0.02570527233183384 -0.0314638577401638
modulate 0.050079986453056335 0.6435589790344238 0.009067969396710396 -0.4690382778644562 0.48365139961242676 0.5134604573249817 -0.021187635138630867 0.08314388245344162 0.11265268921852112 0.5555168986320496 -0.19263051450252533 0.4432884454727173 0.5367879867553711 -0.4747571647167206 -0.14030282199382782 -0.046300798654556274 -0.3780433237552643 -0.427370548248291 0.34636378288269043 0.1329074501991272
interpolate -0.008815952576696873 8.190526277758181E-4 -0.028312111273407936 -0.01593289151787758 -0.021762000396847725 0.012668400071561337 -0.0042493389919400215 -0.011775716207921505 -0.016645386815071106 0.019095173105597496 -0.010592952370643616 0.010864205658435822 -0.017130041494965553 0.01297763828188181 0.021005388349294662 -0.011996841989457607 -0.020980557426810265 -0.0021055294200778008 -5.980198620818555E-4 -0.001414690283127129
gore 0.14075425267219543 -0.11728162318468094 -0.07146744430065155 0.03161819279193878 -0.0580659843981266 0.1652783900499344 -0.02764805592596531 0.07535216212272644 0.1834694743156433 0.06885872036218643 0.1615068018436432 0.09890588372945786 -0.14754904806613922 -0.13098037242889404 0.07572013139724731 -0.16928505897521973 0.04099111258983612 0.09904000163078308 0.1508364975452423 -0.09614433348178864
centralize -0.03894330933690071 0.04318622127175331 -0.07750782370567322 -4.2329229472670704E-5 0.10089577734470367 0.12702834606170654 0.08980387449264526 0.24084186553955078 0.033572304993867874 0.11948483437299728 0.03063218854367733 0.06005183607339859 -0.08077102899551392 -0.14041651785373688 0.14717663824558258 0.036042556166648865 0.16757243871688843 -0.08822056651115417 0.20843391120433807 -0.06217527389526367
retrofit 0.21803537011146545 -0.18668892979621887 0.08279113471508026 -0.0725228488445282 0.33398574590682983 -0.11303148418664932 -0.5131992101669312 -0.1455044448375702 -0.17124849557876587 0.24453948438167572 -0.08657648414373398 -0.2578768730163574 0.006442926824092865 0.4797503352165222 0.11849343031644821 0.3771879971027374 -0.05797191709280014 -0.4198777377605438 -0.2651940584182739 0.11689279228448868
install -0.08527950942516327 0.07870741188526154 -0.1599605530500412 0.10270102322101593 0.45458802580833435 -0.17014817893505096 0.018284590914845467 0.4850156307220459 0.28412893414497375 0.5701597929000854 0.024227790534496307 0.3176485002040863 0.1852130889892578 0.4876596927642822 0.19960996508598328 0.34114450216293335 0.3401491641998291 -0.15839751064777374 -0.08412738144397736 -0.07430928945541382
analyze 0.19758662581443787 0.004850673954933882 -0.27236849069595337 -0.02919541858136654 0.01948680728673935 -0.010680503211915493 0.017520127817988396 -0.08333289623260498 -0.14361640810966492 -0.003207442117854953 0.11466867476701736 -0.02381138876080513 0.18233375251293182 -0.23514734208583832 -0.11084414273500443 0.4025069773197174 -0.10726333409547806 -0.3854321539402008 -0.10720153898000717 0.19421686232089996
fluidize 0.29267847537994385 -0.4783240854740143 0.11504466086626053 -0.8534176349639893 0.036652855575084686 -0.22780103981494904 0.39337772130966187 0.046330664306879044 -0.6993207335472107 -0.36322036385536194 0.27995333075523376 0.6042516231536865 0.08403801172971725 0.3991197645664215 -0.3029240369796753 0.7684064507484436 -0.27566295862197876 0.05889921635389328 0.12023584544658661 -0.0869942158460617
refract 0.4950484037399292 0.550462543964386 -0.005138136446475983 0.5171727538108826 -0.05589945614337921 1.26546311378479 -0.8609548807144165 0.4187776744365692 -0.794264554977417 0.27422529458999634 0.8558145761489868 0.22498826682567596 -0.23583292961120605 -0.14085309207439423 -0.18544599413871765 0.5838290452957153 -0.6433151960372925 0.4671940207481384 0.21350494027137756 -0.7215337753295898
save -0.31180715560913086 -0.19093768298625946 0.0166217852383852 -0.053260352462530136 0.5532639026641846 -0.019659394398331642 0.24222345650196075 0.1480860561132431 0.08274541795253754 0.24996992945671082 -0.06373520940542221 -0.10029914975166321 0.16294345259666443 0.06855937093496323 0.09984990209341049 0.5947773456573486 -0.305966854095459 -0.6665604710578918 -0.13309398293495178 -0.06336057931184769
stagger 0.3366382420063019 -0.21698187291622162 -0.24278990924358368 -0.036534328013658524 -0.11754248291254044 0.34271007776260376 -0.1895732581615448 -0.25555258989334106 0.23943741619586945 0.008820229209959507 0.400712788105011 0.3450082540512085 -0.20869465172290802 0.04768271744251251 0.34130367636680603 -0.17274117469787598 0.04208705946803093 0.23497463762760162 0.30202776193618774 -0.2316383272409439
restrict 0.1585099846124649 0.13789282739162445 0.17740890383720398 -0.45376846194267273 0.12807637453079224 0.2837120592594147 0.21748065948486328 -0.005970410071313381 -0.0065050069242715836 0.30166715383529663 -0.223368838429451 0.3188055157661438 0.3588160276412964 -0.4132314920425415 0.14219561219215393 0.04515377804636955 0.1713014394044876 0.33703458309173584 0.17620033025741577 0.11920448392629623
bandage 0.0173600185662508 -0.04465491324663162 -0.047606829553842545 0.07456088811159134 -0.015195654705166817 -0.0037297566886991262 -0.004101762548089027 0.07423621416091919 -0.010239621624350548 0.01742221973836422 -0.04509056732058525 -0.06539139151573181 -0.1233396902680397 0.11073998361825943 0.010481736622750759 -0.013492276892066002 0.08756136149168015 0.07718387246131897 -0.011173570528626442 -0.004641869571059942
scrap -0.3282458484172821 -0.3242647647857666 -0.26622024178504944 -0.2065732330083847 -0.23344238102436066 -0.05590582638978958 -0.08750477433204651 -0.16229243576526642 -0.43058520555496216 -0.4387858808040619 1.1151776313781738 0.1355716437101364 0.048857834190130234 0.5277472138404846 0.7470633387565613 1.007202386856079 -0.20168954133987427 -0.15413519740104675 0.11327824741601944 0.18591490387916565
ladle -0.010218081064522266 0.23402276635169983 -0.159673273563385 -0.5052982568740845 -0.19223995506763458 -0.058291204273700714 -0.1748439073562622 0.01896965131163597 0.08975199609994888 -0.13304531574249268 0.8547113537788391 0.3248414397239685 -0.5505598783493042 0.5735411643981934 0.5389242768287659 0.44436144828796387 0.3724777102470398 0.22588607668876648 0.21128030121326447 0.32931289076805115
floss 0.11909603327512741 0.028778735548257828 0.03099633939564228 -0.208126038312912 -0.032901830971241 -0.008749211207032204 0.06322313100099564 0.02890481986105442 -0.15374109148979187 -0.03765050321817398 0.05492709204554558 0.1488664299249649 -0.1483362466096878 -0.058432240039110184 -0.13659930229187012 0.0795903205871582 -0.11562255769968033 0.0161275751888752 0.05685333162546158 -0.04418692737817764
tow -0.4029989242553711 0.8064674139022827 -0.023043280467391014 0.11600563675165176 -0.005699878558516502 0.728137731552124 0.026151271536946297 0.24910232424736023 -0.4831118583679199 0.09393318742513657 0.1287182867527008 -0.05503961443901062 -0.35877808928489685 0.46322739124298096 0.5712853670120239 0.28466418385505676 0.6091729998588562 -0.4017252027988434 -0.6009113788604736 -0.31666943430900574
roast 0.18114662170410156 -0.0048689511604607105 -0.4430575966835022 -0.17482608556747437 0.1310262382030487 0.05853469669818878 -0.22100931406021118 0.31821441650390625 -0.42768335342407227 -0.08467897027730942 0.33709287643432617 0.14241109788417816 0.018256617709994316 0.6054461002349854 -0.40178942680358887 0.7810431122779846 -0.29952895641326904 -0.24854232370853424 0.0826164186000824 -0.40864285826683044
haul -0.10934179276227951 0.47450828552246094 0.23918098211288452 0.2623550295829773 0.3602428734302521 0.4200730621814728 0.09956386685371399 0.2589973211288452 -0.31618231534957886 0.12813152372837067 -0.09671352803707123 0.1850491613149643 0.21534457802772522 0.4840686619281769 -0.14554457366466522 -0.09301723539829254 0.47240668535232544 -0.3741760551929474 -0.3986540138721466 -0.30239006876945496
photomask -0.03498164191842079 0.15322600305080414 0.03925327956676483 -0.03583288565278053 0.013651641085743904 0.16491855680942535 -0.03618822991847992 -0.09854884445667267 -0.21295809745788574 0.17942464351654053 0.2675885856151581 0.16734710335731506 0.20074690878391266 0.1833423227071762 -0.16474637389183044 0.1448652744293213 -0.0387900285422802 -0.2595747113227844 -0.009688742458820343 0.0135132921859622
quilt 0.09624838829040527 -0.04672815650701523 0.05820247158408165 0.12578170001506805 -0.0651596412062645 0.20270365476608276 -0.05483170598745346 0.01971743069589138 -0.017704959958791733 0.07682204991579056 0.09545566886663437 0.10718636214733124 -0.12409241497516632 -0.0046920389868319035 -0.033493079245090485 0.05193013697862625 -0.0931808352470398 0.024615110829472542 0.07860040664672852 -0.08198476582765579
polymerize -0.020240887999534607 -0.012349165976047516 -0.009446405805647373 -0.008367465808987617 0.01178544107824564 -0.004919557832181454 -0.014414205215871334 -0.011660420335829258 -0.02228657901287079 0.02129845693707466 0.02808695286512375 0.023193785920739174 2.3996547679416835E-4 -0.0035050692968070507 -0.018561623990535736 0.005446138326078653 -0.005403431598097086 -0.007146309595555067 0.012469876557588577 0.012113364413380623
peel 0.6100006103515625 -0.30633699893951416 -0.17241092026233673 0.7519010305404663 -0.08638234436511993 0.5155495405197144 0.6575273275375366 0.6537685990333557 -0.35257688164711 0.39055514335632324 0.3892318904399872 0.4083651304244995 0.190115287899971 0.19161656498908997 0.26458704471588135 0.6432332992553711 0.031891945749521255 0.048367373645305634 -0.27287450432777405 -0.1611676663160324
peen 0.20242144167423248 -0.2552488148212433 -0.2376083880662918 0.4152364432811737 -0.1168166920542717 0.13958589732646942 0.0935562402009964 0.2587316632270813 -0.2876007854938507 0.11892848461866379 0.3650800585746765 0.4092372953891754 -0.07009558379650116 0.2032594531774521 0.08650223910808563 0.31446129083633423 0.09152929484844208 0.11374835669994354 0.13108962774276733 0.009411873295903206
hydrate -0.2848767042160034 -0.263921856880188 -0.5405445694923401 -0.44827064871788025 0.09325520694255829 0.08144285529851913 0.08887013792991638 0.46391546726226807 -0.20277497172355652 -0.07376927137374878 0.3134935200214386 0.5620163083076477 -0.025467701256275177 0.8992813229560852 0.2064915895462036 0.6690449714660645 -0.5623167753219604 0.04210707172751427 -0.07166095823049545 0.28891587257385254
produce -0.054082635790109634 -0.07721135020256042 -0.15196262300014496 -0.01878427155315876 0.18389180302619934 0.40812796354293823 0.004357281140983105 0.0700487419962883 -0.390741765499115 -0.32678940892219543 0.3219306766986847 0.22802315652370453 0.06860686093568802 -0.04910648614168167 -0.5220469832420349 0.45818203687667847 -0.19083762168884277 -0.33419954776763916 -0.044324152171611786 -0.13481491804122925
disable 0.019195429980754852 0.3933493196964264 -0.13580049574375153 -0.2598651051521301 0.4855651259422302 0.4851875603199005 -0.2683022916316986 0.011801217682659626 0.3880680501461029 -0.23023362457752228 -0.151307612657547 -0.4403440058231354 0.5704359412193298 -0.08783995360136032 0.4216020405292511 0.6569003462791443 0.18183057010173798 -0.4864203929901123 0.4433883726596832 0.11384360492229462
ravel 0.02484556846320629 0.021093260496854782 0.023776939138770103 0.016056589782238007 0.012437704019248486 -0.0036611331161111593 0.016880979761481285 -0.023249691352248192 -0.021708784624934196 1.744931360008195E-4 0.01181431021541357 0.009560269303619862 -0.004574482329189777 -0.011609246954321861 0.015430087223649025 0.022799406200647354 -0.014586708508431911 0.007728237193077803 0.02618461474776268 0.0135153504088521
infect -0.02000521682202816 -0.08774376660585403 0.1622568666934967 0.055733904242515564 0.05303269624710083 -0.06996931880712509 0.102136991918087 0.011729443445801735 -0.01438668929040432 0.0302931759506464 0.05304015055298805 -0.0590193048119545 0.0266265831887722 0.05874403566122055 0.07969757169485092 0.06002106890082359 0.07755783945322037 0.034372877329587936 0.1656612753868103 0.049135733395814896
pleat 0.38964512944221497 -0.4390842616558075 -0.17032313346862793 0.04735637828707695 0.06982661038637161 0.09500108659267426 0.22024036943912506 0.19889625906944275 -0.04986343905329704 0.26993682980537415 0.5840098261833191 0.2991129159927368 -0.2625010013580322 0.4239889085292816 -4.1814433643594384E-5 0.34354671835899353 -0.02683599852025509 0.3976171612739563 0.10141921043395996 -0.11585736274719238
infiltrate -0.05552036687731743 -0.03635276108980179 -0.12578491866588593 -0.017937621101737022 0.06971359997987747 -0.017958195880055428 0.009780321270227432 0.03729594498872757 -0.06207125261425972 -0.03979375958442688 -0.007300535216927528 0.0801011249423027 -0.047911886125802994 0.07566619664430618 0.009806953370571136 0.1026078388094902 -0.12792930006980896 0.034800637513399124 0.00885681714862585 0.12667247653007507
prohibit -0.012048409320414066 0.348787397146225 0.1235848218202591 -0.23116560280323029 0.5457446575164795 0.17590756714344025 0.07303179800510406 -0.1335558295249939 0.3745017647743225 -0.1283751130104065 -0.497076153755188 -0.12981320917606354 0.16488270461559296 -0.347362756729126 0.5564104318618774 0.26754599809646606 0.21771560609340668 -0.3133326768875122 0.4701436758041382 0.31107786297798157
fuel -0.1416294276714325 0.09527458250522614 0.046680744737386703 -0.3472476601600647 -0.18862244486808777 -0.5789933800697327 0.19670137763023376 -0.8019512891769409 -0.35822242498397827 -0.10707897692918777 0.20098797976970673 0.2989646792411804 -0.27073946595191956 -0.2435845583677292 -0.2518220841884613 0.6631107330322266 0.011728989891707897 -1.1172314882278442 -0.05724001303315163 0.1723729968070984
spool -0.03452647104859352 0.5985350608825684 0.3765127658843994 -0.2804713547229767 0.2995947301387787 -0.028930243104696274 -0.056286703795194626 0.08045624941587448 -0.24718767404556274 0.5070847272872925 0.05283468961715698 0.23313389718532562 0.17222268879413605 -0.54695725440979 0.00240574823692441 -0.8806019425392151 -0.019491076469421387 -0.19379760324954987 0.06457919627428055 0.23246313631534576
associate 0.1492064893245697 -0.1329047828912735 0.005589500069618225 -0.020922645926475525 0.08902270346879959 0.297855943441391 -0.19649939239025116 -0.10917478799819946 -0.21071237325668335 -0.02123645693063736 -0.26935142278671265 -0.16259293258190155 -0.3237076997756958 -0.17447185516357422 0.19238243997097015 -0.06430283188819885 0.04521217942237854 -0.09086038172245026 0.45262303948402405 0.12295741587877274
bruise -0.022918246686458588 -0.019124239683151245 -0.0045748683623969555 -0.004475219175219536 0.02184675633907318 -0.005332431755959988 -0.007027995306998491 -0.021877087652683258 -0.00549788773059845 -0.02217520959675312 -0.016084173694252968 -0.007059725001454353 -0.024385841563344002 0.006176697090268135 -0.015250627882778645 0.025323621928691864 0.0027130236849188805 0.01919642463326454 -0.00989079475402832 0.011587543413043022
buttress 0.282182902097702 -0.41755086183547974 -0.14838279783725739 0.3651197850704193 -0.09415987133979797 0.16964948177337646 0.03860757499933243 0.12816351652145386 -0.06649749726057053 0.1635439544916153 0.5111575126647949 0.23071607947349548 -0.20532824099063873 0.27782243490219116 0.42825832962989807 -0.14880016446113586 0.5967357754707336 -0.2409374713897705 0.23301668465137482 -0.07100186496973038
lag 0.1349228173494339 0.3503454625606537 -0.09091122448444366 0.020001329481601715 0.36678606271743774 0.34332266449928284 0.6236569285392761 0.14780385792255402 0.18794971704483032 0.0020850503351539373 0.320411741733551 -0.4152458906173706 0.557237446308136 -0.27539584040641785 -0.2763034701347351 0.5015895962715149 0.046867333352565765 -0.38279175758361816 0.15555591881275177 0.028529439121484756
glean 0.023715820163488388 -0.007299400866031647 -0.016034046187996864 0.023936346173286438 -9.8242552485317E-4 0.008227908983826637 0.016316138207912445 0.01101763267070055 -0.008818085305392742 -0.001451626536436379 0.016815083101391792 -0.0013836078578606248 0.00950534362345934 0.020620398223400116 -0.013098672032356262 -0.020378204062581062 -0.009751123376190662 -0.022421162575483322 0.01363802794367075 0.015915097668766975
pin 0.2730207145214081 0.005958491936326027 0.07534538954496384 0.1392161250114441 -0.2326841950416565 0.03376290574669838 -0.24010330438613892 -0.09859633445739746 6.385970627889037E-4 -0.1344689428806305 -0.14741791784763336 -0.1595863550901413 -0.14176182448863983 0.3872005045413971 0.4411427974700928 -0.38036420941352844 0.8156712651252747 -0.20882654190063477 0.45278385281562805 -0.18784493207931519
colorize -0.007451295852661133 -0.02075783908367157 0.017526404932141304 0.011714121326804161 0.008677586913108826 0.004779753275215626 0.004380150232464075 -0.00285669625736773 0.004793135449290276 -0.024191778153181076 -0.023492010310292244 0.022831112146377563 -0.022518830373883247 0.007853114046156406 -0.0020907411817461252 0.017156625166535378 -0.025194188579916954 3.218304773326963E-4 -0.0236021988093853 -0.003909805323928595
spoon 0.08402612060308456 0.021069634705781937 0.05530156195163727 0.05537497252225876 -0.02521474100649357 0.03274339810013771 -0.08392757177352905 -0.010990806855261326 -0.019326327368617058 -0.0456278957426548 0.12371426075696945 0.02101484127342701 -0.06291993707418442 0.09260588139295578 0.1509392261505127 0.0414566695690155 -0.06461901217699051 0.07135161012411118 -0.023244662210345268 -0.049814872443675995
raise -0.2108273208141327 0.09592100977897644 -0.37432247400283813 -0.6736797094345093 -0.09746328741312027 0.3101312816143036 0.3803950548171997 0.39735549688339233 0.031931087374687195 -0.38653209805488586 -0.43941402435302734 0.06365440040826797 0.21571125090122223 0.15820907056331635 0.17067259550094604 0.44184765219688416 -0.044250573962926865 -0.2777738571166992 0.07368355244398117 -0.19466979801654816
pipe 0.15236207842826843 0.09176817536354065 -0.37460780143737793 -0.32185032963752747 0.2584215998649597 -0.4565241038799286 0.18742462992668152 -0.14324957132339478 0.3414207100868225 0.4657989740371704 0.24053137004375458 0.04770837724208832 -0.4052810072898865 0.5565847754478455 -0.18151508271694183 -0.046169839799404144 -0.0914677083492279 0.028334863483905792 -0.12391183525323868 0.2510206997394562
pit 0.25351330637931824 -0.2086445391178131 0.08666782826185226 -0.11620745062828064 0.0886622816324234 0.14035391807556152 -0.5493364930152893 -0.2221795916557312 -0.35849347710609436 -0.1990492194890976 0.4925963282585144 0.24581804871559143 0.07980575412511826 0.8248302936553955 0.42165684700012207 0.7209687232971191 0.023791804909706116 0.008713511750102043 -0.004580020438879728 0.2717178761959076
lap 0.058030981570482254 -0.31311023235321045 -0.9619050025939941 0.732478141784668 0.10579527914524078 0.3288241922855377 -0.03432439640164375 0.18516254425048828 0.013962368480861187 0.23754824697971344 0.4506140649318695 0.20814810693264008 -0.4955931305885315 0.2894039750099182 0.30895566940307617 0.09489241242408752 0.12885703146457672 -0.22082744538784027 0.1113307774066925 -0.33579930663108826
stock 0.28617268800735474 -0.03198268637061119 -0.5216556191444397 0.030802443623542786 -0.390064001083374 -0.3016189932823181 -0.27381086349487305 0.3347685933113098 -0.39608803391456604 -0.07488729804754257 0.28806930780410767 0.10554339736700058 -0.10948647558689117 0.5832729935646057 0.8123399019241333 -0.030477065593004227 0.4938778579235077 -0.21134375035762787 -0.44535738229751587 -0.4195335805416107
suspend -0.0037442354951053858 0.33432555198669434 0.00782101508229971 -0.23041874170303345 -0.08729325234889984 0.3255402147769928 0.10648993402719498 0.15343494713306427 -0.15285776555538177 0.17869526147842407 0.0047244424931705 -0.4145379960536957 -0.3942033648490906 0.5531718730926514 0.1715969741344452 0.012374874204397202 0.09419452399015427 0.0447792187333107 -0.1730067878961563 -0.07767827808856964
surge 0.23108895123004913 0.19170978665351868 0.05783340707421303 -0.4589606523513794 0.22658216953277588 0.09457340091466904 0.3281686305999756 -0.332447350025177 0.30397143959999084 0.6711676716804504 -0.1411716192960739 0.3585920035839081 0.46952012181282043 -0.2204085886478424 0.2845042645931244 0.3760462999343872 -0.23982064425945282 -0.6658679246902466 -0.04648639261722565 0.444747656583786
swap 0.0160157959908247 -0.0108308345079422 0.00779139855876565 -0.012150836177170277 0.017551396042108536 0.028420506045222282 -0.0103474585339427 -0.01800321787595749 -0.01020501647144556 -0.006093928590416908 -0.004953125957399607 -0.0219318438321352 0.03035610541701317 0.02472371608018875 -5.720161134377122E-4 -0.01767720840871334 0.004362766165286303 0.01922791823744774 -0.006448624189943075 0.013634750619530678
dispense -0.00443022046238184 0.14452533423900604 -0.11899954825639725 -0.06136336177587509 0.2643701434135437 0.003302932484075427 0.015390501357614994 -0.021406423300504684 -0.05480387806892395 0.15194545686244965 0.07029556483030319 0.24472643435001373 -0.009681022725999355 0.01342781726270914 0.007848760113120079 -0.12984050810337067 -0.023831937462091446 -0.5272033214569092 0.08142799139022827 -0.14658473432064056
hatch 0.46707117557525635 0.5444872975349426 0.0890989676117897 -0.2988130748271942 0.5842132568359375 -0.16763146221637726 -0.33251723647117615 0.46281155943870544 -0.07675043493509293 0.2241826206445694 -0.04916291683912277 -0.6895496845245361 -0.18542025983333588 0.549041211605072 0.6434495449066162 0.27507179975509644 0.4968247711658478 0.4339773952960968 0.27771952748298645 -0.096672922372818
sway 0.052104707807302475 0.22307780385017395 0.20451106131076813 -0.07447550445795059 -0.24236620962619781 0.271541029214859 0.14620640873908997 0.1442990005016327 -0.2154814749956131 0.19795846939086914 -0.2810828685760498 -0.15820279717445374 -0.0024553551338613033 0.13211829960346222 0.10497885197401047 -0.06792283058166504 0.14387927949428558 -0.22110196948051453 0.11386242508888245 -0.002826617332175374
revert 0.03948020562529564 0.25446322560310364 -0.22745825350284576 -0.09611097723245621 0.029086146503686905 0.362351655960083 -0.01094780769199133 0.11068210005760193 0.05616673827171326 -0.17860065400600433 -0.3849000334739685 -0.1122465655207634 0.07344992458820343 -0.13512873649597168 0.37895819544792175 0.21337488293647766 0.17127443850040436 -0.7516133785247803 0.13049909472465515 -0.12415196746587753
gasket 0.4311497211456299 -0.613723635673523 0.057895805686712265 0.5645895004272461 0.09035757184028625 -0.7686029672622681 0.13956430554389954 0.0902877002954483 -0.18528901040554047 0.5164340734481812 0.10596878081560135 0.04356572777032852 -0.3457448184490204 0.13308106362819672 0.20967800915241241 0.10912938416004181 0.24681562185287476 0.2952699065208435 0.2716982066631317 0.8974217772483826
reconcile 0.002853642450645566 -0.005451154429465532 0.014338292181491852 0.003152563702315092 0.014516778290271759 0.005998703651130199 0.011445344425737858 0.014690329320728779 0.020275510847568512 0.0055685946717858315 0.0033051471691578627 -0.025997649878263474 0.0256379172205925 0.010587088763713837 0.016322806477546692 -7.075095782056451E-4 -0.0028080760966986418 -0.0021903077140450478 0.02459651231765747 0.009995975531637669
quantify 0.015931617468595505 -0.021734969690442085 0.015933461487293243 0.013109322637319565 -0.011150293052196503 0.022697055712342262 0.01620136946439743 0.013686350546777248 0.021635377779603004 -0.022914042696356773 0.025519507005810738 0.0015851040370762348 -0.005086905788630247 -0.022345565259456635 -0.006756636779755354 0.029113195836544037 0.0020115890074521303 -0.02460605651140213 0.012010634876787663 0.008490176871418953
condition -0.22382353246212006 0.29663071036338806 -0.3636009991168976 -0.1490502506494522 0.38658371567726135 0.19049011170864105 -0.015879515558481216 -0.41080600023269653 0.0010845102369785309 -0.021917153149843216 -0.08596011996269226 -0.33440473675727844 0.4475606679916382 -0.19518263638019562 -0.00207776902243495 0.36657294631004333 -0.0891861543059349 -0.3384406864643097 0.1686866581439972 0.10060696303844452
roughen -0.013904632069170475 -0.6558625102043152 0.007340059150010347 0.6114545464515686 -0.4404410421848297 0.2979431450366974 0.04704198241233826 0.3171534240245819 -0.06479299813508987 0.3153376877307892 0.5042897462844849 0.6870567202568054 0.05966726318001747 0.39869484305381775 -0.1545604020357132 0.5221483111381531 -0.01780363731086254 0.11323299258947372 0.28181248903274536 0.07974379509687424
reciprocate 0.010393010452389717 0.27953216433525085 0.2870883345603943 -0.38478177785873413 -0.6897022724151611 -0.008894942700862885 -0.14109572768211365 0.19977232813835144 -0.4219629466533661 -0.1470465362071991 -0.18657800555229187 0.3920857012271881 0.44125896692276 -0.0046877022832632065 -0.2359810471534729 -0.8903592824935913 0.16333001852035522 -0.4909994304180145 0.5619356036186218 -0.15009957551956177
swab 0.015493392944335938 -0.00554549228399992 -0.025873912498354912 0.08810984343290329 -0.11907670646905899 -0.012636243365705013 -0.02795722521841526 0.06590446084737778 0.06395550072193146 0.09602578729391098 -0.045395929366350174 0.06645140051841736 0.030346106737852097 0.001995676662772894 0.07057542353868484 0.0678238794207573 -0.01607351191341877 -0.05177000164985657 -0.005945241078734398 0.13473425805568695
improve 0.01584792509675026 -0.5824049711227417 0.08273544907569885 0.0038481997326016426 0.0810050293803215 0.510726273059845 0.2814856767654419 -0.2696510851383209 0.14667141437530518 -0.0744980126619339 -0.006956308148801327 0.15027834475040436 0.03492612764239311 0.04343103617429733 0.1603991687297821 0.66798996925354 -0.11808320879936218 -0.33650943636894226 -0.18228255212306976 0.279837042093277
try -0.11893253028392792 0.030235890299081802 0.05772203207015991 -0.26801490783691406 0.10703564435243607 -0.06348416209220886 0.1861926168203354 0.2872058153152466 -0.28748977184295654 -0.09442128986120224 -0.030089395120739937 0.008230714127421379 -0.0012014188105240464 -0.0379837304353714 0.009689802303910255 0.05007942393422127 -0.1023569405078888 -0.1501682996749878 0.34713661670684814 0.05064105987548828
twist 0.5031877756118774 0.20916947722434998 0.10081968456506729 0.5725115537643433 0.31688952445983887 0.42980384826660156 0.47561049461364746 -0.06106046959757805 -0.09530410915613174 -0.06361754983663559 0.044575273990631104 0.3723464906215668 -0.2493278682231903 0.1597777158021927 0.22437737882137299 -0.17741459608078003 0.3327867090702057 -0.2487410455942154 0.313640296459198 -0.3668326437473297
speckle 0.011591942049562931 -0.003699262160807848 0.00851347204297781 0.02534184604883194 -0.0014364022063091397 0.013758894987404346 0.01659158617258072 0.013497010804712772 0.01454254612326622 0.0037374347448349 0.011729770340025425 -0.006351141259074211 0.014276165515184402 -0.0077466173097491264 -0.007661294657737017 0.011935158632695675 -0.016764502972364426 0.024499112740159035 -0.003476889804005623 0.00606521824374795
emanate 0.08068051934242249 -0.04021954536437988 0.06831143796443939 -0.04018137976527214 0.01779066026210785 0.21626213192939758 0.16526615619659424 -0.07037517428398132 0.07870839536190033 -0.09730389714241028 0.29501092433929443 0.07501973956823349 -0.321300745010376 -0.2013901323080063 0.020902754738926888 0.03361530229449272 -0.14288967847824097 -0.23968605697155 -0.0958855003118515 -0.21399100124835968
irradiate -0.03166263550519943 -0.1512451022863388 0.07448376715183258 -0.1111997589468956 0.155325248837471 0.17480483651161194 -0.09460733085870743 0.008393709547817707 -0.15413813292980194 0.006377336569130421 0.12747809290885925 -0.05519116669893265 -0.13075341284275055 0.04136189818382263 -0.32729700207710266 0.2697960436344147 -0.2120698094367981 -0.07406924664974213 0.10731058567762375 0.042999766767024994
locate 0.007657978218048811 0.06459910422563553 0.2766379415988922 0.22954115271568298 0.21483425796031952 0.3863380253314972 -0.37176135182380676 0.3573186695575714 0.3582833409309387 0.3690996766090393 0.23230724036693573 -0.1799827218055725 -0.10020685940980911 -0.004589793272316456 0.7195566296577454 0.1594262421131134 0.547911524772644 -0.16668261587619781 0.3306122124195099 -0.030576180666685104
unite 0.23022547364234924 -0.21771514415740967 -0.13827596604824066 0.39297810196876526 0.013291341252624989 0.17482014000415802 0.40678033232688904 0.2552427649497986 -0.07644770294427872 0.4556126296520233 0.314898818731308 0.16076891124248505 -0.20913700759410858 0.5073860883712769 0.5286667346954346 0.22518901526927948 -0.02368908002972603 0.07868131995201111 0.23244203627109528 -0.022061903029680252
chatter 0.10692538321018219 0.07104071229696274 0.1103673130273819 0.43190377950668335 0.0767233669757843 0.5828641057014465 0.0985916256904602 -0.12165229022502899 0.003463342087343335 0.38470131158828735 -0.6209349036216736 0.08946368843317032 0.6815110445022583 0.4036416709423065 0.49590060114860535 0.8662459254264832 -0.12352747470140457 -0.4421504735946655 0.17456479370594025 0.03084973432123661
sandblast 0.02482495829463005 -0.14079327881336212 -0.08904629200696945 0.23045915365219116 -0.1698753386735916 -0.05438947305083275 0.0822397768497467 -0.09429460018873215 -0.015280359424650669 -0.009525705128908157 -0.02362966723740101 0.26916584372520447 0.05540156364440918 0.19717489182949066 0.05106591805815697 0.07560577243566513 -4.7230347990989685E-4 0.1042860671877861 0.05923101678490639 0.2100757509469986
aspirate 0.2965843379497528 -0.08298734575510025 0.3636491894721985 -0.5147702097892761 -0.4470086991786957 -0.09459034353494644 0.17373958230018616 0.15052933990955353 -0.5535854697227478 -0.18441973626613617 0.1328703761100769 0.3195064067840576 0.06925547868013382 0.013670104555785656 -0.1436517983675003 0.2445870190858841 -0.053608667105436325 -0.3299639821052551 0.023628372699022293 -0.22415286302566528
wound 0.9235212206840515 0.3912062644958496 -0.5605385303497314 0.9560009241104126 0.48282864689826965 0.25057315826416016 0.6261698603630066 -0.3442397117614746 -0.5416448712348938 -0.04933299869298935 0.3383552134037018 0.1302620768547058 -0.4677891135215759 0.4451713263988495 -0.16075296700000763 -0.6470773816108704 -0.2195797860622406 -0.04544200748205185 0.19023922085762024 0.18289124965667725
pursue 0.03555488586425781 -0.12902222573757172 0.025390014052391052 -0.08581151813268661 0.09249111264944077 0.023837706074118614 0.1995261013507843 0.02241734229028225 -0.05098904296755791 0.048479337245225906 0.15009775757789612 0.09665482491254807 -0.01732836849987507 0.1288066804409027 -0.04448667913675308 0.29176366329193115 0.04800675809383392 0.06613695621490479 0.018665773794054985 -0.07332009077072144
convey -0.03103009983897209 -0.029974689707159996 -0.31211963295936584 -0.5300971865653992 0.22433148324489594 0.04008490592241287 -0.15800319612026215 0.2222525179386139 -0.24569222331047058 -0.08885006606578827 0.21955254673957825 0.5238460898399353 -0.26033422350883484 0.13275261223316193 -0.16985855996608734 -0.3053164482116699 -0.339465469121933 -0.14721783995628357 -0.296007364988327 -0.15214255452156067
flux 0.38077762722969055 0.3220154047012329 -0.2965558171272278 0.3902417719364166 0.1690908670425415 0.5525979995727539 0.3441963195800781 -0.35155680775642395 -0.4322063624858856 -0.39614877104759216 0.34051188826560974 -0.031034843996167183 -0.3227859437465668 -0.09139872342348099 -0.20242469012737274 -0.13220009207725525 -0.6558293104171753 -0.010678940452635288 0.45564359426498413 -0.022776305675506592
contaminate -0.010931555181741714 0.12374424189329147 -0.12419944256544113 -0.1915576159954071 0.3733237087726593 0.09260585159063339 -0.15818160772323608 -0.1088467389345169 -0.04416780546307564 -0.00176815886516124 0.039648205041885376 0.4425984025001526 -0.06060635671019554 0.30785900354385376 0.17850157618522644 0.4700487554073334 -0.3856844902038574 -0.34616589546203613 0.06901800632476807 0.32277876138687134
burn 0.2659848630428314 -0.38270342350006104 0.36519554257392883 -0.5738859176635742 0.0012187999673187733 -0.3074774146080017 0.12252942472696304 0.3623496890068054 -0.463689923286438 -0.587837815284729 0.5740659236907959 0.0012311117025092244 0.19385486841201782 0.011500515043735504 -0.14486928284168243 1.0269790887832642 -0.2211432158946991 -0.7486852407455444 -0.28137147426605225 -0.0692160427570343
filtrate -0.10593143105506897 -0.11571007966995239 0.11323411762714386 -0.2524908483028412 0.044284868985414505 -0.1604786515235901 -0.06043757125735283 -0.0023915558122098446 0.03759137913584709 0.06904100626707077 -0.08314745128154755 0.22271588444709778 0.06992913782596588 0.1616997867822647 -0.23002928495407104 0.04815170168876648 -0.22955942153930664 0.10039892792701721 -0.08125580102205276 6.68881693854928E-5
probe 0.051543042063713074 0.358467698097229 -0.13356466591358185 -0.1014569103717804 0.2956957519054413 -0.17266005277633667 0.011811967939138412 -0.2645478844642639 0.22534041106700897 0.006765324156731367 0.19962072372436523 -0.4289437532424927 -0.3169960081577301 -0.0020890068262815475 -0.11678864061832428 0.4009858965873718 0.037717629224061966 -0.32087355852127075 0.24312260746955872 0.25775277614593506
inflate 0.05736813321709633 0.2376440316438675 -0.005680094938725233 -0.36214736104011536 -0.08521555364131927 0.3872184157371521 0.30342671275138855 0.48158907890319824 -0.23837217688560486 -0.1489531695842743 -0.18240365386009216 0.15423333644866943 -0.08235085755586624 -0.09839621931314468 -0.011717998422682285 0.3990727663040161 -0.1358250379562378 -0.19615410268306732 0.5223571062088013 0.182901069521904
conduct 0.17487233877182007 0.1608501672744751 -0.35750216245651245 0.3028983771800995 0.14441144466400146 0.1268044263124466 0.04683360457420349 -0.2007167637348175 -0.0640631839632988 -0.031098773702979088 0.30141836404800415 -0.10366298258304596 -0.39959245920181274 0.4969831109046936 -0.17737001180648804 0.2152637541294098 -0.6295771598815918 0.2865969240665436 0.18788161873817444 0.24971960484981537
bury 0.023804478347301483 0.002114508766680956 0.02096361108124256 -0.0031342466827481985 0.0035206996835768223 0.0033447030000388622 0.022797750309109688 -0.012355729006230831 -0.028352636843919754 0.012638701125979424 0.008985070511698723 0.014066529460251331 -0.021267510950565338 0.01917864754796028 -0.00817036908119917 -0.012561379000544548 -0.003227840643376112 -0.017491692677140236 0.014267319813370705 0.013104735873639584
harness 0.5402008295059204 0.21927489340305328 -0.08258324861526489 0.34377700090408325 0.3415473997592926 0.1254347413778305 -0.2025446593761444 -0.09447203576564789 -0.27446675300598145 0.12369845062494278 -0.2322685569524765 -0.5357474684715271 -0.56443852186203 0.6762649416923523 0.1593295931816101 -0.23696404695510864 0.29351457953453064 -0.4444643259048462 0.07821349799633026 -0.33891764283180237
grapple 0.06068934500217438 0.034168340265750885 0.01026709470897913 -0.06593385338783264 0.06244233623147011 0.37997356057167053 0.05935549736022949 -0.0705312117934227 -0.25641345977783203 0.2969397008419037 0.29667168855667114 0.09834536164999008 -0.29572588205337524 0.43253299593925476 0.4474412798881531 -0.3266139328479767 0.18151845037937164 -0.1891791671514511 0.2077975571155548 -0.42729634046554565
respond 0.04441537708044052 0.5658044815063477 -0.33488136529922485 -0.11735544353723526 0.3662222623825073 0.36030903458595276 -0.11041941493749619 -0.29482710361480713 0.11890172213315964 0.04162975400686264 -0.04835773631930351 -0.14564603567123413 0.5146865248680115 -0.39417898654937744 0.028804011642932892 0.28431057929992676 -0.1697106957435608 -0.36421042680740356 0.2367616593837738 0.28854161500930786
ply 0.6586257219314575 -0.14604245126247406 -0.7953463792800903 1.1451987028121948 0.15480639040470123 0.503644585609436 0.497583270072937 0.07861406356096268 -0.33038249611854553 0.043598026037216187 0.7477661967277527 0.14220616221427917 -0.3104797303676605 0.49872520565986633 0.41633060574531555 0.010476453229784966 -0.17634139955043793 0.21262574195861816 0.06307419389486313 0.13099588453769684
wall 0.15864697098731995 -0.16400523483753204 0.016559746116399765 -0.06650523841381073 -0.27389293909072876 -0.14965762197971344 -0.08684540539979935 -0.10866616666316986 0.06782010197639465 0.30859342217445374 0.18692874908447266 0.09952486306428909 -0.5136038064956665 0.12214138358831406 -0.13740047812461853 -0.007155252154916525 -0.07959035038948059 0.3397287428379059 0.4717777669429779 -0.15993480384349823
cluster 0.32097476720809937 0.2814132869243622 0.26944589614868164 0.31636321544647217 -0.019955255091190338 0.4156690835952759 -0.4685194194316864 0.10681809484958649 -0.16081903874874115 0.1066618487238884 0.6704716086387634 0.008566871285438538 0.030915850773453712 0.14498651027679443 -0.2640533149242401 0.00970279797911644 -0.18058250844478607 -0.4900180697441101 -0.09567297250032425 -0.5136542916297913
tug 0.03726410120725632 -0.0570816770195961 -0.2309369146823883 0.04306071996688843 -0.17999139428138733 0.7213464975357056 0.4243118464946747 0.17771169543266296 -0.25018343329429626 0.20527082681655884 0.12690861523151398 0.19051295518875122 0.01982598938047886 -0.22239404916763306 0.14817190170288086 0.2152489423751831 0.3328363001346588 -0.46588873863220215 0.16526035964488983 -0.13823243975639343
decay 0.28199470043182373 0.5647741556167603 -0.4812701344490051 0.13124561309814453 0.5124267339706421 0.33816811442375183 0.2570100426673889 -0.28746119141578674 0.013415309600532055 0.05081205442547798 -0.08000048249959946 -0.28668326139450073 0.10148271173238754 -0.33996954560279846 0.324401319026947 0.6885284781455994 -0.4460484981536865 -0.4539937973022461 0.08849913626909256 0.2936080992221832
absorb -0.06775372475385666 0.3028050363063812 -0.040769580751657486 -0.019757458940148354 -0.6183056235313416 0.626798689365387 0.4904979169368744 0.26389023661613464 -0.37920230627059937 0.2616528570652008 -0.4655415415763855 0.03192870318889618 -0.2616715729236603 0.4530384838581085 -0.25221189856529236 0.5160677433013916 -0.48013871908187866 0.04647468402981758 -0.10225944966077805 0.11648394167423248
weatherproof 0.10202179104089737 -0.037832580506801605 -0.4760091006755829 0.2277778685092926 0.38606196641921997 -0.1450209766626358 -0.136847123503685 0.2655755281448364 -0.11255088448524475 0.08055507391691208 0.16202138364315033 0.008097272366285324 -0.1444176435470581 0.4323999285697937 0.22095032036304474 0.004391989670693874 0.005749820731580257 -0.13600561022758484 0.11012977361679077 -0.11216176301240921
induct 0.5012885928153992 0.15268947184085846 -0.24187351763248444 -0.12920105457305908 0.1700378805398941 -0.260035902261734 0.4720267355442047 -0.41800370812416077 -0.20639081299304962 -0.3336593508720398 0.3930038809776306 -0.04348421469330788 -0.0042719789780676365 -0.15353447198867798 -0.0787043422460556 -0.04343825578689575 -0.5282987952232361 -0.545829713344574 -0.14788194000720978 0.4171002209186554
supply -0.13784776628017426 0.32029852271080017 0.2682730257511139 -0.3201087415218353 0.5566606521606445 -0.296538770198822 0.007135791704058647 -0.24690663814544678 0.20470654964447021 0.03804725036025047 0.16027136147022247 0.054040759801864624 -0.14293788373470306 0.09723970293998718 -0.39526674151420593 -0.05274605378508568 -0.27702346444129944 -0.5587778687477112 -0.11534293740987778 0.1586865931749344
circulate -0.2369697540998459 -0.09351933002471924 0.020346641540527344 -0.6980454921722412 0.2712845504283905 0.0967688038945198 -0.06007102131843567 0.11623954027891159 -0.0915054902434349 0.3221466839313507 -0.17573589086532593 0.6790146231651306 0.00888854917138815 0.2266545444726944 -0.218059703707695 0.06699871271848679 -0.7085168361663818 0.02344912476837635 0.03996763750910759 -0.43565014004707336
fracture 0.45125067234039307 0.3388049602508545 0.041108399629592896 0.49722468852996826 -0.3394102454185486 0.485803484916687 0.6604956984519958 0.6480628252029419 0.05849786102771759 0.3252389430999756 -0.2099023014307022 0.9322964549064636 0.013666990213096142 0.028156444430351257 0.5464913845062256 0.5369685888290405 0.13885465264320374 -0.6507810354232788 -0.2931174635887146 -0.047453247010707855
incubate 0.02449604496359825 0.021413128823041916 0.020752934738993645 -0.01202878262847662 -0.009510974399745464 -0.02406322956085205 -0.01547732949256897 0.0073751481249928474 0.019231492653489113 0.0021959401201456785 0.017022209241986275 0.011274146847426891 -0.022914575412869453 -0.017607152462005615 0.020842738449573517 0.01780814863741398 -0.022497760131955147 -0.0020149811170995235 0.003466652473434806 0.0034560675267130136
rectify -0.015660298988223076 -0.11394446343183517 0.022723663598299026 -0.11107441782951355 0.035309601575136185 0.08012371510267258 -0.034057822078466415 0.011787575669586658 -0.13666222989559174 -0.009658407419919968 -0.10307551920413971 0.17984184622764587 -0.1732068657875061 0.05757209286093712 0.05720596760511398 0.2671675980091095 -0.08712568879127502 -0.06220896542072296 0.1200300082564354 0.042293697595596313
lessen 0.22772923111915588 -0.037484310567379 0.024575229734182358 -0.13689421117305756 0.09896325320005417 0.48015058040618896 0.6598778963088989 0.02432391233742237 -0.13151481747627258 -0.08958001434803009 -0.06742328405380249 0.47815197706222534 0.018398378044366837 0.01396389864385128 0.3376171290874481 0.658564567565918 -0.38448911905288696 -0.4251123368740082 -0.14177605509757996 0.10963307321071625
merge 0.37578487396240234 -0.2340763807296753 -0.1384853571653366 -0.3529299199581146 -0.4554651975631714 0.03243546560406685 0.012874573469161987 0.11930517107248306 0.45649781823158264 -0.14632439613342285 0.3839208781719208 0.5554708242416382 -0.6339902281761169 -0.4680418372154236 0.2481618970632553 -0.12439483404159546 0.05099732056260109 -0.20401740074157715 0.30439382791519165 -0.14373376965522766
snug 0.19080744683742523 -0.49855175614356995 -0.004227370489388704 0.8421384692192078 0.2176034301519394 -0.21749930083751678 -0.3474307954311371 0.4442417025566101 0.20891369879245758 0.30958107113838196 -0.0690552368760109 0.3260924816131592 -0.32132473587989807 0.05394947901368141 0.3020389974117279 -0.13773299753665924 0.6008947491645813 -0.09412060678005219 0.7520133256912231 0.08212679624557495
dock -0.2648361027240753 0.2555760145187378 0.0041341823525726795 -0.052976880222558975 0.10246122628450394 0.5168994665145874 -0.11099420487880707 0.33412110805511475 -0.4680995047092438 0.20137552917003632 -0.1418677568435669 -0.14370523393154144 -0.1756393164396286 0.727169394493103 0.2962013781070709 0.016047410666942596 0.5430046319961548 -0.42173686623573303 -0.33039748668670654 -0.3502143323421478
press -0.2040245532989502 -0.07321738451719284 -0.030860837548971176 0.5088274478912354 -0.049859076738357544 0.030802475288510323 0.13298876583576202 0.4269869923591614 -0.46506160497665405 0.1769467294216156 0.1347179114818573 0.07353507727384567 0.09313905984163284 0.010780361481010914 0.017603296786546707 -0.3328183591365814 0.4488944411277771 0.15890458226203918 0.47585779428482056 0.23483125865459442
drift -0.05856453254818916 0.18309327960014343 -0.020879780873656273 -0.09915171563625336 0.5490429401397705 0.5878928303718567 0.05832095444202423 -0.05820281803607941 -0.13976240158081055 0.10089965909719467 -0.2866457402706146 -0.0025261796545237303 0.05699526146054268 -0.37870481610298157 0.4030570685863495 0.579243540763855 0.26787373423576355 -0.3514549434185028 0.03188023343682289 -0.20572996139526367
pace 0.0684695914387703 -0.0775613859295845 0.007520434912294149 0.08004818856716156 0.02932654321193695 0.0753762349486351 -0.19923162460327148 0.052313368767499924 -0.08254032582044601 0.14574119448661804 0.2235438972711563 0.12809525430202484 -0.005414741113781929 0.0010330227669328451 0.21569685637950897 -0.06635436415672302 0.0936136320233345 -0.07544921338558197 0.20266498625278473 -0.0421222448348999
impregnate 0.12116782367229462 -0.10191543400287628 -0.16643494367599487 0.33890002965927124 -0.11494474112987518 0.007515882607549429 0.17506296932697296 0.26553863286972046 -0.21090544760227203 0.009047220461070538 0.35586339235305786 0.21917885541915894 0.0726192370057106 0.46539270877838135 0.48544520139694214 0.3759051561355591 -0.23803499341011047 0.1430886685848236 0.2195909023284912 0.2692980170249939
pigment 0.21797582507133484 0.3788788318634033 -0.2782495617866516 0.6772744655609131 -0.5380973219871521 0.45007696747779846 -0.19637718796730042 0.48948243260383606 -0.7861603498458862 -0.0057060932740569115 1.3444470167160034 0.19502130150794983 0.3934801518917084 0.5604375600814819 0.12571579217910767 0.9686837196350098 -0.45510536432266235 0.5542166233062744 -0.5766485333442688 0.3030886650085449
mute -0.058615073561668396 -0.03153675049543381 -0.06369537115097046 -0.03915970399975777 -0.04993143305182457 0.25036704540252686 0.08757025748491287 -0.009502112865447998 0.1341874599456787 0.02891913615167141 0.13378320634365082 0.17707155644893646 0.10335873067378998 -0.27992504835128784 0.22395892441272736 0.12309876829385757 0.1086239293217659 -0.06818246841430664 0.0986831858754158 -0.1041344627737999
forecast -0.02560301683843136 0.17165744304656982 -0.2610701322555542 2.0189699716866016E-4 0.10074415802955627 0.09902898967266083 -0.0367593877017498 -0.1101004034280777 -0.01496210228651762 0.06872829049825668 0.02265961654484272 -0.1268060952425003 0.11998826265335083 -0.21677450835704803 -0.0434691421687603 0.16384398937225342 -0.023494405671954155 -0.2376442551612854 -0.006208962760865688 0.03064511902630329
deteriorate 0.08013805001974106 0.03686448559165001 0.06745459139347076 -0.00658112857490778 0.14014828205108643 0.1201411634683609 -0.1050955131649971 0.06030704826116562 -0.26238563656806946 0.21683327853679657 -0.04646076261997223 0.11272839456796646 0.08764231204986572 0.27218759059906006 0.031246211379766464 0.5798853635787964 -0.0340130589902401 0.06643276661634445 -0.12145721167325974 0.09259060770273209
recognize 0.11392377316951752 0.2878517508506775 -0.09381521493196487 0.2987501621246338 0.15856225788593292 0.09492620080709457 -0.24910114705562592 0.11788088828325272 -0.03931529447436333 0.03597046062350273 0.06875526905059814 -0.3221646845340729 0.18739962577819824 -0.07546631991863251 -3.3442953281337395E-5 0.4173615276813507 -0.04407510533928871 -0.08720488101243973 -0.03387894853949547 -0.08412227779626846
warehouse 0.049226418137550354 -0.1229606345295906 -0.03554200753569603 -0.20610155165195465 0.005608584266155958 -0.02200840786099434 0.06999488919973373 0.0020889246370643377 -0.1230732724070549 0.07025448232889175 0.022805195301771164 0.02283443510532379 -0.2030898481607437 0.0741104856133461 0.07031287252902985 0.026502270251512527 -0.04842947795987129 0.036158159375190735 0.03057953342795372 -0.06594062596559525
pack -0.18118512630462646 -0.2213284969329834 0.027035977691411972 0.3442920744419098 0.07602233439683914 -0.17020830512046814 -0.13212153315544128 0.3068622350692749 -0.3111291229724884 0.23385612666606903 0.002078406512737274 0.0776219442486763 0.012894921936094761 0.28124549984931946 -0.030261924490332603 0.0021340118255466223 -0.2744019031524658 -0.03330577537417412 0.14465054869651794 0.3263370394706726
input -0.1730090081691742 0.44440558552742004 -0.16675113141536713 0.2847813665866852 0.20676065981388092 0.8269833922386169 -0.6046263575553894 -0.37393659353256226 0.33703508973121643 0.2396721988916397 0.1887960582971573 -0.2819831371307373 0.8393906950950623 0.049448683857917786 -0.8560202121734619 -0.4280294179916382 -0.3710114657878876 -0.6312365531921387 0.17285913228988647 0.09128588438034058
induce 0.4293704628944397 0.2162342667579651 0.03773610666394234 -0.13390997052192688 0.06210872530937195 0.533818781375885 0.822628915309906 -0.3434354364871979 -0.18589657545089722 -0.25752949714660645 0.08980850130319595 0.11878492683172226 -0.12017340958118439 0.005984492599964142 -0.20236216485500336 0.38165798783302307 -0.22567829489707947 -0.04672141373157501 0.2680472135543823 0.10501862317323685
bisect 0.20397859811782837 -0.07298927754163742 0.017326470464468002 0.25122785568237305 -0.44654831290245056 1.1221128702163696 -0.04907514154911041 0.04336213693022728 0.3930974006652832 0.0490451343357563 0.7738928198814392 0.5155615210533142 -0.26481693983078003 -0.14975038170814514 0.44544073939323425 -0.6788043975830078 0.06376451998949051 0.09320895373821259 0.33861666917800903 -0.6215923428535461
sparge 0.03974097967147827 -0.07578474283218384 -0.013819657266139984 -0.035923197865486145 -0.06198561191558838 -0.04967069998383522 -0.05135186389088631 -0.03738149628043175 0.07339155673980713 0.1300847977399826 0.0753421038389206 0.02501681074500084 -0.17941462993621826 0.02789250575006008 -0.0870046317577362 -0.09361892938613892 0.05087249353528023 -0.01677391491830349 -0.05978632718324661 0.008317857049405575
difference -0.4562590718269348 0.2760089635848999 -0.8559306263923645 -0.151126429438591 0.07096512615680695 0.4816150665283203 0.2521525025367737 -0.4497177302837372 0.0998581126332283 0.2130204141139984 0.15352118015289307 -0.17303897440433502 0.5954794883728027 -0.5405401587486267 -0.27626073360443115 0.42106032371520996 0.024291180074214935 -0.19396516680717468 0.13849343359470367 -0.14488844573497772
baffle 0.6427818536758423 -0.30816832184791565 0.5653516054153442 -0.6710891723632812 -0.24970342218875885 -0.029236242175102234 0.02749164216220379 -0.04295521229505539 -0.10362553596496582 0.1772320419549942 0.2240074723958969 0.1133744940161705 -0.2826525568962097 0.11309292912483215 0.023827172815799713 0.3341114819049835 -0.3157671093940735 0.6135616898536682 0.26200661063194275 -0.38216114044189453
circle 0.07323234528303146 -0.1687927097082138 -0.1325937658548355 0.35844361782073975 -0.2833515703678131 0.8279958367347717 0.02755177766084671 -0.09944295883178711 0.31360435485839844 -0.1175965741276741 0.5927295088768005 0.6343531012535095 -0.46848630905151367 -0.23275846242904663 0.3286250829696655 -0.41321489214897156 0.22619889676570892 -0.12771591544151306 0.3006814122200012 -0.41165995597839355
cup -0.18536189198493958 0.03448795899748802 -0.05041364207863808 0.27858802676200867 -0.3610408306121826 -0.37772414088249207 -0.17886053025722504 0.22641275823116302 -0.2532472014427185 0.23395583033561707 0.03797260671854019 0.09538895636796951 -0.5352581143379211 0.19639931619167328 0.10855498909950256 -0.1761251837015152 0.06548470258712769 -0.13565704226493835 0.4825897812843323 0.26739999651908875
bathe -0.06603406369686127 -0.05456840619444847 0.10927532613277435 -0.19185642898082733 0.11218753457069397 0.11800362914800644 0.07936499267816544 0.1011478528380394 -0.06213279440999031 0.07801362872123718 -0.07217670977115631 0.24478907883167267 0.03343262895941734 -0.04253297671675682 0.1132911890745163 0.09749800711870193 0.1121532991528511 -0.057825975120067596 0.2346566766500473 0.09413089603185654
autoclave -0.07476246356964111 -0.11856751143932343 -0.13642464578151703 0.03635754808783531 0.013603942468762398 -0.036217205226421356 -0.1942562758922577 0.20775772631168365 -0.09452974796295166 -0.059506818652153015 0.12120167911052704 0.22477035224437714 -0.09485673159360886 0.27228689193725586 0.20109528303146362 0.4553917348384857 -0.33964288234710693 0.11205020546913147 -0.1401233971118927 0.3382309675216675
cut 0.26794272661209106 -0.15338335931301117 -0.06666572391986847 0.3973413407802582 0.25911495089530945 0.08801029622554779 -0.06874347478151321 0.1791163831949234 0.3647105097770691 0.06609885394573212 0.5153536200523376 0.310426265001297 -0.01119237206876278 0.0711207315325737 0.01760365068912506 0.025301050394773483 0.29054757952690125 -0.2637714147567749 0.01980469562113285 0.01572382263839245
starve 0.008247158490121365 -0.013224713504314423 0.027373122051358223 -0.04925781115889549 0.004251812119036913 0.01136104017496109 -0.0024406861048191786 0.00897020660340786 -0.019253475591540337 -0.054744184017181396 0.07249005138874054 0.0034369651693850756 0.033454183489084244 -0.0012663734378293157 0.0029380253981798887 0.0585862435400486 0.0010464427759870887 -0.041698552668094635 -0.02390480227768421 0.025187142193317413
chase 0.09012094140052795 0.10745389014482498 -0.07052893191576004 -0.008134474977850914 0.03399687632918358 0.16162875294685364 -0.0425906740128994 -0.05877165123820305 0.11122547090053558 0.09858088940382004 0.08693292737007141 0.004052408039569855 -0.0279798936098814 0.08539851009845734 0.02927880547940731 0.032511916011571884 -0.029146721586585045 -0.028209848329424858 -0.0012201694771647453 0.09269506484270096
pop 0.17142939567565918 0.16689209640026093 -0.07411255687475204 0.006433861795812845 0.12295397371053696 0.3145788013935089 0.03440054878592491 0.08933863788843155 -0.3042092025279999 3.073681436944753E-4 -0.10879124701023102 0.007639341056346893 -0.03186468034982681 -0.06366150081157684 0.3175276517868042 0.1959531456232071 0.19428858160972595 -0.23327727615833282 0.5861252546310425 -0.08037903904914856
combust -0.5625784993171692 0.016428370028734207 0.1864171028137207 -0.526673436164856 -0.003402728820219636 -0.4363225996494293 0.7438837885856628 -0.0694875717163086 -0.22600042819976807 0.017530009150505066 0.7942150235176086 -0.47720468044281006 0.22594615817070007 0.01626374013721943 -0.4056714177131653 0.10517038404941559 -0.35972845554351807 -0.7436411380767822 -0.13892214000225067 0.07391685247421265
tear 0.5658332705497742 0.20005109906196594 -0.14937250316143036 0.8448972105979919 -0.0656919926404953 0.06113022565841675 0.6674977540969849 0.058067649602890015 -0.030678637325763702 0.5141420364379883 -0.049445975571870804 0.24227915704250336 -0.08003979176282883 0.3365616500377655 0.7264455556869507 1.020758032798767 0.24220885336399078 -0.309077650308609 0.2646850645542145 -0.0321052148938179
interleave 0.05094960331916809 0.013613558374345303 0.04680316522717476 -0.06087445840239525 -0.01659504696726799 0.2344265729188919 -0.04359406605362892 -0.07067566365003586 -0.05934915691614151 0.11898481100797653 0.015021427534520626 0.04434197396039963 -0.05214974656701088 0.03375556692481041 0.05236785486340523 0.020860016345977783 0.009004545398056507 -0.021657384932041168 0.13562004268169403 -0.014458993449807167
encrypt -0.006001374218612909 0.001537022995762527 -0.030276838690042496 0.00413504196330905 0.009848608635365963 0.017267968505620956 -0.02590300887823105 -0.004167098551988602 0.008513478562235832 0.0056640091352164745 -0.01569284126162529 0.007482070475816727 0.007369191385805607 -0.011617055162787437 -0.01771208830177784 0.022137191146612167 0.015907293185591698 0.005071008112281561 -5.999245913699269E-4 0.006699529010802507
