cancel 0.0038131691981106997 -0.4578333795070648 0.07228486984968185 0.2578355371952057 -0.25521379709243774 -0.1770552396774292 0.1553376466035843 0.3693571090698242 0.30354011058807373 0.18904666602611542 0.22985097765922546 0.07626166939735413 0.3671058714389801 -0.09956780821084976 0.322363018989563 0.17261376976966858 -0.24420198798179626 0.23134125769138336 0.1487755924463272 -0.03570566326379776 0.2945394217967987 0.3550585210323334 0.34501802921295166 -0.09617601335048676 -0.07402121275663376 0.130378857254982 0.09179800003767014 -0.24008044600486755 -0.22850292921066284 -0.20196865499019623 -0.11158356070518494 0.39793816208839417 -0.17684783041477203 0.19086426496505737 -0.016166556626558304 0.17013299465179443 0.0865592435002327 0.38154929876327515 -0.06389482319355011 0.10040690749883652 0.4401432275772095 0.07783692330121994 0.05390983074903488 0.06197270005941391 -0.22633984684944153 -0.10817497223615646 -0.05811537057161331 0.2608443796634674 -0.3045310974121094 -0.2138727903366089 -0.2197902947664261 0.33642011880874634 0.3622002601623535 0.008519514463841915 -0.040043145418167114 -0.15145286917686462 0.003442581044510007 -0.12059005349874496 -0.2354448139667511 0.1503811776638031 -0.1855490654706955 0.1511581391096115 0.2361835092306137 -0.3234401345252991 0.011081274598836899 -0.004963688552379608 0.3419495224952698 -0.434586763381958 -0.38550207018852234 -0.18782801926136017 0.11360964924097061 0.08082235604524612 0.23419560492038727 -0.03427666798233986 -0.23671601712703705 -0.24295996129512787 -0.3536192774772644 -0.4798509180545807 0.00464043952524662 0.11647159606218338 0.13870775699615479 0.23230314254760742 -0.06843359023332596 0.12431428581476212 -0.3507947027683258 0.45727071166038513 -0.08166597038507462 -0.015375529415905476 -0.23918144404888153 0.20705847442150116 -0.2008773684501648 -0.03385603427886963 0.14460496604442596 -0.1026475727558136 0.17466865479946136 -0.16701427102088928 -1.8957199063152075E-4 -0.17200127243995667 0.15071681141853333 0.1462293565273285
recline -0.0011546016903594136 0.0011271006660535932 0.0018913954263553023 -0.0026838460471481085 0.005800694692879915 0.003318323753774166 0.0014667051145806909 -0.0017340171616524458 0.005549617577344179 -0.003794734599068761 0.0020604324527084827 -0.0010530666913837194 7.856679731048644E-4 -0.004393850453197956 0.0016790339723229408 -1.9445468205958605E-4 6.308587035164237E-4 0.002414329443126917 5.049395258538425E-4 -0.0033059956040233374 0.001332554267719388 0.003443070687353611 0.006309424061328173 -0.001262834994122386 0.003216531127691269 -0.0010719820857048035 -0.002684110077098012 0.004005798604339361 0.006244758144021034 -0.001979599706828594 -0.002410388085991144 0.005004264414310455 -7.915848982520401E-4 0.0018863779259845614 0.001045151730068028 -0.0032909021247178316 0.004064332228153944 0.006207366939634085 -0.0067053502425551414 0.004653637297451496 -0.0015857764519751072 -0.004512238781899214 0.006256852298974991 -0.002264968119561672 -0.002602321095764637 0.00675157317891717 0.0017447121208533645 -0.0029584483709186316 -0.0029760743491351604 0.0020473625045269728 0.003229938680306077 6.29594549536705E-4 -0.008810541592538357 0.005124569404870272 0.007178245112299919 -0.0019128302810713649 0.0018326090648770332 -9.614838054403663E-4 -0.0020751343108713627 6.97803683578968E-4 2.1854802616871893E-4 0.005298923701047897 -8.932426571846008E-4 0.0034734366927295923 0.0031095214653760195 -0.004444669466465712 3.213262534700334E-4 -0.004507557488977909 -0.0023708194494247437 0.0028466847725212574 -0.0018319078953936696 -8.546058088541031E-4 -0.00422704266384244 0.006490734871476889 -0.004092667251825333 0.005249770823866129 0.0030185061041265726 0.004824534989893436 0.00119500863365829 0.002855430357158184 -0.004774539265781641 -0.0026203705929219723 -0.005834956653416157 -0.003200642764568329 -0.005490613169968128 -0.00550909573212266 0.0030521212611347437 -0.006385808810591698 -0.003271897789090872 0.0022819561418145895 4.5197425060905516E-4 -9.87076127785258E-5 -0.0056721982546150684 -0.003472592681646347 0.0026328021194785833 0.003919744398444891 -0.0013105097459629178 -0.008896861225366592 0.00557838287204504 -0.002346134977415204
spoke -0.0921870544552803 -0.6586254239082336 0.3693263828754425 -0.056813038885593414 -0.0044602262787520885 -0.004441038239747286 -0.13590200245380402 0.3928169310092926 -0.1924215704202652 0.003898313734680414 0.029074491932988167 0.049890320748090744 0.09612173587083817 -0.29317933320999146 -0.08965251594781876 0.0752248615026474 -0.18828675150871277 -0.2530069351196289 -0.1800597459077835 -0.3787223696708679 -0.29805809259414673 -0.380583792924881 -0.3125390410423279 -0.8037793040275574 -0.19137990474700928 -0.303205668926239 0.06038932129740715 -0.5687292814254761 -0.08752138167619705 0.21365921199321747 0.4045952260494232 0.08573256433010101 -0.32966265082359314 0.054435450583696365 0.22056718170642853 0.10776683688163757 0.030940348282456398 -0.02589152380824089 0.09825518727302551 0.3996053636074066 0.06434746086597443 0.7211400270462036 0.21887178719043732 -0.3950084447860718 0.1579744517803192 -0.6199401021003723 -0.02469436079263687 0.28982576727867126 -0.3957865536212921 0.10657884925603867 0.09664616733789444 -0.3019622564315796 0.11058592796325684 0.46002188324928284 0.646973729133606 0.012908014468848705 -0.08433378487825394 -0.08467172831296921 0.513157069683075 -0.10548390448093414 0.1030568778514862 0.3874306380748749 0.3263870179653168 -0.3972161114215851 -0.22552987933158875 -0.23089109361171722 0.49295908212661743 0.2541762888431549 -0.27022266387939453 0.59954434633255 -0.47837549448013306 0.08317996561527252 -0.5543253421783447 0.26372718811035156 0.4209657609462738 0.08732470124959946 0.4103158116340637 0.11439412832260132 0.09897629171609879 0.045824501663446426 0.12431801855564117 -0.3076413869857788 -0.5839163661003113 0.00293751060962677 -0.11322037875652313 0.5146902203559875 0.11649579554796219 0.2042778581380844 -0.3765999674797058 0.15187887847423553 -0.2763044536113739 0.3291606605052948 0.08341053873300552 -0.13595518469810486 -0.42194247245788574 -0.46401214599609375 -0.3959520161151886 -0.16662801802158356 0.24258673191070557 0.03761668503284454
govern -0.01843397691845894 -0.038073956966400146 -0.13640575110912323 0.17102335393428802 0.14869225025177002 0.26009848713874817 -0.06673141568899155 0.04937223717570305 0.12477202713489532 -0.15007725358009338 -0.2634238302707672 0.03922921419143677 -0.4279012382030487 0.05064712092280388 -0.3926953971385956 -0.28001731634140015 -0.251517653465271 0.23087266087532043 0.02722693234682083 0.5029525756835938 0.05984796583652496 0.18972451984882355 0.3830680549144745 -0.34996259212493896 0.2662307620048523 0.20551073551177979 0.14786440134048462 0.15958906710147858 0.20960931479930878 -0.36949414014816284 0.2540780007839203 -0.2338975965976715 0.16196230053901672 -0.07720011472702026 -0.010280391201376915 0.36854633688926697 0.37893855571746826 -0.05748039111495018 -0.06588365882635117 0.7490818500518799 0.26636454463005066 -0.011995731852948666 -0.10227292031049728 -0.006685709580779076 0.010713777504861355 -0.24569830298423767 -0.25734150409698486 0.186749666929245 -0.1970645636320114 -0.07383530586957932 0.024305496364831924 0.17003072798252106 -0.22195619344711304 0.2733820378780365 0.4696905016899109 0.223431795835495 -0.09275976568460464 0.07212759554386139 -0.0355180986225605 -0.15752564370632172 0.2596586048603058 0.14699843525886536 0.05634476989507675 0.10323009639978409 0.25536561012268066 0.5924879908561707 -0.025469280779361725 -0.5016958117485046 0.05684401094913483 0.1818753480911255 -0.012918468564748764 0.010208277963101864 0.5552109479904175 -0.378999263048172 -0.04807551950216293 -0.3211602568626404 -0.19348777830600739 0.0048016635701060295 0.11565836519002914 -0.4398302733898163 0.03663076460361481 0.07259117066860199 0.14158667623996735 -0.20455080270767212 0.56397944688797 0.16418729722499847 0.04326995089650154 0.5806888937950134 -0.1012328714132309 0.12233582884073257 0.003882085904479027 0.4851899743080139 -0.02296399511396885 -0.11368934065103531 0.46833065152168274 -0.25960469245910645 -0.15321026742458344 -0.07520540058612823 -0.17032724618911743 -0.1412835717201233
discourage 0.02351883240044117 -0.019242504611611366 0.025899218395352364 0.07673981785774231 0.026268023997545242 -0.019715430215001106 0.012075044214725494 -0.0030647211242467165 0.05624162405729294 0.0869184210896492 0.0514327809214592 -0.21093496680259705 -0.15574176609516144 0.05204576998949051 0.1890328973531723 -0.11047955602407455 -0.095499686896801 0.02542245015501976 0.06681253761053085 -0.03277475759387016 -0.048899564892053604 -0.043078090995550156 0.11713656038045883 0.0907287448644638 0.11853991448879242 0.037450000643730164 -1.0012309940066189E-4 -0.17253249883651733 -0.1679561287164688 0.001568104955367744 -0.04912690073251724 0.1890670657157898 0.045787423849105835 -0.19963841140270233 0.09378684312105179 0.20700359344482422 -0.014123725704848766 0.03327222168445587 0.05989087373018265 -0.12625138461589813 -0.0735749825835228 0.10924247652292252 0.04662930592894554 -0.04519098252058029 0.1544809192419052 -0.026220671832561493 0.07727925479412079 -0.057997927069664 0.16135774552822113 0.07201596349477768 -0.17866826057434082 -0.06290195882320404 -0.14215582609176636 -0.10661208629608154 -0.03185655176639557 0.019833236932754517 -0.006098175421357155 -0.08162081986665726 0.0462861992418766 -0.20649775862693787 -0.08354435116052628 0.10241169482469559 -0.041893016546964645 0.023395167663693428 0.053808245807886124 0.0893697515130043 0.03989154472947121 -0.17538823187351227 -0.09489301592111588 -0.06819113343954086 -0.07540855556726456 0.15205201506614685 0.0764804258942604 0.006224433425813913 -0.011588872410356998 -0.017719119787216187 0.09842433780431747 -0.006302608642727137 -0.06970750540494919 0.14334800839424133 0.023422297090291977 -0.037654489278793335 -0.004387883469462395 0.10864410549402237 0.23337790369987488 -0.034094564616680145 -0.19743552803993225 0.05777926743030548 0.03578881919384003 -0.04282095283269882 -0.03135567903518677 -0.0406249538064003 -0.0198178980499506 0.10552195459604263 0.18307381868362427 0.05742834508419037 -0.12474726140499115 -0.25672489404678345 0.04668833687901497 0.02192520536482334
rupture 0.5584056377410889 0.03301625698804855 -0.04920298978686333 0.2820499539375305 -0.19207344949245453 0.0751146599650383 -0.2508143484592438 0.5044096112251282 -0.47531694173812866 -0.18668417632579803 -0.26405712962150574 0.13556429743766785 -0.067912258207798 0.12997376918792725 0.11910344660282135 0.2768215537071228 -0.1394880712032318 -0.5128061175346375 0.43167272210121155 -0.13000620901584625 -0.09990684688091278 0.1017685979604721 -0.38762298226356506 0.2188010960817337 0.5255931615829468 0.17113354802131653 -0.13233253359794617 -0.3301621079444885 -0.09040758013725281 -0.13278663158416748 0.048417504876852036 -0.09277680516242981 0.0729825347661972 -0.08352434635162354 0.05503258481621742 -0.356975793838501 -0.603035032749176 0.1505064070224762 0.23761163651943207 -0.7025264501571655 0.16821537911891937 -0.11711077392101288 -0.22410297393798828 0.4919486343860626 -0.2901790738105774 -0.3977777361869812 0.24454806745052338 -0.40526118874549866 0.03386043757200241 -0.1137600913643837 -0.23810060322284698 -0.29263460636138916 0.043581776320934296 0.0097685931250453 -0.1649027317762375 0.014619342982769012 -0.058105070143938065 -0.36686667799949646 -0.24479268491268158 0.018198564648628235 -0.46150070428848267 -0.12158338725566864 -0.34282198548316956 -0.32209956645965576 0.4696333408355713 -0.49307772517204285 -0.2609858512878418 0.00215921294875443 -0.10755471885204315 0.05507665500044823 -0.7736999988555908 -0.18027962744235992 0.2438630610704422 -0.5758735537528992 -0.3529311418533325 -0.08507800847291946 -0.0700826346874237 0.5249806046485901 0.10899203270673752 -0.016605069860816002 -0.08320280909538269 0.181029811501503 -0.27673736214637756 0.05191100761294365 0.3361819088459015 0.11227788776159286 -0.015896620228886604 0.06816858798265457 -0.20713862776756287 -0.4083821177482605 0.3023548126220703 0.18013222515583038 0.041783131659030914 -0.32105135917663574 0.24477586150169373 0.08551731705665588 0.14904287457466125 -0.19431589543819427 0.14398294687271118 0.12391812354326248
lacquer 0.07389934360980988 -0.3512861132621765 0.35822299122810364 -0.18161463737487793 -0.17614024877548218 0.0666758343577385 -0.13416621088981628 0.08274279534816742 -0.42759886384010315 0.20334503054618835 0.12003065645694733 0.05578381195664406 -0.6035262942314148 0.1826861947774887 0.20534691214561462 0.38972246646881104 0.006850843783468008 -0.48563066124916077 -0.02226080186665058 0.11461013555526733 0.26485931873321533 -0.4362601935863495 -0.12447124719619751 -0.026479072868824005 0.04590214788913727 -0.07734907418489456 -0.22709056735038757 0.14026223123073578 0.15861515700817108 0.5147920846939087 -0.024626474827528 -0.014946892857551575 0.332486093044281 0.10904361307621002 0.1252335160970688 -0.15558360517024994 -0.07318724691867828 -0.028832945972681046 0.11322897672653198 -0.043307386338710785 0.19906461238861084 0.6476039290428162 -3.778137033805251E-4 -0.07280882447957993 0.16074736416339874 0.12663309276103973 -0.2272612750530243 -0.20593556761741638 0.39323535561561584 0.3896375298500061 -0.17573802173137665 -0.02165593020617962 -0.035080838948488235 -0.31727099418640137 -0.04219898208975792 -0.12159121036529541 0.07703321427106857 -0.5201971530914307 0.05668272823095322 0.11675084382295609 0.07312720268964767 0.039557501673698425 -0.03975897282361984 0.014822207391262054 -0.08014940470457077 0.3591639995574951 -0.32935991883277893 0.16171963512897491 -0.10744403302669525 0.0636388510465622 -0.6220312714576721 -0.016450149938464165 -0.03339303657412529 -0.37364494800567627 -0.21062789857387543 -0.007657009642571211 0.1764552891254425 0.0391416996717453 -0.21188150346279144 -0.08222678303718567 -0.09540585428476334 0.1806233525276184 0.14826196432113647 -0.1607641875743866 0.04896260425448418 -0.04437015578150749 0.050282105803489685 0.19606779515743256 0.016636425629258156 -0.2045319825410843 0.01704312302172184 -0.18296124041080475 -0.2854449152946472 0.38286396861076355 0.10351213067770004 0.077341228723526 -0.18038234114646912 -0.460798054933548 -0.1792018860578537 -0.021301986649632454
pick 0.2236255407333374 -0.398406982421875 0.3407648503780365 -0.22691616415977478 -0.004407695960253477 -0.11873458325862885 0.18436436355113983 -0.4204178750514984 0.21891315281391144 -0.09208094328641891 0.12528951466083527 -0.2515432834625244 0.20271065831184387 -0.20099793374538422 0.5282678008079529 -0.17042207717895508 -0.30999070405960083 0.016356168314814568 0.1951901614665985 -0.2628188133239746 0.032171040773391724 -0.10952147841453552 0.25520792603492737 -0.3203606605529785 0.13128480315208435 0.21632511913776398 -0.18838690221309662 0.03126310929656029 -0.5976817011833191 -0.010015517473220825 0.17167319357395172 -0.013895063661038876 0.21574273705482483 -0.25989261269569397 0.08334650844335556 0.014151039533317089 0.10684266686439514 -0.2268369048833847 -0.11387699842453003 -0.08648281544446945 -0.04041149094700813 0.26310980319976807 0.0897606909275055 0.03812078386545181 0.26833808422088623 0.23113344609737396 -0.16544325649738312 0.07545112073421478 0.12352372705936432 0.21638190746307373 0.09922903031110764 0.05541110411286354 -0.17585435509681702 0.18005578219890594 -0.1893831342458725 0.04560325667262077 0.037868428975343704 -0.4432523250579834 -0.1209675744175911 -0.3167228102684021 -0.16744017601013184 -0.12528377771377563 -0.05862366035580635 -0.32093241810798645 0.1446124166250229 0.01436548214405775 -0.37530553340911865 0.5077427625656128 0.05237649008631706 -0.4613686203956604 -0.3501192033290863 0.2786059081554413 0.01576615311205387 -0.01472441852092743 0.08953545987606049 -0.28031638264656067 0.3731522560119629 -0.41495582461357117 -0.018901973962783813 -0.12486829608678818 -0.1565798670053482 0.1529950648546219 0.2862313985824585 0.08012642711400986 -0.4023977220058441 0.46036821603775024 -0.13752137124538422 0.2841370403766632 -0.10548284649848938 0.18550127744674683 0.04494817927479744 -0.06083013862371445 -0.06568994373083115 0.3712320327758789 0.056038741022348404 0.40825527906417847 0.07078345119953156 0.008592524565756321 -0.02118159644305706 0.31669971346855164
constrict 0.18497666716575623 0.12109607458114624 -0.11035463958978653 0.02893601916730404 0.03511720895767212 0.15943515300750732 -0.22855955362319946 0.025105101987719536 -0.002317750593647361 -0.4646822214126587 0.24294467270374298 0.11733780801296234 0.16187326610088348 0.22309660911560059 0.22091567516326904 -0.1592935174703598 -0.18013034760951996 -0.11744316667318344 0.14011624455451965 -0.028827102854847908 -0.03872832655906677 -0.0881488174200058 0.011116365902125835 0.11150071769952774 0.5189865827560425 0.16999705135822296 -0.051712606102228165 0.18182992935180664 -0.20612812042236328 0.04463870823383331 -0.04451417177915573 -0.31609779596328735 0.06700305640697479 0.10986758023500443 -0.04587160050868988 0.16489237546920776 -0.010580590926110744 0.15939682722091675 0.19442223012447357 0.0811978131532669 -0.022677989676594734 -0.02072065882384777 -0.29849910736083984 -0.31285354495048523 0.367760568857193 0.009956472553312778 0.19637389481067657 -0.2595607340335846 -0.18643085658550262 -0.23621462285518646 -0.08081317692995071 -0.26210087537765503 0.2688511610031128 -0.005772197153419256 -0.06840556114912033 0.018271002918481827 -0.09183225780725479 0.0033054666128009558 0.26721253991127014 0.32978495955467224 0.11828169226646423 -0.0605321042239666 -0.3414521813392639 -0.15824776887893677 0.28738677501678467 -0.15949392318725586 -0.23915964365005493 -0.1947069764137268 -0.06468542665243149 0.3489324152469635 0.46302399039268494 -0.25470224022865295 0.017297903075814247 -0.3758130967617035 0.22344397008419037 -0.32658851146698 -0.2353838086128235 -0.11087663471698761 0.4605315327644348 0.2619355320930481 0.17728833854198456 0.08934078365564346 -0.033946722745895386 -0.12460685521364212 -0.19413666427135468 0.3171742856502533 0.038794998079538345 0.015903713181614876 0.10532199591398239 -0.35727018117904663 -0.2587432861328125 0.3259957730770111 0.19901782274246216 0.24838198721408844 0.03914787992835045 0.04548207297921181 -0.16135913133621216 0.0314607173204422 0.013706250116229057 0.40558379888534546
fluctuate -0.18706130981445312 0.020585589110851288 -0.12402953952550888 0.02328033559024334 0.009012451395392418 -0.08615949004888535 -0.00536542059853673 0.0416385754942894 0.042092058807611465 -0.1474531590938568 0.006796704139560461 -0.2089550644159317 0.09240273386240005 0.05565714091062546 -0.10601598769426346 -0.002700726268813014 0.18125498294830322 0.10546504706144333 -0.06380634009838104 0.023323558270931244 0.07149641960859299 -0.024799838662147522 0.06930117309093475 0.24041463434696198 0.03346927464008331 0.10058794170618057 -0.04192975163459778 0.10803859680891037 -0.16028472781181335 5.195153062231839E-4 0.004913496319204569 -0.11762215197086334 -0.12498495727777481 0.1947212964296341 0.01136564090847969 0.2215157151222229 0.1086702048778534 0.3026731610298157 -0.025357838720083237 0.2867467403411865 0.1331610381603241 -0.09571488946676254 -0.05742771551012993 0.016068000346422195 -0.06731590628623962 6.211961153894663E-4 0.054167769849300385 -0.025810034945607185 -0.14375437796115875 0.04786880686879158 0.14851146936416626 0.0066343024373054504 -0.010491995140910149 0.03504412621259689 -0.15559682250022888 -0.07450151443481445 -0.06270478665828705 -0.14509712159633636 -0.20081008970737457 -0.014178106561303139 -0.013640081509947777 0.042044349014759064 0.13245084881782532 -0.0750475823879242 -0.039126280695199966 0.13074523210525513 -0.1673366129398346 -0.10253342241048813 -0.016045182943344116 0.008044147863984108 0.07009698450565338 0.09641694277524948 0.02200646698474884 -0.2923435568809509 0.12166022509336472 -0.17572849988937378 -0.23251201212406158 0.09983476996421814 0.2046646922826767 -0.0023411756847053766 0.16568706929683685 0.09646013379096985 0.06628299504518509 -0.09454440325498581 0.2643812298774719 0.05637092515826225 -0.04131200164556503 0.23432430624961853 0.11279566586017609 0.0010607916628941894 -0.019860191270709038 -0.04622895270586014 -0.05544934421777725 0.03672824800014496 -0.09923481941223145 0.16143010556697845 0.05079703778028488 -0.06842540204524994 -0.0158446803689003 -0.08248510211706161
calculate -0.0646883174777031 0.02016153745353222 -0.06319068372249603 0.055370211601257324 0.3151807188987732 0.03994414210319519 0.35727158188819885 0.48423901200294495 0.1782718151807785 0.0614742673933506 -0.004406373482197523 -0.11186753958463669 -0.34741830825805664 0.26438212394714355 -0.253036230802536 0.06714964658021927 0.22340844571590424 0.3625222146511078 0.1993757039308548 0.6348531246185303 0.7095321416854858 0.17356353998184204 0.029787974432110786 0.20257970690727234 0.054086290299892426 0.24601972103118896 -0.12173636257648468 -0.3331143260002136 0.08201101422309875 0.05779765173792839 0.1193748265504837 0.5320820808410645 -0.3908935785293579 0.03804643824696541 0.1365775614976883 0.09318064153194427 0.16704244911670685 0.4941592216491699 -0.3176402747631073 0.6476597785949707 0.5029869079589844 0.10703481733798981 -0.019071679562330246 0.23002852499485016 -0.0383918434381485 0.6313870549201965 0.058255117386579514 -0.28521692752838135 -0.32699379324913025 0.1929151564836502 0.007424767129123211 0.017569834366440773 -0.3576391637325287 -0.37779754400253296 -0.26955166459083557 -0.3469703793525696 -0.03988320752978325 0.009728681296110153 -0.9174661636352539 -0.1989254504442215 -0.25074636936187744 0.37614011764526367 0.2054501622915268 0.0026319646276533604 -0.3460787832736969 -0.10500825196504593 0.38823142647743225 -0.03677092492580414 -0.11758445203304291 -0.19243298470973969 0.27112555503845215 0.2006852924823761 0.29395636916160583 0.0157010555267334 0.09268403053283691 -0.6640380024909973 -0.308991014957428 -0.015801649540662766 -0.46168747544288635 -0.1203424409031868 -0.12626022100448608 0.028937455266714096 0.03890633210539818 -0.13308200240135193 -0.25990572571754456 0.6110135912895203 0.3961353898048401 0.4640623927116394 0.4077693223953247 -0.02900158427655697 -0.5838095545768738 0.22146913409233093 0.10096652805805206 0.07639529556035995 -0.023953808471560478 0.06850054115056992 0.22499237954616547 -0.04948689043521881 0.3860033452510834 -0.6207566857337952
authorize 0.0020924482960253954 5.154603786650114E-5 0.002136358292773366 -0.001495015574619174 -0.0026051991153508425 -4.784393822774291E-4 -0.008395789191126823 -0.004865722730755806 -0.0011584031162783504 0.0034052624832838774 -0.003878859104588628 -2.2579824144486338E-4 -0.003403361653909087 0.005168177653104067 0.002304235938936472 -1.3052576105110347E-4 -0.003624889301136136 0.006481800228357315 1.5753346087876707E-4 -0.0020701191388070583 0.003380077425390482 -0.0060021765530109406 -0.003695050487294793 0.0022755356039851904 0.0034569695126265287 -0.0015639709308743477 0.0029335080180317163 0.005443389993160963 0.005284011363983154 0.0016862135380506516 0.005749729461967945 -0.0032170861959457397 -0.007122935727238655 3.9190598181448877E-4 -0.003664791351184249 0.003456554841250181 0.001143443863838911 -0.0024864289443939924 0.0034683006815612316 0.00304325670003891 -0.004811780992895365 5.668951198458672E-4 -0.0010920666391029954 0.0061106570065021515 -0.0032388856634497643 -0.0014748983085155487 0.003611627733334899 0.0015790472971275449 -0.003191685304045677 0.001062777009792626 0.002334345830604434 0.006083870306611061 -0.006109871901571751 -0.00340476562269032 -0.005896780174225569 5.417113425210118E-4 0.003986424300819635 0.006804631557315588 -0.007517840247601271 -0.002888816874474287 -0.002450457075610757 0.004701625090092421 -8.235112181864679E-4 0.0037758476100862026 0.0016533847665414214 0.003951313905417919 -0.0010875256266444921 0.004869447089731693 -0.0010585020063444972 0.0011049470631405711 -0.005588161759078503 0.010539745911955833 -3.424525202717632E-4 -0.005725589115172625 3.4725863952189684E-4 -0.0040417565032839775 -0.002121003344655037 2.0794956071767956E-4 -0.005250150803476572 -0.0037382764276117086 -0.0055284867994487286 0.0025102633517235518 0.007952006533741951 0.0035271167289465666 0.004199748393148184 0.0013604946434497833 -0.002226692158728838 0.011728985235095024 0.00765609135851264 -0.0014380012871697545 0.004424639046192169 0.004551729187369347 -0.0020278196316212416 -0.006326694507151842 9.438425186090171E-4 -4.7891392023302615E-4 0.0012071487726643682 0.0014175596879795194 0.003413440426811576 0.004650384187698364
conceal -0.16917623579502106 0.36114436388015747 0.4936176836490631 -0.009003815241158009 -0.2840382754802704 0.17714592814445496 -0.1668749451637268 -0.23872040212154388 -0.26855185627937317 -0.22956816852092743 0.3098790645599365 0.2641752064228058 0.01444304920732975 -0.21410249173641205 0.39788728952407837 -0.15016230940818787 0.3581923246383667 -0.7305132746696472 0.022392185404896736 -0.3944467306137085 0.24419355392456055 -0.06018343195319176 -0.15755416452884674 -0.05104067921638489 0.11644101142883301 -0.00943819247186184 0.4035378098487854 0.2670319378376007 0.12862731516361237 0.7531406283378601 -0.31484556198120117 -0.3654325008392334 0.1309225857257843 -0.02961210533976555 0.08016055077314377 -0.02668941579759121 0.13198673725128174 0.002881034277379513 0.09342186152935028 0.11091094464063644 -0.2919105291366577 -0.11016619950532913 -0.359703004360199 0.37688297033309937 0.07093758881092072 0.03365418314933777 -0.2978420853614807 -0.36395660042762756 3.127981908619404E-4 -0.053189635276794434 -0.30954477190971375 -0.26809725165367126 -0.6357555985450745 -0.06396060436964035 0.39376500248908997 0.2818402349948883 -0.1356043815612793 0.04481565207242966 0.15393169224262238 -0.47473275661468506 -0.35605889558792114 -0.15280427038669586 0.09282070398330688 0.36318185925483704 -0.07392308861017227 -0.1467505246400833 0.07772499322891235 -0.21905779838562012 -0.2641870081424713 0.05122886970639229 -0.10344212502241135 -0.5139744877815247 0.08510014414787292 0.3669094443321228 -0.10935384780168533 -0.3173260986804962 -0.021060694009065628 0.10172906517982483 0.42228513956069946 -0.04893897846341133 -0.7423673868179321 -0.2349230945110321 0.17096395790576935 -0.13786467909812927 -0.17718757688999176 0.2847745716571808 0.038131389766931534 -0.06250249594449997 -0.16740424931049347 -0.011750329285860062 -0.44695985317230225 -0.004259041510522366 0.5258508324623108 -0.004770394880324602 0.41835445165634155 0.39529410004615784 -0.3732639253139496 0.15986289083957672 0.04944019392132759 -0.12695454061031342
possess -0.09630698710680008 -0.08216088265180588 0.04466820880770683 -0.05664084479212761 -0.22300851345062256 0.12664254009723663 0.11385472118854523 -0.28257760405540466 0.006204621400684118 -0.002966847736388445 0.08820433914661407 0.17396916449069977 -0.17734196782112122 0.057788215577602386 0.2640261650085449 0.06841664016246796 0.1450566202402115 -0.2266216278076172 0.02966628037393093 -0.12639892101287842 0.25777995586395264 -0.23952095210552216 -0.007299073506146669 0.05108121037483215 0.12882205843925476 0.02613094449043274 0.010875619947910309 -0.43355318903923035 0.14690068364143372 0.3840232789516449 0.11301690340042114 0.023211024701595306 0.02948693372309208 0.07169544696807861 0.07629874348640442 0.05037323012948036 0.010132158175110817 0.2503039836883545 -0.10890109837055206 0.28684622049331665 0.27652648091316223 -0.25482916831970215 0.20359639823436737 -0.07569621503353119 -0.4155811071395874 0.0068062711507081985 0.09733836352825165 0.07456205785274506 -0.12611711025238037 0.16539567708969116 -0.15009477734565735 -0.001554981921799481 0.03520367294549942 -0.051061760634183884 -0.0540303997695446 0.1963782161474228 0.0688387006521225 -0.3425056040287018 0.202029287815094 0.1194571927189827 0.04965655878186226 0.13870619237422943 -0.3566244840621948 -0.3470398485660553 0.15404029190540314 0.20492419600486755 -0.04543503373861313 0.216563418507576 0.23476898670196533 -0.20120224356651306 0.20638591051101685 0.07025758177042007 0.07187440991401672 -0.10338667035102844 0.0026559943798929453 0.10680627077817917 -0.23610523343086243 0.135841965675354 -0.42857542634010315 -0.007220230996608734 -0.13044960796833038 0.326772004365921 -0.08357226848602295 -0.2062179148197174 -0.03626998886466026 0.036596402525901794 -0.1539626270532608 0.04142392426729202 -0.3927125036716461 -0.003308165818452835 -0.1857849508523941 -0.06486881524324417 -0.0931689590215683 0.264013409614563 -0.024348801001906395 0.18698647618293762 -0.31967559456825256 -0.12404412776231766 0.04601549729704857 0.28227922320365906
scratch 0.17062313854694366 0.25851970911026 -0.004844228737056255 -0.32288792729377747 -0.13256202638149261 0.2857982814311981 0.38151875138282776 0.408613383769989 0.16724519431591034 0.3390384316444397 0.1027684211730957 0.05602189153432846 0.02160406857728958 -0.05455094575881958 0.14027851819992065 0.11932932585477829 0.1940544843673706 -0.33480051159858704 0.10956868529319763 0.047145213931798935 0.2282441407442093 -0.23752616345882416 -0.05874016880989075 -0.37371793389320374 0.06303925067186356 0.0684409961104393 -0.013560622930526733 0.021951738744974136 0.11560878902673721 0.587719738483429 -0.10017990320920944 0.6436141729354858 0.38879868388175964 -0.13881215453147888 0.17222364246845245 -0.23741164803504944 -0.22286181151866913 -0.11618421226739883 -0.10135926306247711 -0.52296382188797 0.3096460700035095 0.21078428626060486 -0.0881507620215416 -0.02817891724407673 -0.05523171275854111 0.014811096712946892 0.027298299595713615 -0.5156805515289307 0.07236544042825699 0.16082918643951416 -0.6958279609680176 0.014943262562155724 -0.15456397831439972 -0.19794254004955292 0.18274638056755066 0.06372366845607758 0.01381834875792265 -0.7783511281013489 0.21679815649986267 0.044801995158195496 -0.42823898792266846 -0.19714149832725525 -0.10981574654579163 -0.12974771857261658 0.31057125329971313 -0.2703521251678467 -0.04867447912693024 0.1315986067056656 -0.049073476344347 0.33774566650390625 -0.9820734262466431 -0.1407778263092041 -0.0942520797252655 -0.44734063744544983 0.0434628464281559 -0.033171042799949646 -0.1033930629491806 0.3334693908691406 -0.21311931312084198 0.6355926990509033 -0.42489928007125854 -0.2610858082771301 0.13577760756015778 0.3746122419834137 -0.1122431829571724 -0.41366198658943176 0.0014982990687713027 0.08747421205043793 -0.1917429268360138 0.01863854192197323 -0.2350984662771225 -0.23631080985069275 -0.27680227160453796 0.09090840071439743 0.05892390385270119 0.4464169442653656 0.25405967235565186 -0.6433424353599548 -0.2144477665424347 0.03881164640188217
require -0.12300246208906174 -0.012896628119051456 0.09417549520730972 -0.40050140023231506 -0.04385948181152344 0.1545722931623459 0.0575239323079586 -0.4041979908943176 -0.04613357037305832 0.1542002558708191 -0.26181986927986145 0.07627909630537033 -0.024796266108751297 0.048895493149757385 0.10056979209184647 0.10967326164245605 0.14316406846046448 -0.0041346182115375996 0.23554423451423645 -0.17788457870483398 0.029784489423036575 0.2463941127061844 -0.12227822095155716 -0.24005268514156342 0.0029651978984475136 0.2541283369064331 -0.29299211502075195 -0.18626418709754944 -0.0018799800891429186 0.10848371684551239 0.12615065276622772 -0.07851097732782364 0.10559306293725967 -0.030853217467665672 -0.23169854283332825 0.10095678269863129 -0.3073748052120209 -0.4045011103153229 -0.08501721918582916 -0.23849643766880035 -0.17696474492549896 0.025177955627441406 0.011528052389621735 -0.010241863317787647 -0.14433154463768005 -0.02953711897134781 0.020719656720757484 0.15616832673549652 0.3276955187320709 -0.26116180419921875 -0.06064986065030098 0.08169951289892197 -0.42265817523002625 0.13245123624801636 -0.1734376847743988 0.18431906402111053 -0.10356434434652328 -0.17661286890506744 0.004946003668010235 -0.2401302456855774 -0.05153810605406761 0.17473651468753815 -0.07138301432132721 -0.007760513573884964 0.18231311440467834 0.05917850136756897 0.21273395419120789 0.10142329335212708 0.13089601695537567 -0.2141740322113037 -0.045679353177547455 0.18899641931056976 0.32158446311950684 -0.12701863050460815 -0.05896691232919693 -0.15496394038200378 0.007453893776983023 0.2178141474723816 -0.07658255845308304 -0.2574937343597412 -0.1322857141494751 0.7070696353912354 -0.020244697108864784 0.01430427934974432 -0.20072568953037262 0.03650307282805443 -0.25989726185798645 0.06029008701443672 -0.14437292516231537 0.3085538148880005 -0.05343054607510567 0.3367551267147064 0.10662909597158432 0.008726862259209156 0.10409814864397049 0.29335904121398926 0.030192162841558456 -0.3296225666999817 -0.008833375759422779 -0.37982240319252014
honeycomb -0.04426075518131256 -0.7493336200714111 0.3768801987171173 -0.007016151212155819 -0.3338008522987366 0.12906770408153534 -0.33705952763557434 0.3467661142349243 -0.514232873916626 -0.04393069073557854 -0.16493132710456848 0.43517154455184937 0.078221894800663 0.03918943554162979 -0.021075526252388954 0.2992548942565918 0.30254629254341125 -0.4828929305076599 0.06636884808540344 0.19143196940422058 0.5612199306488037 -0.3215714991092682 -0.3285170793533325 0.08032646030187607 0.19781836867332458 0.05582716688513756 -0.04930296540260315 -0.1658366322517395 -0.5611580610275269 0.5784979462623596 -0.27870485186576843 -0.2425542026758194 -0.039067432284355164 -0.0613275021314621 0.3936377763748169 -0.17600801587104797 -0.5386654734611511 0.018630823120474815 0.3694836497306824 0.6132307052612305 -0.22780843079090118 -0.10375633090734482 0.05289190262556076 0.4317750930786133 0.2128533273935318 0.30224472284317017 -0.05750901252031326 -0.02699398621916771 -0.2744784653186798 -0.10621435940265656 0.3669007420539856 0.05481797084212303 -0.06808030605316162 -0.22137461602687836 -0.2646365165710449 0.09999395906925201 -0.204467311501503 -0.7978230118751526 -0.4260410666465759 0.21498924493789673 0.11663894355297089 -0.12250084429979324 -0.39366185665130615 0.17388637363910675 0.3370092511177063 -0.52409428358078 0.3859322667121887 0.07110989838838577 0.5254278779029846 0.05562279000878334 -0.47344857454299927 -0.07235374301671982 0.13377141952514648 -0.18932946026325226 0.3654744327068329 -0.5474719405174255 0.10935118794441223 0.17019015550613403 -0.058461710810661316 0.17680244147777557 -0.17006038129329681 -0.10843431204557419 -0.11037923395633698 0.022924674674868584 -0.04926999658346176 -0.08309526741504669 -0.20937524735927582 -0.48413705825805664 -0.15544022619724274 0.26998645067214966 0.16087715327739716 -0.2604023516178131 -0.44225090742111206 0.10192505270242691 -0.04450639709830284 -0.4030369818210602 0.11281074583530426 -0.5117255449295044 0.05857693776488304 0.462545782327652
size -0.18035024404525757 0.061842478811740875 0.1601705700159073 -0.2733195126056671 -0.09187973290681839 0.055392201989889145 -0.11413338035345078 0.0831708312034607 -0.1877375841140747 -0.10746625065803528 0.10925547778606415 0.027259942144155502 0.12923859059810638 0.02808501571416855 0.2778841257095337 -0.18039411306381226 0.112434983253479 -0.28580349683761597 -0.19407819211483002 -0.11299753934144974 0.06622395664453506 -0.20959824323654175 0.09808722883462906 0.07520730793476105 0.06506931781768799 -0.21727772057056427 -0.17518623173236847 -0.013183568604290485 0.09501796960830688 0.473900705575943 0.02120097167789936 -0.2070622742176056 -0.03441191837191582 3.40448779752478E-4 0.04552457481622696 0.0013202977133914828 -0.1134013831615448 -0.16261927783489227 0.14308521151542664 0.16608770191669464 0.04512159153819084 0.10031796246767044 -0.08172547817230225 -0.06253527849912643 -0.024297336116433144 0.10161293298006058 0.06886908411979675 -0.08393529802560806 -0.45971474051475525 -0.09542474150657654 0.09833762049674988 -0.0025999320205301046 -0.24840928614139557 -0.22237181663513184 -0.05045727267861366 -0.06969541311264038 0.11917451024055481 0.18934719264507294 -0.026652399450540543 0.020902615040540695 0.027811719104647636 0.18444210290908813 0.035589493811130524 0.1574663519859314 0.08555232733488083 -0.07692345976829529 0.009868715889751911 0.2591868042945862 0.14623457193374634 0.20220349729061127 0.03181438893079758 0.042169880121946335 0.13334226608276367 0.06313528120517731 -0.010201101191341877 -0.28497961163520813 -0.009747585281729698 0.12125174701213837 0.04780343919992447 0.10574308037757874 -0.1260337382555008 0.24406462907791138 -0.08267941325902939 -0.08916670829057693 -0.07380122691392899 0.1602235734462738 -0.1990063190460205 0.20783013105392456 -0.13791382312774658 -0.05395437404513359 -0.22607067227363586 0.0867002084851265 0.22820259630680084 0.08050546050071716 0.2848561406135559 0.16846537590026855 -0.01704324036836624 -0.2541610896587372 0.06000079959630966 0.09233342856168747
clutch -0.34408706426620483 -0.20349638164043427 0.14309145510196686 -0.017633337527513504 -0.10743357241153717 -0.3040194809436798 -0.10541938990354538 0.27350059151649475 0.46883609890937805 0.2593795657157898 0.43973588943481445 0.683851957321167 0.18239638209342957 -0.22230200469493866 -0.2874147295951843 0.033484023064374924 -0.4952377676963806 0.5461851954460144 -0.1884506344795227 0.5830308198928833 -0.04923967644572258 0.04284951835870743 0.050604283809661865 0.4055090546607971 0.2820192277431488 0.3694806396961212 0.4592198133468628 0.012196837924420834 0.16562332212924957 0.1372186243534088 0.3862151801586151 -0.22414247691631317 0.026950262486934662 0.14435088634490967 -0.2060016244649887 0.02109394036233425 0.4388783574104309 -0.23471404612064362 0.1881904900074005 -0.017535962164402008 0.12091082334518433 -0.4789816737174988 0.23874469101428986 0.3629647195339203 -0.29903170466423035 0.10040754824876785 -0.020886415615677834 0.11175016313791275 -0.20111994445323944 0.10846143960952759 -0.02529481053352356 -0.04083358496427536 -0.18825878202915192 0.004477475769817829 0.1686207801103592 -0.26446017622947693 -0.5098354816436768 -0.12336700409650803 -0.11126409471035004 0.2774965763092041 -0.818718671798706 -0.028536859899759293 0.4578145742416382 0.1372823864221573 0.006209489889442921 0.42258888483047485 0.2813827693462372 -0.2726736068725586 -0.21686561405658722 0.43494507670402527 -0.0026208371855318546 0.29282352328300476 0.10402523726224899 -0.10413803160190582 -0.3276365101337433 0.19797372817993164 0.0997154712677002 0.33965417742729187 -0.03973241522908211 -0.19769221544265747 -0.4669153690338135 -0.3509373068809509 -0.5169878602027893 0.2256135195493698 0.09989133477210999 0.4991663098335266 -0.5143749117851257 0.4035394489765167 -0.05022779852151871 -0.024334285408258438 0.07156800478696823 -0.20658984780311584 -0.08426673710346222 -0.651033878326416 0.33521196246147156 0.11422916501760483 0.2113325148820877 0.3937722444534302 -0.15758241713047028 -0.02965329773724079
temper 0.49772652983665466 -0.2705231308937073 0.23895497620105743 0.2585994303226471 0.4933261573314667 0.310133159160614 0.3216777443885803 -0.19588957726955414 -0.3932356834411621 0.022304780781269073 -0.16678014397621155 -0.18534372746944427 -0.5387062430381775 0.29178228974342346 -0.06976619362831116 -0.027207864448428154 0.08146385103464127 -0.054791372269392014 -0.05316409468650818 0.16716252267360687 0.5064644813537598 0.23317654430866241 -0.36563196778297424 -0.14280734956264496 -0.5452777147293091 -0.007237432058900595 -0.5411557555198669 0.46953511238098145 0.0056735798716545105 0.12290386110544205 0.014524571597576141 -0.44302889704704285 -0.4087434709072113 0.17092546820640564 0.34960001707077026 0.26421037316322327 0.2551169991493225 -0.09144457429647446 0.09071598201990128 -0.5059736371040344 -0.0779736340045929 0.6696447730064392 0.17507970333099365 -0.17868442833423615 0.19456978142261505 -0.0013434495776891708 -0.0010574401821941137 0.4579301178455353 -0.08887852728366852 0.8333687782287598 0.14716468751430511 -0.039434805512428284 -0.01681920513510704 -0.1200074553489685 -0.3248891830444336 -0.20551453530788422 -0.012532993219792843 -0.45576608180999756 0.9001602530479431 -0.5027644038200378 -0.3196488320827484 0.015333465300500393 0.008415735326707363 -0.15642189979553223 -0.4502062201499939 0.045411959290504456 -0.4864084720611572 0.34457045793533325 0.47110819816589355 0.2515251636505127 0.2271287739276886 0.3865974247455597 -0.2332911193370819 -0.11083467304706573 0.09389989823102951 -0.49773624539375305 0.6515409350395203 -0.058205243200063705 -0.29628732800483704 0.06452316790819168 -0.13731135427951813 0.28774312138557434 -0.27603667974472046 0.3947043716907501 -0.18097595870494843 -0.09654611349105835 -0.05729470029473305 0.5414201617240906 0.030159013345837593 0.3596043884754181 0.2429802417755127 0.11196862906217575 0.06225024536252022 0.03995547443628311 -0.13140171766281128 0.16262370347976685 -0.00600703340023756 -0.25829648971557617 0.1993449628353119 0.2826288938522339
evacuate 0.014812144450843334 -0.34276124835014343 -0.5509188771247864 0.46135014295578003 0.38121286034584045 0.18781602382659912 0.17474687099456787 0.28951218724250793 -0.11173011362552643 -0.22984978556632996 0.13657578825950623 -0.0658067911863327 -0.3247300684452057 0.4710922837257385 -0.1934605985879898 -0.21128755807876587 0.4519822299480438 0.461558997631073 0.3131544291973114 0.24743080139160156 0.20847584307193756 0.28732094168663025 -0.2761248052120209 0.09453650563955307 -0.017784370109438896 0.19229015707969666 -0.2312719225883484 0.21380946040153503 -0.5934706926345825 0.11879122257232666 -0.051589787006378174 -0.11910418421030045 -0.1500188410282135 0.45544949173927307 0.3494044244289398 0.2527158260345459 -0.02623496949672699 0.1334892362356186 0.2566421627998352 -0.2580249309539795 0.08867653459310532 0.028115376830101013 -0.4749507009983063 -0.4178643226623535 -0.31249332427978516 0.25975123047828674 -0.5355929136276245 0.3744046092033386 0.2185780256986618 0.007168165873736143 0.4129389524459839 -0.09013257175683975 0.07482124119997025 0.4465806186199188 -0.29277369379997253 0.16304056346416473 -0.32890570163726807 -0.07987075299024582 0.0884728953242302 -0.1728917956352234 -0.030976619571447372 -0.07997164875268936 0.15579739212989807 -0.13690537214279175 0.1725509613752365 0.055388275533914566 -0.02822703868150711 0.24480299651622772 0.1675945222377777 0.3544209897518158 0.05144794285297394 -0.20264913141727448 -0.22112466394901276 -0.13608138263225555 0.2738799452781677 -0.22773423790931702 -0.2881966233253479 0.01963966153562069 0.12695692479610443 0.299419105052948 0.19316795468330383 -0.06417021155357361 0.12117099016904831 0.17567363381385803 0.1672239601612091 0.2430625855922699 -0.1314733326435089 0.35709139704704285 0.021191546693444252 -0.002918000565841794 0.20180828869342804 -0.26113468408584595 0.09893439710140228 -0.3753317892551422 0.1046605259180069 0.21894779801368713 -0.0436035618185997 -0.035722844302654266 -0.3424900472164154 0.06658168137073517
wind 0.3584285080432892 -0.1199871376156807 0.4462924003601074 -0.1926349699497223 -0.30461350083351135 0.18797321617603302 0.07544048875570297 0.24591539800167084 -0.015623703598976135 0.3823399245738983 0.2303711622953415 0.47577589750289917 -0.1511918008327484 -0.16874335706233978 -0.27389049530029297 0.06949382275342941 -0.21133723855018616 0.2245938926935196 -0.1926358938217163 -0.030659327283501625 0.00425232807174325 0.004389283247292042 0.1931576430797577 -0.6602135300636292 0.18749657273292542 -0.1317405104637146 0.36036720871925354 -0.22266988456249237 0.0633724108338356 0.04725370183587074 -0.07731423527002335 0.06593785434961319 -0.2828886806964874 0.28506532311439514 0.2099437117576599 -0.19384098052978516 0.32524922490119934 -0.09407799690961838 -0.04440965875983238 -0.14860746264457703 -0.22104540467262268 0.006466642953455448 0.07544083148241043 -0.1653013527393341 -0.018866896629333496 0.016905060037970543 0.11014902591705322 -0.08098154515028 -0.07041849941015244 0.1704028844833374 0.3289632797241211 -0.42979854345321655 0.11692357808351517 -0.0776350274682045 0.06426269561052322 0.33031100034713745 -0.13634304702281952 -0.08022643625736237 0.0485052689909935 -0.3915614187717438 0.1259051412343979 -0.29072341322898865 -0.020180165767669678 0.2494698017835617 -0.40311360359191895 -0.4148336946964264 -0.03742576017975807 -0.28802037239074707 -0.04318536818027496 -0.1262349635362625 -0.5972209572792053 -0.02307600900530815 0.46472883224487305 -0.010928267613053322 -0.17572325468063354 -0.21108917891979218 0.16598555445671082 0.11493655294179916 -0.12093032896518707 -0.30521273612976074 0.21826736629009247 0.1365727037191391 -0.12645211815834045 -0.16009776294231415 0.03320213034749031 0.6183628439903259 0.022628972306847572 0.39233821630477905 -0.008925458416342735 0.33558931946754456 0.27851712703704834 0.16948983073234558 -0.1836073249578476 -0.30715543031692505 -0.03223302960395813 -0.26679423451423645 -0.12234910577535629 -0.3983224928379059 0.49198806285858154 -0.01215641014277935
hang 0.3188263177871704 0.06439314782619476 0.5313712954521179 0.3333171606063843 0.1499582678079605 0.2769714295864105 -0.3368510603904724 0.08752904087305069 -0.1778986155986786 0.11447976529598236 0.3630334734916687 -0.3043838441371918 -0.15342950820922852 0.17828325927257538 0.042464692145586014 -0.0203571617603302 0.3216090500354767 -0.6265435814857483 -0.12277839332818985 -0.2793358862400055 -0.4112806022167206 0.03641807660460472 -0.10434825718402863 -0.01138301845639944 -0.3343833386898041 -0.07682128995656967 0.066829152405262 -0.09129289537668228 0.29304689168930054 0.19204261898994446 0.2360386997461319 0.23662251234054565 0.08803609013557434 0.050574399530887604 -0.07953712344169617 -0.0381135419011116 -0.19434238970279694 -0.023399868980050087 -0.3777577877044678 -0.05964057520031929 -0.2181512713432312 -0.08883335441350937 0.1637219339609146 -0.34859520196914673 -0.09967190027236938 -0.21016418933868408 0.13782469928264618 -0.2039758414030075 -0.20588833093643188 0.30053281784057617 0.16972476243972778 0.050554677844047546 -0.46649742126464844 0.264678955078125 0.5487593412399292 0.21813839673995972 -0.14992038905620575 0.19498859345912933 -0.13024672865867615 0.029958928003907204 -0.10715001821517944 0.34465765953063965 -0.27402931451797485 -0.03298201411962509 0.07008636742830276 0.1598503291606903 0.192938432097435 0.036547839641571045 0.10732376575469971 0.13147170841693878 -3.8834495353512466E-4 -0.35255110263824463 0.10459741204977036 0.09128573536872864 -0.18074922263622284 0.04545013979077339 0.7933868169784546 -0.12473874539136887 -0.28079017996788025 0.0064956508576869965 -0.33629709482192993 -0.13833649456501007 -0.11866434663534164 -0.22768139839172363 -0.1862705796957016 0.038840435445308685 0.0934656485915184 0.2594164311885834 -0.06195589154958725 0.13306379318237305 -0.08126277476549149 0.07036115229129791 0.41093602776527405 0.013387169688940048 0.32519158720970154 0.2570822834968567 0.042127832770347595 0.0673801526427269 0.2012728601694107 0.0011776662431657314
poise -0.002619753126055002 0.02353614754974842 0.04135415703058243 -0.010785151273012161 -0.00303941173478961 0.03699833154678345 -0.030976055189967155 3.492595278657973E-4 -0.0328100323677063 -0.006181541830301285 -0.04194403812289238 0.02115887776017189 -0.08183754235506058 0.06878002732992172 -0.05155899375677109 -0.015142695046961308 0.0564613901078701 -0.054816145449876785 0.04122496768832207 -0.0059612528420984745 0.14836636185646057 -0.04240693151950836 -0.09319446235895157 0.040044333785772324 0.16332603991031647 2.763576339930296E-4 -0.09765162318944931 0.053919848054647446 0.06509726494550705 0.0040350803174078465 0.10427318513393402 -0.11834739148616791 -0.046751718968153 -0.039695288985967636 -0.06167997047305107 0.029541317373514175 -0.09115252643823624 -0.03130866587162018 0.029356852173805237 -0.03852337226271629 0.08065628260374069 0.003162291832268238 -0.01000694464892149 -0.0968298614025116 0.0467912033200264 0.1002647653222084 -0.008369441144168377 0.08040370047092438 0.039491377770900726 0.007884982042014599 -0.047889385372400284 -0.021250257268548012 -0.024757539853453636 -0.10406768321990967 0.04016241803765297 -0.056467458605766296 -0.03362460434436798 0.01786639168858528 -0.06781283766031265 -0.013434359803795815 0.0705426037311554 0.022406721487641335 -0.013964147306978703 -0.03385673835873604 -0.03883281350135803 0.003215755568817258 -0.09159822016954422 0.10181786864995956 -0.06796246021986008 -0.020400119945406914 -0.04932652413845062 0.10266731679439545 0.15233764052391052 0.04857330024242401 -0.06672310084104538 0.0014618393033742905 0.008511502295732498 0.017098499462008476 -0.03585845232009888 -0.09500637650489807 -0.05589894950389862 0.009069397114217281 0.09898155927658081 0.009094645269215107 -0.028016643598675728 -0.060877129435539246 0.01766166090965271 0.0061922455206513405 -0.028951549902558327 -0.032910969108343124 0.007624745834618807 -0.04121100530028343 0.02566388249397278 0.06960013508796692 -0.06480739265680313 -0.026703983545303345 0.04583404213190079 -0.15217798948287964 -0.08228497952222824 0.016041075810790062
roll 0.34961721301078796 -0.40606561303138733 0.3035004138946533 -0.19995710253715515 -0.3007746636867523 -0.3589847981929779 0.31681668758392334 0.491600900888443 0.1309831440448761 -0.29626384377479553 -0.06833139806985855 0.20670868456363678 -0.39534711837768555 -0.18313361704349518 -0.2327677309513092 0.060634661465883255 0.0563887283205986 -0.009698901325464249 -0.5344692468643188 0.0036795795895159245 -0.16326461732387543 0.11798153072595596 0.15905484557151794 -0.031294893473386765 -0.19014276564121246 0.15524761378765106 -0.16945941746234894 -0.42446333169937134 -0.19079704582691193 0.17343935370445251 0.1304064840078354 -0.03460298851132393 -0.3718727231025696 0.27781033515930176 -0.3970678746700287 -0.03512885794043541 0.09678914397954941 -0.01731710135936737 0.4102150797843933 0.12095366418361664 0.1667005717754364 -0.0013959028292447329 -0.1467190682888031 -0.2325998693704605 -0.02210153266787529 0.268964558839798 0.2636288106441498 0.1897561401128769 0.16481393575668335 -0.25284409523010254 -0.36766889691352844 -0.25401613116264343 0.23494480550289154 -0.1407851278781891 0.014485511928796768 -0.06396418064832687 -0.14347189664840698 -0.38624003529548645 0.04607464745640755 -0.00406819861382246 -0.26483583450317383 0.03862787410616875 -0.4740264415740967 -0.0630674809217453 0.16696517169475555 -0.1533368080854416 0.15286780893802643 0.14159241318702698 0.22630180418491364 -0.017489038407802582 -0.11407576501369476 -0.34602490067481995 0.3547717034816742 0.04134552925825119 -0.07234587520360947 0.0029364789370447397 0.05532222241163254 0.4459417164325714 0.03655172884464264 -0.05226723477244377 0.07746387273073196 -0.047272250056266785 -0.4175507128238678 -0.14845314621925354 0.07831896096467972 0.06081946939229965 0.014859635382890701 0.37702253460884094 -0.3760756254196167 0.11003327369689941 0.10380285978317261 0.09919197857379913 -0.12062910199165344 0.05560338869690895 -0.5686811804771423 0.36514681577682495 0.21441690623760223 -0.19863565266132355 0.282004177570343 -0.0637754499912262
blur 0.13996942341327667 -0.03981252387166023 0.027240050956606865 0.025449205189943314 -0.276383638381958 -0.06398868560791016 0.043517641723155975 0.0846889317035675 0.057265300303697586 0.036560144275426865 0.04152550920844078 0.055585406720638275 -0.006679082289338112 0.028158318251371384 0.02654249034821987 0.0809587612748146 -0.06245175749063492 -0.12078212946653366 -0.017510410398244858 -0.00653921440243721 0.02558731473982334 -0.050529658794403076 -0.08526231348514557 -0.14469340443611145 -0.07855978608131409 -0.13354577124118805 0.03691807761788368 -0.06302052736282349 -0.0017645569751039147 0.11734411865472794 -0.01379057951271534 0.16622987389564514 -0.03338804095983505 0.08328613638877869 0.026873555034399033 -0.015521634370088577 -0.025761324912309647 -0.12048718333244324 -0.0011987712932750583 0.0441448874771595 -0.12479843199253082 -0.051423683762550354 -0.003754505654796958 0.0200527161359787 -0.1366550475358963 -0.024853141978383064 0.14854562282562256 -0.08453724533319473 0.018387390300631523 -0.0639575868844986 -0.05380910262465477 0.024507422000169754 -0.003492180723696947 0.0969957634806633 0.08213189244270325 0.04339386522769928 -0.012966646812856197 0.08231033384799957 -0.013872822746634483 0.13663198053836823 -0.12032201886177063 0.022127928212285042 -0.05625664070248604 0.0836416482925415 0.04224420711398125 0.017190035432577133 -0.0395832322537899 0.001347632729448378 -0.05215086787939072 -0.09627575427293777 0.061320044100284576 0.011990686878561974 -0.04201899841427803 0.14138787984848022 -0.042953528463840485 0.0779322013258934 0.08210373669862747 0.07652819901704788 -0.013370784930884838 -0.047492533922195435 -0.07947354763746262 -0.09709694236516953 -0.13499751687049866 -0.09129685163497925 -0.0037067008670419455 -0.05457230657339096 -0.05084886774420738 -0.15091678500175476 -0.08158174902200699 -0.05033665895462036 0.013849061913788319 -0.032701827585697174 -0.02098485827445984 0.16280782222747803 -0.004334051627665758 0.04404047131538391 -0.010327151045203209 -0.10546935349702835 -0.1147661879658699 0.018571633845567703
turn 0.09460112452507019 -0.03765938803553581 -0.032791029661893845 -0.0329337902367115 -0.10513186454772949 -0.13905856013298035 -0.13007323443889618 0.18782906234264374 0.23988904058933258 -0.029566586017608643 0.05905155465006828 0.08767500519752502 -0.0942494347691536 0.0418514646589756 -0.23379114270210266 0.0753014013171196 -0.10229858756065369 0.015455790795385838 0.03760089725255966 -0.11616340279579163 0.08635815978050232 0.05517052859067917 0.38629013299942017 -0.0858248770236969 0.057832278311252594 0.01080704852938652 0.37971219420433044 0.09706324338912964 0.11319505423307419 0.2169482558965683 -0.12590110301971436 0.005895446054637432 0.0019767514895647764 -0.05810127034783363 0.0339624397456646 -0.14689649641513824 -0.0068618739023804665 0.1504114419221878 -0.03844747319817543 -0.054994747042655945 0.10332188755273819 -0.15340635180473328 0.26997923851013184 0.12061107903718948 0.07380141317844391 -0.13815909624099731 0.009274736046791077 -0.1744948774576187 0.22329778969287872 -0.0244121216237545 0.16759754717350006 0.07813900709152222 -0.05734386295080185 -0.0168613288551569 0.05612404644489288 0.06525100022554398 -0.12520314753055573 0.07806991785764694 0.1327226608991623 -0.16185711324214935 0.02276468090713024 0.04916385933756828 -0.00729767931625247 0.03301895037293434 -0.2500012218952179 -0.14632432162761688 0.05206916481256485 -0.08018055558204651 -0.005549601744860411 -0.313863068819046 0.08690676093101501 -0.0514419823884964 0.2323119193315506 -0.16824358701705933 -0.14178510010242462 0.03129012882709503 -0.0056683337315917015 -0.14924804866313934 0.004223740193992853 -0.13378041982650757 -0.08289923518896103 0.006638945546001196 -0.035359278321266174 0.08146242052316666 -0.1505471020936966 0.026856297627091408 0.012713930569589138 0.1237083375453949 -0.07670646905899048 0.03473097085952759 -0.018113497644662857 0.022089127451181412 0.03154817223548889 0.021837454289197922 0.06355298310518265 0.06975582242012024 -0.17546963691711426 -0.12378896772861481 0.08464664965867996 -0.2170800417661667
adduct -0.2276058942079544 -0.06800815463066101 0.058627814054489136 0.007383063901215792 -0.054013486951589584 -0.04601035639643669 0.1712034046649933 0.11529655009508133 -0.17614391446113586 0.05887860059738159 -0.3860325813293457 -0.12152668833732605 -0.23455341160297394 0.29007139801979065 0.11800966411828995 0.1896539032459259 0.4098232686519623 0.22448749840259552 0.08967980742454529 0.2033216655254364 0.2958032488822937 0.12188179790973663 -0.06057604029774666 -0.13168828189373016 0.1882110983133316 0.12607182562351227 -0.06751450896263123 0.12441635876893997 -0.02351018413901329 -0.009627406485378742 0.12590578198432922 -0.11754349619150162 -0.07655762135982513 -0.1292211413383484 -0.15839582681655884 0.04321815446019173 -0.23882195353507996 -0.09068833291530609 -0.2330453246831894 0.1263134777545929 0.23833248019218445 0.255564421415329 -0.015949202701449394 -0.27281153202056885 0.035416439175605774 0.16397838294506073 -0.04555298388004303 0.1712498664855957 0.07019121944904327 0.14742493629455566 0.007705856580287218 -0.18632268905639648 -0.24938669800758362 -0.10766120254993439 0.1830221563577652 -0.16497455537319183 -0.06669172644615173 0.09910600632429123 -0.08165594190359116 0.10424435138702393 0.02563067339360714 0.06172766163945198 0.11076374351978302 -0.009287947788834572 0.37659603357315063 0.06326990574598312 -0.17071962356567383 0.12782002985477448 0.03230611979961395 -0.13442079722881317 -0.29569682478904724 0.242837056517601 -0.047050591558218 0.09735721349716187 0.17547360062599182 -0.16013363003730774 0.06980328261852264 -0.042262330651283264 -0.09895654022693634 -0.02614654414355755 -0.22262680530548096 0.29771390557289124 0.21637551486492157 0.1717802882194519 -0.14804522693157196 0.32069286704063416 -0.06544029712677002 0.01329774409532547 -0.08786525577306747 0.002696098294109106 -0.06771890819072723 -0.41575148701667786 -0.060003913938999176 -0.12329370528459549 -0.13752005994319916 -0.052556853741407394 0.06140363588929176 -0.2492845505475998 -0.012967494316399097 -0.06963691860437393
evaporate 0.3102782666683197 -0.48036497831344604 0.3028021454811096 0.19364960491657257 -0.3311063051223755 -0.23989979922771454 -0.20748351514339447 -0.2226804792881012 0.1242213025689125 0.32556936144828796 -0.25085994601249695 -0.22714363038539886 -0.16679194569587708 0.06317438185214996 0.2427154779434204 0.30295759439468384 -0.06271059066057205 0.034709397703409195 0.3643397390842438 -0.303458034992218 -0.03145806863903999 -0.1069004088640213 -0.29084014892578125 0.316956102848053 -0.2001035213470459 -0.47032082080841064 -0.5643355846405029 0.10843440890312195 -0.13633663952350616 0.29836976528167725 -0.29090288281440735 -0.16089606285095215 0.15496943891048431 -0.008944325149059296 -0.2686821222305298 0.4109417498111725 0.026635000482201576 -0.07755871117115021 0.03404117748141289 -0.07276509702205658 -0.19726666808128357 1.0017361640930176 0.11623451858758926 -0.3130459785461426 0.6304346323013306 0.8255372047424316 -0.5482053756713867 0.12061105668544769 -0.006116827018558979 0.6165993809700012 0.6967617869377136 0.09606862813234329 -0.4738297462463379 -0.31053268909454346 -0.33612990379333496 -0.07292356342077255 -0.040239155292510986 0.04544627666473389 -0.45973098278045654 -0.3460225462913513 -0.11343440413475037 -0.22048893570899963 -0.3688782751560211 -0.3084924817085266 -0.22515276074409485 0.34011009335517883 -0.032302338629961014 -0.06103817746043205 -0.11576496064662933 0.0017062071710824966 -0.7091488242149353 0.28472307324409485 0.396758496761322 -0.39048269391059875 0.4074800908565521 -0.06064514443278313 0.30444884300231934 -0.789927065372467 -0.06171547621488571 0.013755684718489647 0.1559416502714157 0.5217553973197937 0.5301980376243591 0.651753842830658 0.3106497526168823 0.13435089588165283 -0.19413001835346222 0.1925165206193924 -0.047166548669338226 -0.1578618288040161 -0.04215603694319725 -0.2553190290927887 0.19958770275115967 -0.16432830691337585 0.18067900836467743 0.3369436264038086 0.0926341786980629 0.25292521715164185 -0.1305847018957138 0.462392657995224
quiet -0.28721195459365845 -0.486296683549881 0.2632949650287628 -0.08872365951538086 -0.014610633254051208 -0.401516318321228 -0.16180889308452606 0.1842075139284134 0.29250839352607727 -0.21138980984687805 0.044517405331134796 -0.018858086317777634 0.06087426841259003 -0.1209699884057045 -0.2571012079715729 -0.24855327606201172 -0.267528772354126 0.09730858355760574 -0.4054996371269226 0.0029039373621344566 0.15360873937606812 -0.12131515890359879 -0.12859655916690826 -0.10397326946258545 -0.32271555066108704 0.4187897741794586 0.036145202815532684 -0.6353382468223572 -0.45800381898880005 -0.07079733163118362 0.5592877268791199 0.048413414508104324 0.3026540279388428 0.289877712726593 0.20058675110340118 -0.06114152818918228 0.1900639683008194 -0.3086932897567749 0.04839744791388512 0.17522548139095306 -0.2270679920911789 0.1888018101453781 0.1432487815618515 -0.24932849407196045 -0.2281988561153412 -0.37116727232933044 -0.41038721799850464 0.348657488822937 -0.03684915229678154 0.04671190306544304 0.28506597876548767 -0.08508256822824478 0.1898401379585266 -0.17078404128551483 -0.2773762047290802 0.1142183393239975 0.44660285115242004 -0.29490816593170166 0.05586528778076172 -0.34152165055274963 0.02256583794951439 0.3286879062652588 -0.1611885279417038 -0.4028485119342804 0.2964025139808655 -0.03311524912714958 0.28861430287361145 -0.09096420556306839 -0.09972608089447021 -0.1351432502269745 -0.08759479224681854 0.6793854236602783 0.1134800910949707 -0.38328391313552856 0.21092596650123596 -0.5698021054267883 -0.0771898552775383 0.19516690075397491 -0.20628993213176727 0.18205806612968445 0.1189204603433609 0.45688390731811523 0.28796204924583435 0.09506663680076599 -0.03341643884778023 0.12520579993724823 0.1058606505393982 0.036051396280527115 -0.3780519366264343 0.21592655777931213 -0.2792976200580597 -0.5907630920410156 0.00799674540758133 0.034567832946777344 -0.11792594939470291 -0.20815642178058624 -0.2029353231191635 -0.1454468071460724 0.07128492742776871 0.3026477098464966
incapacitate -0.02807496301829815 5.593482637777925E-4 0.010453293099999428 -0.01379542239010334 0.042030900716781616 -0.03410881385207176 0.009247452020645142 0.023083748295903206 -0.007234550546854734 0.0607566237449646 0.0016197189688682556 0.02645702101290226 -0.04019265994429588 0.02435838058590889 0.04015159234404564 -9.50175104662776E-4 0.04182751476764679 -0.0012308433651924133 0.032117731869220734 -0.002575515303760767 0.07005710899829865 0.006727991160005331 -0.008811797946691513 -0.013905505649745464 -0.006181550212204456 0.05067694932222366 -0.052053626626729965 -0.030565278604626656 -0.0029482936952263117 -0.002594747580587864 0.050768960267305374 0.0712469145655632 0.051695000380277634 -0.011515235528349876 -9.061052114702761E-4 -0.032314203679561615 -0.01262715645134449 0.023747649043798447 -0.04069980978965759 0.030438777059316635 0.023561682552099228 0.0012399443658068776 -0.020474182441830635 -0.039918843656778336 -0.013214802369475365 0.011019262485206127 -0.017274560406804085 -0.024249233305454254 0.005133075639605522 0.008785380981862545 -0.021715937182307243 0.021399537101387978 -0.03800230100750923 0.04705917090177536 -0.02796691097319126 -0.012413172982633114 0.004432314541190863 -0.035771772265434265 -0.05116647109389305 0.016210608184337616 -0.04670702666044235 0.04914506524801254 -0.0033516893163323402 -0.010710149072110653 -0.010752820409834385 -0.02289728634059429 0.04117254167795181 0.03306267410516739 -0.024622449651360512 -0.04257551208138466 0.02000276930630207 -0.005601978860795498 0.030178314074873924 -0.07794053107500076 -0.0033843524288386106 0.052971936762332916 -0.03941590338945389 -0.008994235657155514 0.016908012330532074 -0.01805737428367138 -0.05255982652306557 0.0324116013944149 -0.00911172479391098 0.04836837947368622 0.014667519368231297 0.05445132404565811 -0.007709664758294821 0.062138743698596954 0.03830447420477867 0.005521930754184723 0.004789744969457388 -0.008230788633227348 0.020636294037103653 -0.05609641969203949 0.019863687455654144 -0.03088667429983616 -0.0027384613640606403 -0.04188338667154312 -0.011427029967308044 -0.005480542778968811
flip 0.21498261392116547 0.10230078548192978 0.18343161046504974 -0.12807698547840118 0.09022479504346848 -0.10195013880729675 0.29818105697631836 0.3033313751220703 0.09016797691583633 0.15967759490013123 -0.05050182342529297 -0.018994834274053574 -0.05050155520439148 -0.29139113426208496 0.14658929407596588 0.14014561474323273 -0.4248921871185303 -0.060061465948820114 0.43745920062065125 -0.31042397022247314 0.10856633633375168 0.2554609775543213 0.1466391682624817 -0.43696632981300354 -0.1381118893623352 -0.20387457311153412 0.07532288134098053 0.1017516478896141 0.23392681777477264 0.20845070481300354 -0.060654014348983765 -0.003557499498128891 -0.1021483764052391 0.04953779652714729 0.1394614428281784 -0.050243135541677475 0.3059762418270111 -0.1618950515985489 0.21917101740837097 0.0046651363372802734 0.17497676610946655 0.011541914194822311 0.25192710757255554 0.21600981056690216 -0.21752877533435822 -0.18290039896965027 0.29800093173980713 -0.17359097301959991 -0.30862459540367126 -0.1299590915441513 0.09764930605888367 -0.03385807201266289 -0.341839075088501 0.3842553198337555 0.37803202867507935 0.36136963963508606 0.13110490143299103 0.13036976754665375 -0.043211568146944046 -0.056362103670835495 -0.013726907782256603 0.24106356501579285 0.18841268122196198 0.09073283523321152 0.36656004190444946 0.07076529413461685 0.10852120071649551 -0.34473782777786255 -0.024006295949220657 -0.29923519492149353 -0.14232522249221802 -0.09823586046695709 0.4400600790977478 -0.09433606266975403 0.16152232885360718 0.38671550154685974 0.06681343168020248 -0.13673566281795502 0.1257908195257187 0.10433363914489746 -0.4645845890045166 0.044228073209524155 -0.16488498449325562 -0.103939488530159 0.14249543845653534 0.2815227210521698 0.2988395690917969 0.13102620840072632 -0.08397315442562103 0.11234887689352036 -0.17623117566108704 0.20476187765598297 0.015006481669843197 0.26443448662757874 0.05231476575136185 0.21401676535606384 -0.19190526008605957 -0.5708706974983215 -0.0021101960446685553 0.06077016517519951
connect 0.11591197550296783 -0.037232931703329086 0.07982100546360016 -0.1625157743692398 -0.12252325564622879 -0.13031572103500366 -0.1301506906747818 -0.08270300179719925 0.11683551222085953 0.0977630764245987 0.05357420817017555 -0.08255469799041748 0.10675345361232758 -0.15124976634979248 -0.061191484332084656 -0.13474467396736145 0.01677480712532997 -0.06899109482765198 -5.024754791520536E-4 0.010746361687779427 -0.13423234224319458 -0.01973412185907364 -0.056727319955825806 -0.06249414011836052 0.002056037075817585 0.12505877017974854 0.13149107992649078 0.6044182181358337 0.15097655355930328 0.13701596856117249 -0.22485004365444183 -0.013883265666663647 0.27210545539855957 -0.01622724160552025 -0.09745379537343979 -0.09085170179605484 -0.24138179421424866 0.0404910184442997 -0.4014491140842438 -0.2903434634208679 -0.026413748040795326 -0.1920442432165146 -0.012053260579705238 -0.15077701210975647 -0.14039352536201477 -0.20094946026802063 0.270293265581131 0.13565640151500702 0.19743381440639496 0.09339629113674164 0.08792801201343536 -0.22589270770549774 0.2351413369178772 0.5802961587905884 0.039560407400131226 0.016649270430207253 0.06682461500167847 -0.1195480078458786 0.15266053378582 0.10349880158901215 -0.03440489619970322 -0.33319440484046936 -0.10960547626018524 -0.26795366406440735 -0.16216285526752472 -0.020156502723693848 -0.34999939799308777 0.3053145408630371 0.4237881004810333 -0.006366370711475611 0.20964814722537994 -0.12007042020559311 -0.08223553001880646 0.16899201273918152 -0.23892930150032043 -0.020037934184074402 0.014609308913350105 -0.06747268885374069 -0.08538490533828735 -0.06067347154021263 -0.1900883913040161 0.09380725771188736 -0.15965916216373444 0.20854169130325317 -7.201763801276684E-4 -0.007080055773258209 0.03933590278029442 0.22081151604652405 0.01484630350023508 0.030831564217805862 -0.29418039321899414 0.06498927623033524 0.07407897710800171 -0.1690685898065567 -0.02673911117017269 -0.1926647126674652 -0.001672181999310851 -0.1186060979962349 0.320948988199234 0.10886455327272415
resume -0.549113929271698 0.5800384283065796 -0.25756576657295227 -0.20169177651405334 -0.12037637829780579 -0.08816713839769363 -0.22474011778831482 0.25771743059158325 0.2801874577999115 -0.14910076558589935 0.18122701346874237 0.1427282840013504 0.010087518952786922 -0.04223009571433067 0.42523816227912903 0.20737844705581665 0.1822819709777832 -0.08495510369539261 0.16183392703533173 -0.4681829512119293 0.47202834486961365 0.44453364610671997 -0.02480134554207325 -0.1934271603822708 -0.09095299988985062 -0.008920216001570225 -0.18875820934772491 -0.15983706712722778 -0.0055273291654884815 8.604595786891878E-4 -0.46501991152763367 0.2904815375804901 0.20328429341316223 -0.26588770747184753 -0.10111432522535324 0.5615221858024597 -0.07487880438566208 -0.1839994490146637 0.391958087682724 0.19303961098194122 0.3174343407154083 0.2667568624019623 -0.0546603724360466 0.3834812343120575 0.2501327693462372 0.5362614393234253 0.14120124280452728 0.048714637756347656 0.2414882779121399 -0.030211297795176506 0.16660180687904358 -0.19761881232261658 -0.3313463628292084 -0.1209377720952034 -0.20462468266487122 -0.28572168946266174 0.15971262753009796 -0.13444294035434723 0.024424336850643158 -0.4349471628665924 0.04708538576960564 -0.17163507640361786 -0.09865752607584 0.05037793517112732 0.24594007432460785 0.11667174100875854 0.07879648357629776 -0.7466611862182617 -0.15583911538124084 -0.2530454099178314 -0.34267881512641907 0.2792274057865143 0.2337763011455536 -0.641414999961853 -0.00951711181551218 0.00444825878366828 -0.46916255354881287 -0.23074683547019958 -0.04296337068080902 -0.20218166708946228 -0.39655911922454834 -0.07520223408937454 0.1775979995727539 -0.2034941166639328 -0.4596307575702667 0.47168976068496704 0.24995818734169006 0.28600749373435974 0.07716862857341766 0.36562448740005493 -0.18060070276260376 0.2709251940250397 0.025107307359576225 -0.3697965443134308 0.5080034732818604 0.09393128007650375 -0.057983193546533585 0.12936438620090485 -0.05781474709510803 0.11981865018606186
sharpen 0.424152672290802 0.3326142728328705 0.13498654961585999 -0.3125491142272949 0.1346067637205124 -0.1787024736404419 -0.10395783931016922 0.08649037033319473 0.14585424959659576 -0.5132099986076355 0.3714309334754944 -0.17070694267749786 -0.00440189428627491 -0.12166894227266312 -0.12984484434127808 0.1273021697998047 -0.06842643022537231 -0.3580170273780823 0.18415768444538116 -0.21311140060424805 0.07709241658449173 0.16723211109638214 0.4142689108848572 -0.6256639361381531 0.2500714957714081 0.36795228719711304 0.23967985808849335 -0.4849089980125427 -0.12973804771900177 -0.13239800930023193 0.5256567597389221 0.06352952122688293 0.10014382004737854 -0.1327948272228241 -0.11413437873125076 0.11658892035484314 -0.3948812186717987 -0.03296707943081856 -0.5348579287528992 -0.004238735418766737 0.07739150524139404 0.22375158965587616 -0.03973100706934929 -0.609958291053772 -0.2110947221517563 0.0064493389800190926 0.47882139682769775 -0.3002738952636719 -0.02778780646622181 0.434294193983078 -0.06534965336322784 -0.573213517665863 0.2877101004123688 -0.16917285323143005 -0.00378232030197978 0.14702004194259644 -0.36735519766807556 0.04749441519379616 0.22728495299816132 -0.16274484992027283 -0.4186317026615143 -0.11247970163822174 -0.20254085958003998 0.07364313304424286 -0.06426029652357101 -0.29820534586906433 0.24916942417621613 -0.26671120524406433 0.2619251012802124 0.089553602039814 0.14392521977424622 -0.18844467401504517 -0.2156696617603302 0.12467674911022186 -0.08938010036945343 0.09633085876703262 0.33749911189079285 0.26710280776023865 -0.12053900957107544 0.47504499554634094 -0.2604953944683075 -0.020550377666950226 -0.3757374882698059 0.30764704942703247 -0.13031162321567535 -0.01731214113533497 -0.1322672963142395 0.1609961986541748 0.012530374340713024 0.11602342873811722 0.0595940425992012 -0.18676483631134033 -0.0010476302122697234 0.42465731501579285 0.23507605493068695 0.1488611102104187 -0.08033081144094467 -0.09401265531778336 0.41960662603378296 0.16583546996116638
denature 0.0013117012567818165 -0.0012840693816542625 -0.001249650027602911 -0.0021740635856986046 -0.0015249729622155428 0.003887196769937873 -0.003056142246350646 0.002779618604108691 -0.004600681830197573 0.0031970737036317587 0.00473379110917449 -4.533028186415322E-5 0.002998069627210498 0.0011279265163466334 5.768223782069981E-4 0.001445227419026196 0.004641300532966852 0.003339240327477455 -0.0016801805468276143 9.194002486765385E-4 0.0025143709499388933 0.0038923125248402357 4.38081769971177E-4 0.0019832111429423094 -0.0033732554875314236 0.0041573806665837765 0.002512413077056408 -0.005110828205943108 -0.0012146647786721587 -8.869035518728197E-4 -8.370746509172022E-4 0.0028766938485205173 0.004684820305556059 -0.004576121922582388 -9.325817227363586E-4 0.0023541441187262535 -8.196531780413352E-6 -9.86343016847968E-4 -0.002473473083227873 -0.002557177795097232 -5.934858345426619E-4 -0.003497570753097534 2.9387310496531427E-4 -0.004910341929644346 0.001167186419479549 0.0032901999074965715 0.0023171526845544577 0.002559146611019969 4.1563360719010234E-4 0.002835130551829934 -0.0020961149130016565 -0.0010524052195250988 -1.752999669406563E-4 0.004217068664729595 -0.005016340408474207 0.0018779271049425006 -0.0037645602133125067 -0.003517584875226021 0.002375677227973938 -0.0030322205275297165 0.003168141935020685 0.004199311602860689 -0.0022331394720822573 -0.0035927228163927794 -0.004276777617633343 5.795803153887391E-4 3.7594634341076016E-4 7.124406401999295E-4 -0.004153869580477476 0.002022826811298728 -0.0035638336557894945 8.293365826830268E-4 0.001541716861538589 -0.0034709095489233732 0.003988821525126696 0.004908897448331118 -0.0038966003339737654 -0.0017511288169771433 -0.002298118779435754 9.277627104893327E-4 9.285778651246801E-5 -0.0037347464822232723 -0.00128940399736166 -9.154216968454421E-4 -0.0028389249928295612 7.651132182218134E-5 0.0012823285069316626 4.50055580586195E-4 -0.004684016108512878 -7.372821564786136E-4 -0.0016462064813822508 -0.004838692024350166 3.002402954734862E-4 0.0032638125121593475 0.003970134537667036 -0.004183904267847538 5.676515866070986E-4 -0.0017365734092891216 0.002854639431461692 0.0020339039620012045
posture 0.00661836564540863 0.02832486480474472 0.07934010028839111 0.33524376153945923 0.21455079317092896 0.3203645348548889 0.2620018422603607 0.2766719162464142 -0.07022840529680252 -0.22074465453624725 -0.0629306510090828 -0.09769365936517715 -0.03375449404120445 -0.043224021792411804 0.08792974799871445 -0.16646069288253784 -0.06360407173633575 -0.12571458518505096 -0.04151153936982155 0.035131122916936874 -0.23148179054260254 0.0647861510515213 -0.024047864601016045 -0.16209934651851654 -0.14713804423809052 0.037540700286626816 -0.22553957998752594 -0.09989725798368454 0.2938835024833679 -0.009294695220887661 0.09139077365398407 0.06733070313930511 -0.23743116855621338 -0.1326199769973755 0.12347950041294098 0.2960936725139618 -0.14187106490135193 0.006050393916666508 0.05323855206370354 -0.2564755380153656 0.16796061396598816 0.40515807271003723 0.13266484439373016 0.18504996597766876 0.03627459332346916 0.10505713522434235 -0.11531175673007965 -0.1098838672041893 0.06157242879271507 0.05186392739415169 -0.20551136136054993 -0.27510878443717957 -0.12111445516347885 0.25192317366600037 0.0978366807103157 -0.053832415491342545 -0.06826351583003998 -0.08376812934875488 -0.3892761170864105 -0.29060134291648865 -0.08879590779542923 -0.050204500555992126 -0.09419688582420349 -0.15518493950366974 -0.15129998326301575 -0.2590286433696747 0.23403087258338928 -0.2034020721912384 -0.0391920730471611 -0.20833611488342285 0.06693585216999054 -0.1369398534297943 -0.2094106525182724 -0.2712901830673218 -0.12320385128259659 0.04576386883854866 0.18274469673633575 0.13066953420639038 0.01722249947488308 0.05971253663301468 -0.10353200137615204 -0.04451844468712807 -0.1169930100440979 -0.029762063175439835 0.06136214733123779 0.08854471147060394 0.10442186146974564 0.24382057785987854 0.05237354338169098 0.17159239947795868 0.007553200703114271 0.10178082436323166 -0.07586776465177536 0.03680035471916199 0.19570812582969666 0.4005097448825836 -0.02710033766925335 -0.43604832887649536 0.17117677628993988 -0.19893352687358856
spiral 0.33763742446899414 -0.27387750148773193 0.09887237846851349 -0.4400109052658081 -0.08540912717580795 -0.06305393576622009 -0.0739411860704422 -0.03892040625214577 -0.08985792845487595 -0.6768839359283447 -0.05621138587594032 0.00740925595164299 0.0896194577217102 -0.3158026337623596 0.1881275475025177 0.23503759503364563 -0.271945059299469 -0.08035746216773987 -0.18520255386829376 -0.1262385994195938 0.028866030275821686 -0.016890492290258408 0.4924337863922119 -0.32477888464927673 0.10110552608966827 0.501445472240448 0.07879704982042313 0.2777562737464905 -0.35501471161842346 0.2470017969608307 -0.23891372978687286 -0.05309276655316353 3.155717859044671E-4 -0.09383329749107361 0.5579373240470886 -0.03238371014595032 0.28055548667907715 0.2313893884420395 0.29103347659111023 0.20185688138008118 0.2438594549894333 0.22902946174144745 0.13940945267677307 -0.2226649820804596 0.39159566164016724 -0.02243134379386902 0.28758078813552856 0.11307394504547119 0.27136704325675964 -0.1655823290348053 0.38641518354415894 -0.10310086607933044 0.09567730128765106 -0.02444385550916195 0.1931375116109848 -0.13668642938137054 -0.37588632106781006 0.13162656128406525 0.710854172706604 0.3993142247200012 -0.051083534955978394 0.1480615735054016 0.15575724840164185 -0.1218419149518013 -0.18299345672130585 0.18092909455299377 -0.007499584928154945 0.25073522329330444 -0.08921752870082855 -0.10332248359918594 -0.008889692835509777 -0.286159485578537 -0.20144300162792206 -0.13489936292171478 0.1954098343849182 -0.09729382395744324 0.2351582944393158 0.3412192165851593 -0.09793321043252945 0.0824337750673294 0.07510972023010254 0.056095536798238754 -0.273918479681015 -0.24331368505954742 -0.5219001770019531 -0.1655104011297226 -0.02716289460659027 0.0684845969080925 -0.1003376767039299 0.07470177859067917 0.10094302147626877 -0.16839057207107544 -0.21618792414665222 0.17470303177833557 -0.35230350494384766 -0.46687066555023193 0.5249083638191223 -0.07966277748346329 0.21395385265350342 0.122092105448246
metabolize -0.0015893179224804044 0.0036749267019331455 -0.004141353070735931 -0.0021488626953214407 0.002206738805398345 3.192271979060024E-4 6.440637516789138E-4 -2.0553117792587727E-4 0.002310178941115737 0.001280260388739407 -4.293456149753183E-4 -0.00452253594994545 0.0019163632532581687 0.0023743624333292246 0.002208409598097205 0.0013570094015449286 0.0030351653695106506 0.003994460683315992 0.0057067531161010265 -0.003570185275748372 -0.005095860920846462 -0.002421207493171096 -0.0038812479469925165 0.0024749068543314934 -0.0021227491088211536 0.0028279570396989584 -1.5546026406809688E-4 0.0026945292484015226 2.7647565002553165E-4 -0.0037578875198960304 0.0040437765419483185 0.004362004343420267 -2.0808681438211352E-4 -2.235294959973544E-5 -0.0025436407886445522 -0.004000818356871605 -0.002489472972229123 0.0026226788759231567 -0.004665680695325136 -0.0038736741989851 0.004262211266905069 -0.004275709856301546 -0.0024584897328168154 -0.004827494267374277 -0.004300088621675968 5.879870732314885E-4 0.003978278953582048 0.0013404968194663525 -0.002400544937700033 -0.003310682252049446 -0.0028379540890455246 0.002359857549890876 9.77442949078977E-4 0.0021101334132254124 0.0033866523299366236 -0.0017705103382468224 -4.211778868921101E-4 0.0022917157039046288 7.962395320646465E-4 -0.0015999613096937537 -0.0013989501167088747 0.0025347224436700344 -0.0011832702439278364 0.004012362100183964 0.004651193041354418 0.0020118297543376684 -0.0018752925097942352 -9.096740395762026E-4 0.0019345444161444902 -0.002791979117318988 -0.003443269059062004 -0.0035861406940966845 0.0026441861409693956 4.5688686077483E-4 0.004922880791127682 -4.0224374970421195E-4 -8.191136294044554E-4 -0.004070001188665628 0.004319608211517334 -0.004435985814779997 -0.00258648581802845 -0.004300881642848253 9.316681534983218E-4 -0.0042033265344798565 -0.001956439111381769 1.2880541908089072E-4 0.004163920413702726 0.0021002497524023056 0.0010019835317507386 0.004040582105517387 0.004897332284599543 -1.2990075629204512E-4 0.0025789192877709866 -6.373083451762795E-4 -4.891103017143905E-4 -0.0011465497082099319 -5.00793285027612E-5 -0.003001417964696884 -0.003203738946467638 -9.470294025959447E-5
excavate 0.2505635917186737 0.12717720866203308 0.1623629331588745 -0.0024073089007288218 0.08956749737262726 0.0064992099069058895 -0.07511406391859055 0.07921694964170456 -0.060326337814331055 -0.06318141520023346 0.3402162492275238 -0.2918303310871124 0.03676221892237663 -0.11740069836378098 -0.049418140202760696 -0.05114774778485298 0.04447280988097191 -0.052396081387996674 0.45973026752471924 -0.014456164091825485 0.09328783303499222 -0.24872179329395294 -0.16039519011974335 0.08020143210887909 -0.03826737031340599 -0.1336001306772232 -0.14561840891838074 -0.09344746917486191 0.007351248525083065 0.10701251029968262 0.0922197625041008 0.12701940536499023 0.14320038259029388 0.027653004974126816 0.248004749417305 0.004190378822386265 0.22519786655902863 -0.0898406058549881 -0.005640906281769276 -0.1905834674835205 -0.18514767289161682 0.17588481307029724 -0.26424387097358704 0.019660282880067825 -0.02246645838022232 0.06949174404144287 -0.22653935849666595 -0.28409022092819214 0.10713386535644531 0.0995962992310524 -0.03833094984292984 0.17794501781463623 0.04947362840175629 0.08977284282445908 0.0583515465259552 0.12042296677827835 -0.0730324387550354 -0.04330941289663315 0.29576846957206726 -0.020857417955994606 0.010629788041114807 0.019535640254616737 -0.2197011411190033 0.1967860907316208 -0.013318800367414951 -0.27768611907958984 -0.02104644849896431 0.08898928016424179 0.027394775301218033 -0.21811960637569427 -0.16465771198272705 -0.18662860989570618 0.1468786597251892 5.243172054179013E-4 -0.1036304235458374 0.09350202232599258 0.12203973531723022 0.12304864823818207 -0.1322266012430191 0.07480422407388687 -0.1879729926586151 -0.01745089702308178 0.010982241481542587 0.1507379114627838 0.010290040634572506 -0.047486115247011185 -0.1748385727405548 0.053660858422517776 -0.24599634110927582 0.035573478788137436 0.16984158754348755 0.07077572494745255 0.13712044060230255 0.09476093202829361 0.10821211338043213 0.014150824397802353 -0.09697918593883514 -0.13914453983306885 0.006650030147284269 0.19109272956848145
wipe -0.011134307831525803 -0.5109280347824097 0.19213342666625977 0.1454201191663742 -0.4690912961959839 -0.14222583174705505 0.2603338062763214 0.16795171797275543 -0.15586735308170319 -0.3039045035839081 -0.17667394876480103 -0.19486238062381744 -0.06639823317527771 -0.09966892004013062 -0.5897966623306274 -0.01674526371061802 -0.3119160234928131 -0.18247629702091217 -0.4324086606502533 -0.27390825748443604 -0.1969800740480423 -0.31351935863494873 0.04059779271483421 0.04925426095724106 -0.14422811567783356 0.26807108521461487 -0.393514484167099 0.12785932421684265 -0.17891325056552887 -0.17302073538303375 -0.2432933747768402 -0.19473451375961304 -0.15852852165699005 0.2438502013683319 -0.04740412160754204 0.08658803999423981 -0.2536593973636627 -0.4222945272922516 0.2739992141723633 -0.38451552391052246 -0.2457769513130188 -0.13922065496444702 0.02807016670703888 -0.3574081361293793 0.4258285164833069 0.49550509452819824 -0.3579159080982208 -0.246538907289505 0.41778817772865295 -0.13536842167377472 0.045744191855192184 -0.2913501560688019 0.3507362902164459 0.24182815849781036 0.054199885576963425 0.20460261404514313 0.020789537578821182 -0.6786478757858276 -0.24781979620456696 -0.38769304752349854 -0.15244700014591217 -0.47189220786094666 -0.2754894495010376 0.037571072578430176 -0.025797829031944275 -0.4122743606567383 -0.27085569500923157 -0.09769308567047119 -0.2576931118965149 0.00435084430500865 -0.20020224153995514 -0.3001735508441925 0.39209502935409546 -0.2873725891113281 -0.5250709056854248 -0.0144041171297431 -0.37709924578666687 -0.3377057611942291 -0.09723489731550217 0.3273093104362488 -0.1701693832874298 -0.031737424433231354 -0.5308998823165894 -0.3354896008968353 0.28853777050971985 -0.1528862565755844 -0.5330739617347717 -0.24171629548072815 -0.0663580447435379 0.17140591144561768 -0.3430623710155487 0.20423966646194458 -0.26538264751434326 0.1034187525510788 0.17016586661338806 0.03938546031713486 0.053270842880010605 -0.5549659132957458 -0.13309498131275177 -0.0379641056060791
halt -0.11236804723739624 0.16143053770065308 -0.2849574089050293 0.12207551300525665 0.2553679049015045 0.24074847996234894 -0.06205475330352783 0.1150617003440857 0.007101707626134157 -0.17530931532382965 0.039217863231897354 0.21192827820777893 0.04407014697790146 0.203529953956604 -0.36769798398017883 -0.020119456574320793 -0.43759316205978394 -0.08104915916919708 0.5214210152626038 -0.20673587918281555 0.3182958662509918 0.1788332313299179 0.3356931507587433 -0.040126312524080276 0.24158965051174164 0.22828863561153412 -0.1868407428264618 -0.36354750394821167 0.055264540016651154 0.011586117558181286 0.13308817148208618 0.057512637227773666 0.2840116620063782 -0.08514028042554855 0.4088761508464813 0.34910428524017334 -0.5382784605026245 0.1294834166765213 0.30859771370887756 -0.007350502070039511 0.32192593812942505 -0.3556169271469116 0.4866046607494354 0.19159652292728424 -0.27095603942871094 0.037675075232982635 0.08943016082048416 0.2379026859998703 0.36323803663253784 -0.06378371268510818 0.19012905657291412 -0.11265780031681061 0.4214302897453308 0.15723252296447754 -0.30092450976371765 0.049947358667850494 0.060699593275785446 -0.16439512372016907 0.036940108984708786 -0.25520774722099304 -0.036160293966531754 -0.22530293464660645 0.353494793176651 0.16070163249969482 -0.202265664935112 0.14301329851150513 0.22980116307735443 -0.2583942711353302 -0.4568966031074524 -0.13459374010562897 0.5072966814041138 -0.19515733420848846 0.2259102463722229 -0.21283331513404846 -0.030425049364566803 0.16940425336360931 -0.12592782080173492 -0.059650588780641556 -0.04506292939186096 -0.08352150768041611 -0.09149111062288284 0.330454021692276 -0.10588731616735458 0.189015194773674 -0.2928352355957031 0.11301632970571518 0.33746039867401123 0.12229550629854202 0.3413528501987457 0.47453573346138 -0.3304879069328308 -0.14220879971981049 -0.28690412640571594 -0.5431737303733826 0.15703919529914856 -0.15396805107593536 0.15830126404762268 -0.22914808988571167 -0.33276793360710144 -0.46475815773010254
throw -0.27969035506248474 -0.02410123497247696 0.2837696671485901 0.21472609043121338 0.01865183562040329 -0.5030189752578735 0.4396534860134125 -0.4176287353038788 0.20163825154304504 -0.1387368142604828 0.4733768403530121 0.048814356327056885 0.16490864753723145 -0.0035337526351213455 0.19386501610279083 -0.07278794795274734 -0.28502801060676575 0.09877066314220428 0.0758395865559578 -0.13966010510921478 -0.22179687023162842 0.25708234310150146 -0.09011948853731155 -0.280551940202713 0.17624418437480927 0.6673397421836853 -0.04411116987466812 -0.10163920372724533 -0.23724111914634705 0.05080563575029373 0.06512568891048431 0.148829385638237 0.1464337557554245 0.15027092397212982 0.39141222834587097 -0.4819280207157135 0.10829060524702072 0.16304415464401245 0.15571200847625732 -0.7814915776252747 -0.09676425904035568 0.16750846803188324 0.03685066103935242 -0.04382117837667465 -0.032512109726667404 0.5251497030258179 0.007430996745824814 -0.20187145471572876 -0.10134171694517136 -0.2730216085910797 -0.1592535525560379 -0.9003005623817444 -0.3007773458957672 -0.1158227026462555 -0.3236795663833618 -0.4729725122451782 -0.6336660981178284 -0.41683733463287354 -0.1047956645488739 -0.5498725771903992 0.06211531162261963 0.09541457891464233 -0.03488169237971306 0.0847773402929306 -0.1309179961681366 -0.2935737669467926 0.06622322648763657 0.4296453893184662 -0.3825221657752991 -0.11558277904987335 0.3432031571865082 -0.17478309571743011 0.4734947979450226 0.5951623916625977 -0.16380789875984192 0.6696788668632507 -0.24168165028095245 0.02136673405766487 -0.06532101333141327 -0.7145978808403015 -0.37431401014328003 -0.6128790378570557 -0.3299236595630646 -0.27867013216018677 0.22283495962619781 0.40331992506980896 -0.4122215211391449 0.01673194020986557 0.48123806715011597 -0.31466275453567505 -0.5351935029029846 -0.0917416587471962 -0.1145724505186081 -0.03739636763930321 0.6114979386329651 -0.29940861463546753 -0.6559864282608032 -0.3763996660709381 0.025411419570446014 0.2955668568611145
disguise -0.01896507479250431 0.02409251034259796 0.02753251977264881 -0.23259030282497406 -0.012413817457854748 -0.11071670055389404 -0.02516147308051586 -0.07401488721370697 -0.0026857724878937006 -0.004869590047746897 0.009386450052261353 0.21846336126327515 0.07069573551416397 -0.16956962645053864 -0.04303905367851257 -0.010830598883330822 -0.09079870581626892 -0.133062481880188 0.05485987290740013 0.11054513603448868 -0.17404046654701233 -0.09958075731992722 0.13730622828006744 -0.06928052008152008 -0.017791714519262314 0.1128467544913292 0.001551933353766799 0.026468845084309578 -0.016909481957554817 0.07147984206676483 0.1001390665769577 0.20252378284931183 0.2448045164346695 -0.03804830461740494 -0.10264170914888382 -0.019079405814409256 0.07243123650550842 0.05668734014034271 -0.12938083708286285 0.04370155557990074 0.018968049436807632 0.09921082854270935 -0.02599334716796875 -0.04559198394417763 -0.04698493331670761 -0.0388789102435112 -0.17307183146476746 0.13965441286563873 -0.06471730768680573 -0.030287861824035645 0.08075390011072159 0.137828528881073 -0.140507772564888 -0.04664803296327591 0.03649459406733513 0.0563998818397522 0.07499981671571732 -0.08994662761688232 -0.07253796607255936 0.1294700801372528 -0.022892318665981293 0.001089443452656269 0.07954274117946625 0.06166812404990196 -0.11053755134344101 -0.06326929479837418 -0.025544743984937668 -0.16969263553619385 -0.01728387549519539 0.025653071701526642 -0.04391976073384285 0.009068788029253483 -0.09495844691991806 -0.09820955991744995 -0.13694433867931366 -0.025942565873265266 -0.09103992581367493 -0.11090977489948273 0.05331578478217125 -0.037516236305236816 0.05250803753733635 0.037162452936172485 -0.10478618741035461 0.0738813579082489 -0.015634823590517044 0.06462309509515762 -0.016252104192972183 -0.07254808396100998 0.1695968061685562 0.02351880632340908 0.08606478571891785 0.17187556624412537 0.03389352560043335 0.07621362060308456 0.08508536964654922 -0.05063312128186226 -0.1490446776151657 -0.06345179677009583 0.0023494574707001448 -0.03638314828276634
wrap 0.27275729179382324 -0.3200059235095978 0.02256743796169758 -0.5474634170532227 -0.03687956929206848 -0.0577441081404686 0.20912949740886688 0.07380275428295135 0.1954224705696106 -0.17142313718795776 -0.5097523331642151 0.1754804253578186 -0.3480927348136902 -0.3631106913089752 0.1209014505147934 0.8781901001930237 -0.08409218490123749 -0.43646764755249023 -0.23597891628742218 -0.33749154210090637 -0.028538964688777924 0.03218129277229309 0.11036498844623566 -0.11295907944440842 0.004165316000580788 0.30071693658828735 -0.11650341004133224 0.007487486582249403 -0.18271543085575104 0.29236486554145813 0.22127243876457214 -0.01847577840089798 0.1526765078306198 0.13965214788913727 0.453523188829422 -0.20483775436878204 -0.21079905331134796 -0.2959410846233368 -0.027722816914319992 -0.13844318687915802 -0.18046079576015472 0.38521498441696167 -0.021913975477218628 -0.2914939522743225 0.27711617946624756 0.21165315806865692 -0.22964808344841003 0.045779719948768616 0.22019407153129578 0.09935563057661057 0.01528317853808403 0.13892842829227448 0.781276524066925 0.08586139231920242 0.8089732527732849 -0.2815447151660919 -0.5852044820785522 -0.1158733069896698 0.4716871380805969 -0.1405077576637268 0.30003103613853455 0.09901562333106995 0.12064331769943237 -0.6285439729690552 -0.024797119200229645 -0.042466748505830765 0.28651124238967896 -0.03272879123687744 -0.14213497936725616 -0.11138013750314713 -0.03821335360407829 -0.04941611364483833 -0.4633694887161255 0.15500253438949585 0.35837632417678833 0.1257600039243698 0.5308049321174622 -0.18066544830799103 -0.4027649164199829 -0.006268694531172514 -0.22330400347709656 -0.2561146914958954 -0.08991850912570953 -0.15508346259593964 -0.4551660418510437 -0.10325989872217178 0.3145686984062195 0.18240444362163544 -0.31845980882644653 0.2781997621059418 -0.4232458174228668 0.00801183097064495 0.0775611475110054 -0.2794084846973419 0.22679069638252258 -0.5028032064437866 0.11079780757427216 0.03624572604894638 0.25968942046165466 0.34063225984573364
buff -0.019564582034945488 0.3018423616886139 -0.30998751521110535 0.3597274422645569 0.4367583692073822 0.36995217204093933 0.29276859760284424 0.4936658442020416 -0.3079076409339905 -0.4620903432369232 0.06600642204284668 -0.24236252903938293 0.07215865701436996 0.08249212056398392 -0.2871125340461731 -0.352199912071228 0.020525945350527763 0.008102582767605782 -0.07291942089796066 0.0033226616214960814 -0.06412698328495026 -0.03488381579518318 0.1857070028781891 0.08012726902961731 -0.19239632785320282 0.24658845365047455 -0.11313668638467789 -0.3193558156490326 -0.2244899570941925 -0.29902419447898865 -0.12166046351194382 -0.024202976375818253 0.13200995326042175 -0.1765073835849762 0.5519099831581116 0.6044063568115234 -0.2989574074745178 -0.09800492227077484 0.1489841490983963 -0.09683776646852493 0.17462271451950073 -0.10066305845975876 -0.10401657223701477 -0.1586260348558426 0.3121665418148041 -0.035293545573949814 0.02192329801619053 0.09361626207828522 0.13524524867534637 -0.05299157276749611 -0.1016150489449501 0.13369789719581604 0.15944713354110718 0.3361378312110901 -0.02386210486292839 0.07912801951169968 -4.7389414976350963E-4 -0.11992483586072922 -0.12071394920349121 -0.11866600066423416 0.39057427644729614 -0.22923900187015533 -0.002728499472141266 -0.08032968640327454 -0.019147122278809547 -0.18598207831382751 0.2925521433353424 -0.27940869331359863 0.20958708226680756 0.2901478111743927 0.24771377444267273 0.24910329282283783 0.21972593665122986 -0.5837513208389282 0.22081124782562256 -0.24004538357257843 -0.26220545172691345 0.018525470048189163 -0.05502714961767197 0.19023805856704712 -0.141582652926445 -0.11745645105838776 -0.04581080749630928 -0.11278874427080154 0.11042071878910065 0.033289164304733276 0.07247084379196167 -0.13564355671405792 0.38176125288009644 0.07872083783149719 0.11992141604423523 0.14483526349067688 0.3115921914577484 -0.07869382947683334 0.15524356067180634 0.22373948991298676 0.0416993610560894 -0.32158252596855164 -0.34295833110809326 0.43027347326278687
fluoresce 0.06857772171497345 -0.06183742359280586 0.09539758414030075 -0.024624789133667946 -0.018705101683735847 -0.08322173357009888 -0.018193043768405914 -0.045095786452293396 -0.03716293349862099 0.10984621942043304 -0.04363295063376427 0.012294907122850418 -0.05721832811832428 -0.023737043142318726 0.0353672057390213 0.05155010521411896 -0.020542394369840622 -0.012439606711268425 0.10482137650251389 0.09424270689487457 0.02713705226778984 -0.03663570061326027 -0.03062325529754162 -0.034321531653404236 0.01165615301579237 0.010747577995061874 -0.10913893580436707 -0.00974213145673275 -0.01149736437946558 0.02099449187517166 0.05119675397872925 -0.01628526858985424 0.09832260012626648 0.010414984077215195 -0.05488666519522667 -0.015272214077413082 0.03634144365787506 -0.01229176390916109 -0.05057746544480324 0.04973556101322174 0.018345795571804047 0.07384773343801498 -0.05947810411453247 -0.06341409683227539 0.07582730054855347 0.06430128216743469 0.013141871429979801 0.0441373810172081 -0.0070031993091106415 0.056168317794799805 0.021580634638667107 -0.02738337777554989 -0.052935466170310974 -0.0028435238637030125 0.0015636645257472992 -0.027003979310393333 0.06682267785072327 -0.02301609143614769 0.053580451756715775 0.02005639486014843 0.02108152210712433 -0.02027335949242115 -0.052095286548137665 0.007290713954716921 0.08724179118871689 -0.017592063173651695 0.05275353789329529 -0.010353545658290386 0.011244374327361584 -0.0486518032848835 -0.14500431716442108 -0.011190943419933319 0.01941261626780033 -0.12931430339813232 0.02143220603466034 -0.015879811719059944 0.016614342108368874 -0.01564643532037735 -2.1331463358365E-4 -7.242755964398384E-5 -0.10345254093408585 0.019558096304535866 0.05045058950781822 0.004569329787045717 -0.03370453417301178 -0.002599765546619892 -0.0215864647179842 0.00610350864008069 -0.02152949571609497 0.005985972471535206 0.04812012240290642 -0.058652687817811966 -4.016135062556714E-4 0.04512770101428032 0.055675115436315536 -0.03959241881966591 -0.01817983016371727 0.005155041813850403 -0.036303311586380005 0.019290219992399216
resolve 0.04064105823636055 -0.038992006331682205 0.13043075799942017 -0.0912734866142273 -0.03559475392103195 -0.11686094850301743 0.0201945248991251 0.08116579055786133 -0.12670814990997314 0.04052476957440376 0.006257979664951563 -0.008997938595712185 -0.023470481857657433 -0.010258178226649761 -0.04336485266685486 0.03032882697880268 -0.07910007238388062 0.07865871489048004 -0.061983656138181686 0.019750818610191345 0.06104276701807976 0.0566602423787117 0.10471226274967194 0.004097846336662769 -0.06419575214385986 -0.10502322763204575 0.0872834250330925 0.03105197101831436 -0.052861616015434265 -0.043247513473033905 0.06835206598043442 0.05082821100950241 0.09215133637189865 0.07849031686782837 0.040639497339725494 0.0038053742609918118 0.07056892663240433 0.061229243874549866 -0.010995575226843357 0.00556291826069355 0.035557106137275696 0.1089031770825386 0.017947012558579445 0.002105140360072255 -0.1362447738647461 -0.12451037019491196 -0.004012949764728546 -0.012955475598573685 -0.08231305330991745 -0.11943671107292175 -0.04850229620933533 0.05528080463409424 -0.07371391355991364 0.142726331949234 0.009542126208543777 0.08511166274547577 -0.05980503931641579 -0.022126084193587303 -0.05921975150704384 -0.02077394537627697 -0.05699630454182625 -0.0033498171251267195 0.0657125785946846 0.007207941729575396 -0.08158358931541443 -0.07874058932065964 -0.03909904882311821 -5.65922528039664E-4 0.028416045010089874 0.10123682022094727 -0.07828078418970108 -0.0786854550242424 -0.08253750205039978 -0.07067514210939407 0.06080000102519989 -0.0064377435483038425 -0.06832115352153778 -0.06975725293159485 -0.007221444975584745 -0.028744934126734734 -0.06677255779504776 -0.06550908833742142 -0.06031646952033043 -0.04335510730743408 -0.015309007838368416 0.07116024941205978 0.04640376567840576 -0.022244302555918694 0.02218685857951641 0.08331267535686493 -0.09944267570972443 0.03777672350406647 -0.0972122922539711 0.06520092487335205 0.10689763724803925 0.05313510447740555 -0.049675218760967255 -0.08048839122056961 -0.16333796083927155 0.028508517891168594
