cancel 0.0038808162789791822 0.1459643840789795 -0.29002270102500916 0.1534762978553772 0.3798326253890991 0.1584494411945343 -0.3157345950603485 -0.27018097043037415 -0.21149495244026184 0.6133190989494324 -0.2333448976278305 0.33397817611694336 0.2259233593940735 -0.2551502585411072 0.08733612298965454 -0.42646524310112 -0.10822130739688873 0.02654220163822174 -0.4665588438510895 -0.362653911113739
recline -0.07332055270671844 -0.030198929831385612 0.08030041307210922 0.024339426308870316 -0.0024589113891124725 0.07942836731672287 -0.059484753757715225 -0.02048203907907009 0.11098593473434448 -0.03595132380723953 0.08237043768167496 -0.06373941898345947 0.015628071501851082 0.044609833508729935 -0.002514030085876584 0.007236880250275135 0.01358572207391262 0.003566478844732046 0.02523007057607174 0.02286795899271965
spoke -0.42864102125167847 0.08345480263233185 0.35714903473854065 0.35291194915771484 0.27671006321907043 0.2767452001571655 -0.21496453881263733 -0.061566296964883804 0.12024451792240143 -0.04562530666589737 -0.03270180523395538 0.21767663955688477 -0.23544122278690338 0.28662919998168945 0.12158360332250595 0.03851629048585892 0.1183568686246872 0.417626291513443 -0.037463147193193436 -0.5671586394309998
govern -0.2434643656015396 -0.09830848127603531 -0.4282466769218445 0.060491591691970825 0.3701995313167572 0.15307658910751343 -0.008393756113946438 -0.36244750022888184 -0.576261579990387 0.3186836838722229 -0.29337161779403687 -0.13556602597236633 -0.025813572108745575 -0.22143499553203583 0.3223927617073059 -0.17519992589950562 -0.24074417352676392 -0.3699503242969513 -0.2341739535331726 0.1047765463590622
discourage 0.14174772799015045 -0.2974242866039276 -0.13798590004444122 0.04882718250155449 -0.23086988925933838 0.04366547241806984 -0.08432485908269882 0.4418804347515106 -0.28400343656539917 0.031935691833496094 0.002593922894448042 0.11202900111675262 0.001627263380214572 -0.0244331955909729 0.1618880033493042 0.28548958897590637 0.12545832991600037 0.07392232865095139 0.0888994038105011 -0.18040919303894043
rupture 0.24521198868751526 0.4509265124797821 -0.5172528028488159 -0.094278983771801 -0.011681389063596725 -0.05682923644781113 0.2380857616662979 0.5446943640708923 -0.522243082523346 0.0713406577706337 -0.008742415346205235 -0.15215136110782623 -0.03547618165612221 -0.2384423017501831 0.04123552143573761 0.6496261954307556 0.6416400074958801 0.7101549506187439 0.375291645526886 -0.0038336263969540596
lacquer 0.42880749702453613 -0.35798823833465576 -0.42815420031547546 0.6852984428405762 -0.3471938371658325 0.16219070553779602 0.38711193203926086 0.21626582741737366 0.012084881775081158 0.30794352293014526 0.7822275161743164 0.40073296427726746 -0.23651467263698578 0.5144277215003967 0.4250490963459015 0.689652144908905 -0.29207831621170044 0.3871113657951355 -0.4189675748348236 -0.09516821801662445
pick 0.07589132338762283 -0.14029277861118317 -0.1807239055633545 0.023913981392979622 -0.1275060772895813 0.3876815140247345 -0.09829314798116684 0.24943292140960693 -0.15575242042541504 -0.11715067923069 -0.028552105650305748 0.5167192220687866 -0.04268423467874527 -0.13840988278388977 0.3201991319656372 0.2380811721086502 -0.16886374354362488 -0.35391759872436523 -0.14808444678783417 -0.03826800733804703
constrict 0.06066105142235756 -0.14652471244335175 -0.11816003173589706 0.13763053715229034 -0.17577509582042694 -0.21634377539157867 -0.27100297808647156 0.11681665480136871 -0.2776471674442291 -0.22411087155342102 -0.29239243268966675 0.1856386512517929 -0.3338726758956909 -0.22000208497047424 -0.00864417478442192 -0.2863152325153351 0.3425790071487427 0.5587019324302673 0.144481360912323 0.10411194711923599
fluctuate 0.025770455598831177 0.320993036031723 -0.3593638837337494 -0.22751587629318237 0.13607122004032135 -0.07093439251184464 0.14907577633857727 -0.13624146580696106 -0.5408200025558472 0.46135106682777405 -0.03344886004924774 0.22201025485992432 0.08426424860954285 -0.5049117803573608 0.0933205783367157 -0.12100591510534286 -0.06090502068400383 -0.28417545557022095 -0.23757067322731018 -0.07990777492523193
calculate 0.7136726379394531 0.7981828451156616 -0.8647035956382751 -0.10838402807712555 0.2373204529285431 0.14365072548389435 -0.35616692900657654 -0.7871382236480713 -0.30139580368995667 0.37117069959640503 0.15355591475963593 0.14179691672325134 0.31070247292518616 -0.7005589604377747 0.6852107644081116 0.028179137036204338 -0.025230124592781067 -0.7482892870903015 -0.7165972590446472 -0.765441358089447
authorize -0.004073126707226038 0.020243996754288673 -0.020576654002070427 0.0014834614703431726 -0.008626390248537064 -0.008122299797832966 0.014139227569103241 -0.02130706049501896 0.017492197453975677 -0.017574576660990715 0.005688965320587158 0.0242385845631361 -0.020921556279063225 0.018408268690109253 -0.0049773408100008965 -0.02003171294927597 -0.023491928353905678 0.019501693546772003 -0.010468965396285057 0.014150936156511307
conceal -0.46876242756843567 -0.48780980706214905 -0.22055619955062866 0.29763734340667725 -0.0403456911444664 0.16564743220806122 -0.3006545305252075 0.24301908910274506 0.3218047022819519 0.131643146276474 0.7819902300834656 -0.27569055557250977 0.18685179948806763 -0.08825679123401642 0.5289083123207092 0.36378011107444763 0.5262600779533386 -0.21492984890937805 0.20422978699207306 -0.25689324736595154
possess 0.06572940945625305 0.20337675511837006 -0.14112117886543274 0.24503469467163086 -0.24761846661567688 0.4331928789615631 0.25152498483657837 0.11127123236656189 -0.07639870792627335 0.12115544825792313 0.1361902803182602 0.021851379424333572 -0.07510155439376831 -3.3601635368540883E-4 0.045949652791023254 0.2610452473163605 0.1542138010263443 0.27032938599586487 0.07621283084154129 -0.2688891589641571
scratch 0.22468283772468567 0.06584244221448898 -0.18760350346565247 0.1706458181142807 -0.2546444237232208 0.0029812788125127554 -0.008772443979978561 0.4624975323677063 -0.1012139618396759 0.4819054901599884 0.3570977449417114 -0.06602466106414795 0.13223505020141602 0.5156407952308655 0.4842177629470825 0.4756503105163574 0.48776865005493164 0.19610898196697235 -0.13167615234851837 -0.14127875864505768
require -0.11418996006250381 -0.04097830876708031 -0.002321184379979968 0.1604602187871933 -0.10269536077976227 0.09110476821660995 0.2831382751464844 0.15230901539325714 -0.3268428444862366 0.08933687955141068 0.12694406509399414 0.23196107149124146 -0.026603151112794876 -0.032607849687337875 0.025142719969153404 0.12093569338321686 0.2683344781398773 -0.37578698992729187 -0.07004526257514954 -0.012109811417758465
honeycomb 0.3823121190071106 -0.3187170624732971 -0.3445653021335602 0.7840039730072021 0.015586517751216888 -0.3068489730358124 0.3346231281757355 -0.4621371030807495 0.03685050830245018 0.29493436217308044 0.6070709824562073 0.22781047224998474 -0.6483208537101746 0.47131988406181335 0.11097221821546555 0.2909162640571594 -0.4382915794849396 0.818781852722168 0.3045806884765625 -0.6407045125961304
size -0.1408385932445526 0.028591135516762733 -0.04312601312994957 0.17874974012374878 -0.22797289490699768 0.026246991008520126 0.08796323835849762 0.013046564534306526 -0.20114879310131073 -0.08802323043346405 0.4332134425640106 0.024411695078015327 -0.004407424014061689 -0.0825626403093338 0.11032488197088242 -0.0776510089635849 0.29490312933921814 0.1647033840417862 -0.2184421569108963 -0.08137214928865433
clutch -0.6894128322601318 -0.052003562450408936 -0.18644779920578003 0.3272852897644043 0.6191703081130981 0.4591699242591858 0.6379307508468628 -0.048464346677064896 -0.1555190086364746 0.5651177763938904 -0.1451295018196106 0.6124911904335022 1.1699916124343872 -0.1478511393070221 -0.8356649875640869 -0.4302702248096466 0.07778444141149521 -0.44511568546295166 0.1368052214384079 -0.5365630388259888
temper 0.03157902881503105 -0.03526626527309418 -0.27723053097724915 0.4493646025657654 -0.1303776055574417 -0.12599067389965057 0.6234593987464905 0.16563910245895386 -0.4486246705055237 -0.050180695950984955 0.2038523256778717 0.18550528585910797 -0.37947583198547363 0.6700806617736816 0.46977734565734863 0.27355799078941345 -0.17293399572372437 0.1288428157567978 -0.12247297167778015 -0.26427239179611206
evacuate 1.9160400552209467E-4 -0.01445726491510868 -0.2801288664340973 -0.09742255508899689 0.02238239161670208 -0.42119136452674866 0.2761496305465698 0.3948747515678406 -0.22622129321098328 0.003278157440945506 0.0678773894906044 0.4640323221683502 -0.03733176738023758 -0.740067720413208 0.031365808099508286 0.3340803384780884 0.01620374247431755 0.14322404563426971 0.0991014614701271 0.6159653663635254
wind -0.1931745707988739 0.036751821637153625 -0.16116073727607727 0.43444228172302246 0.6834133267402649 0.1992947906255722 -0.6512683629989624 -0.10693123936653137 -0.25103986263275146 0.007595642004162073 0.07775169610977173 0.38403454422950745 -0.4176042079925537 0.2858588695526123 -0.35708293318748474 0.25837716460227966 -0.07244643568992615 -0.45146459341049194 0.18818256258964539 -0.2628784775733948
hang -0.5872973203659058 -0.22649382054805756 0.237395778298378 0.0775747299194336 0.1972658485174179 0.038631584495306015 -0.46678638458251953 0.166250541806221 0.2705777883529663 -0.2285359799861908 0.3463703393936157 0.08123862743377686 -0.01171826384961605 0.16818352043628693 0.8839017152786255 0.6760739684104919 0.31961092352867126 -0.11074072122573853 0.10522845387458801 -0.2581484317779541
poise 0.12809866666793823 0.04012121260166168 -0.13687826693058014 0.07637806981801987 -0.06616227328777313 0.06177504360675812 0.15347903966903687 0.01002514734864235 -0.07004744559526443 -0.00912595633417368 0.11356507986783981 0.19732382893562317 -0.17234563827514648 0.14846961200237274 0.05740885064005852 0.1204434409737587 -0.16646279394626617 -0.06329740583896637 -0.06451944261789322 0.02803746797144413
roll 0.191670760512352 0.030311500653624535 0.340099573135376 0.2939772605895996 0.3780519962310791 0.38881680369377136 0.14641961455345154 0.33933502435684204 0.2758650481700897 0.213528573513031 0.0288530383259058 0.3061140179634094 -0.07954458147287369 0.31948769092559814 -0.03770371899008751 0.01758565381169319 0.39858880639076233 0.2457692176103592 -0.6014504432678223 -0.2851599156856537
blur -0.008343430235981941 -0.1949530839920044 0.008613714948296547 0.005930559244006872 -0.13108505308628082 0.1851845383644104 -0.2343948930501938 0.10887295752763748 0.07824214547872543 0.09742466360330582 0.07706808298826218 0.08086059987545013 0.0602133609354496 0.08591461926698685 0.11497492343187332 -0.023396816104650497 0.0872168242931366 0.007185067981481552 -0.054077088832855225 -0.09703357517719269
turn -0.16941410303115845 -0.08508124947547913 -0.10738609731197357 0.053293753415346146 0.14660204946994781 0.11833816766738892 -0.3129556179046631 0.1680908203125 -0.017815997824072838 0.006818333175033331 -0.19172504544258118 0.15292248129844666 -0.11049854755401611 -0.1631193906068802 -0.1878398060798645 0.09533818066120148 0.035199809819459915 -0.3882620334625244 -0.07239628583192825 -0.05573931708931923
adduct 0.32068920135498047 0.2361382246017456 -0.5735778212547302 0.20541824400424957 -0.47607097029685974 0.019351819530129433 0.30962035059928894 0.03013254888355732 -0.12699155509471893 0.1009344533085823 0.30551964044570923 0.10380174219608307 -0.14631088078022003 0.4837719202041626 0.32229164242744446 0.267410546541214 -0.4384889006614685 -0.10698967427015305 -0.3122660219669342 -0.07816187292337418
evaporate 0.2671750485897064 0.11005908995866776 -0.22794298827648163 0.13537104427814484 -0.24727973341941833 -0.37875300645828247 0.23811408877372742 0.5827144980430603 -1.0002094507217407 -0.4517344832420349 0.22408495843410492 1.0798197984695435 0.20790402591228485 -0.14713750779628754 0.43124720454216003 0.4432530105113983 -0.6840102076530457 0.08774390071630478 -0.16476133465766907 0.1806873381137848
quiet -0.10290230065584183 -0.03273513540625572 -0.026728274300694466 -0.16940145194530487 0.10730960965156555 0.06670913100242615 0.189918652176857 0.14777261018753052 -0.4386860430240631 0.4061150848865509 -0.013799117878079414 0.35144156217575073 -0.2573694586753845 -0.18594567477703094 0.10092958062887192 -0.04862051084637642 -0.006906744092702866 0.22227320075035095 0.08799027651548386 -0.15201810002326965
incapacitate 0.03965333104133606 0.05493749678134918 -0.04920254275202751 -0.0482155978679657 0.01926249824464321 0.13447684049606323 -0.03502114862203598 -0.05366077274084091 0.017873505130410194 0.09107167273759842 0.06015525013208389 0.05696796625852585 0.04517843946814537 -0.05704139173030853 -0.026618383824825287 0.06447823345661163 0.019270317628979683 -0.08979829400777817 0.03507150709629059 0.002217700704932213
flip -0.1640160232782364 -0.24753716588020325 0.04348526895046234 0.05321449786424637 0.04702843725681305 0.04918546974658966 -0.275849312543869 0.4417479336261749 -0.3164774775505066 0.25166207551956177 -0.015508923679590225 -0.11276362091302872 0.040049366652965546 -0.0982675850391388 0.41956788301467896 0.30251505970954895 0.3945819139480591 -0.20764514803886414 0.15665727853775024 -0.17750388383865356
connect -0.48735812306404114 -0.011937360279262066 0.21497966349124908 0.04116223752498627 -0.01067673321813345 0.2177874743938446 -0.09633858501911163 -0.1149764284491539 0.18465793132781982 -0.035042159259319305 -0.04389473423361778 0.17612065374851227 -0.24342447519302368 -0.11538094282150269 -0.20219643414020538 0.1348821222782135 0.027041591703891754 -0.06101658567786217 0.0024350399617105722 0.08748409897089005
resume 0.15374639630317688 -0.10605908930301666 -0.4425092041492462 -0.36128178238868713 0.35417014360427856 -0.3772928714752197 0.1441112607717514 0.8763529062271118 -0.558350145816803 0.22337506711483002 -0.5501115918159485 -0.17760615050792694 0.08260020613670349 -0.31400856375694275 0.11127714812755585 -0.14982353150844574 0.37215641140937805 -0.741473913192749 -0.18997104465961456 -0.38483452796936035
sharpen -0.06011876463890076 -0.34531697630882263 -0.47599202394485474 -0.04618010297417641 -0.1307801753282547 0.17598290741443634 -0.443346232175827 0.43912607431411743 0.018853822723031044 -0.5311570763587952 -0.052366383373737335 0.1851080358028412 -0.23744675517082214 0.19705292582511902 0.22188019752502441 0.23876820504665375 0.8243468403816223 0.14884033799171448 0.037949323654174805 -0.505050539970398
denature -0.021909199655056 0.010125784203410149 0.005200786516070366 -0.008340517058968544 -0.013087415136396885 0.017710654065012932 -0.019760580733418465 -0.0071681831032037735 -0.002288596471771598 0.010192508809268475 0.004651255905628204 0.014353038743138313 0.01313609816133976 0.0017951690824702382 0.0191631019115448 -0.0072265625931322575 -0.0055167158134281635 0.007281453348696232 -0.026264183223247528 -0.010269327089190483
posture -0.24201035499572754 -0.11844345182180405 0.20133323967456818 -0.14736512303352356 0.04266149923205376 -0.07944335043430328 -0.2588353157043457 0.30545535683631897 -0.0011147046461701393 0.19323933124542236 -0.004719315096735954 0.05822697654366493 0.3005248010158539 -0.06206092983484268 0.2768213450908661 0.0660271942615509 0.43383023142814636 -0.3804105520248413 -0.35220855474472046 -0.194667249917984
spiral 0.4086066782474518 -0.14948990941047668 0.20943480730056763 0.7414722442626953 0.4193324148654938 -0.09410478919744492 -0.4233900010585785 0.055466290563344955 0.08924278616905212 -0.1975712776184082 -0.14647884666919708 0.5507943630218506 -0.6054919958114624 0.17431023716926575 -0.44383105635643005 0.08561701327562332 0.08602023124694824 0.38091278076171875 -0.1708756536245346 -0.23346762359142303
metabolize -0.0024697724729776382 0.0023778192698955536 0.007249139714986086 0.024322420358657837 0.004581226501613855 -0.002971857786178589 0.015641188248991966 0.018000036478042603 0.0014402158558368683 0.0222180113196373 0.015217344276607037 0.014233565889298916 -0.015344171784818172 0.008498866111040115 -0.0035666581243276596 -0.014920884743332863 0.013772857375442982 0.01825498230755329 -0.018515292555093765 -0.01930817775428295
excavate 0.08963499963283539 -0.09556134790182114 -0.13449065387248993 -0.11484464257955551 -0.06083911284804344 -0.09513304382562637 -0.026140492409467697 0.300104022026062 -0.053427208214998245 -0.35048767924308777 0.13344532251358032 0.3172234296798706 -0.2491956353187561 0.18182319402694702 0.16139860451221466 0.29842448234558105 0.36278221011161804 -0.02767063118517399 0.07207062095403671 -0.03193085268139839
wipe 0.40468040108680725 -0.18936309218406677 0.23953314125537872 0.27939528226852417 -0.2501344084739685 -0.23243995010852814 0.11011160910129547 0.8017151355743408 0.0681111216545105 0.0980108380317688 -0.03895345330238342 0.20994535088539124 0.14455042779445648 -0.16372357308864594 0.01739034429192543 0.26488733291625977 0.3783012330532074 0.43268707394599915 -0.22724908590316772 -0.1753261834383011
halt 0.05588854104280472 -0.0647304356098175 -0.5511329174041748 -0.15018770098686218 0.04928236082196236 -0.1016109511256218 0.12052854150533676 0.26120778918266296 -0.42110729217529297 0.3201071619987488 -0.49377596378326416 0.016998987644910812 0.1861918568611145 -0.6122434735298157 -9.23047264222987E-6 0.22407928109169006 0.04084187000989914 -0.5657103061676025 -0.13854484260082245 -0.21117328107357025
throw 0.12037434428930283 -0.2668793201446533 -0.16190128028392792 -0.04994458705186844 0.1506229192018509 0.8414902687072754 -0.17916768789291382 0.4668888449668884 -0.03864314407110214 0.015702150762081146 -0.19373618066310883 -0.05528288334608078 0.08313402533531189 -0.21724021434783936 0.15317495167255402 0.1220872700214386 0.13008107244968414 -0.11140108108520508 -0.0891362726688385 -0.21625171601772308
disguise 0.024030791595578194 -0.012739907018840313 0.05772942677140236 -0.04994102939963341 -0.0339670404791832 0.0696435496211052 -0.13859370350837708 0.05407395958900452 -0.010783026926219463 -0.04262574762105942 0.0573749803006649 -0.016509104520082474 0.06945673376321793 0.09429135918617249 0.017259040847420692 -0.020235026255249977 0.04477625712752342 0.022324012592434883 -0.018242428079247475 0.00281963380984962
wrap 0.12442312389612198 -0.048977307975292206 0.07834070175886154 0.8507575988769531 0.46521732211112976 -0.14179380238056183 -0.14394310116767883 0.13731925189495087 -0.12144698947668076 -0.15749402344226837 0.15690560638904572 0.3042804002761841 -0.15143689513206482 0.41443493962287903 -0.10874771326780319 0.45505961775779724 0.23363816738128662 0.20934566855430603 0.09863392263650894 -0.5226324796676636
buff 0.18924327194690704 -0.068812295794487 -0.014318950474262238 -0.23651693761348724 -0.010712379589676857 -0.2859002649784088 -0.22758737206459045 0.12531828880310059 -0.15897680819034576 0.13745707273483276 -0.030125031247735023 -0.08030544221401215 0.1317259520292282 0.03787016496062279 -0.033242665231227875 -0.04912598803639412 0.06615772843360901 0.10708783566951752 0.02683001384139061 0.07846829295158386
fluoresce 0.06973434239625931 0.04679560288786888 0.009831876493990421 0.021381525322794914 -0.12620031833648682 0.06388387084007263 -0.11998304724693298 0.03673155978322029 0.05523142218589783 0.009198295883834362 0.2038087397813797 0.03400532901287079 0.02346791885793209 0.14897923171520233 0.02293381094932556 0.13500888645648956 -0.13926851749420166 0.1226751059293747 -0.05086063966155052 -3.2856076722964644E-4
resolve 0.1637677252292633 -0.048126742243766785 -0.023036349564790726 -0.1162673756480217 -0.07109176367521286 0.17112626135349274 -0.12143807113170624 -0.04131965711712837 -0.02819969691336155 0.1297554075717926 0.10420171916484833 0.11291442066431046 0.13308893144130707 0.07028432190418243 0.02206471562385559 -0.030776750296354294 -0.07500804960727692 -0.002754075452685356 -0.1635221689939499 -0.15564589202404022
correct 0.24623891711235046 0.7692785859107971 -0.7830050587654114 -0.23556888103485107 0.19916871190071106 0.040197137743234634 -0.1935686469078064 -0.7719943523406982 0.04507080465555191 0.5129324197769165 0.10805891454219818 -0.021775033324956894 0.12381795048713684 -0.36939477920532227 0.8495468497276306 -0.5140722990036011 0.1782713383436203 -0.775513231754303 -0.5764796733856201 -0.5195827484130859
chill 0.33724868297576904 0.17006491124629974 0.17573295533657074 0.1840239018201828 -0.049648161977529526 -0.28463512659072876 0.10180620849132538 0.4823478162288666 -0.8032083511352539 -0.8785969614982605 0.42498552799224854 0.6945023536682129 0.13295680284500122 -0.3749632239341736 0.18155325949192047 0.563589870929718 -0.7040067315101624 -0.03686486929655075 -0.3446911871433258 0.3010427951812744
undulate 0.020659131929278374 -0.19747203588485718 -0.010122066363692284 0.2842121720314026 -0.05895843356847763 -0.06273923814296722 -0.1055825874209404 0.2953861653804779 -0.20093268156051636 0.059428028762340546 -0.03552131727337837 0.2747408449649811 -0.235675647854805 0.15089565515518188 0.14164607226848602 -0.015944017097353935 -0.056942325085401535 0.17976927757263184 -0.19499865174293518 -0.24997112154960632
imitate 0.057380203157663345 -0.027029504999518394 -0.058540403842926025 0.05264155939221382 -0.048860833048820496 0.05579278990626335 -0.07825662940740585 0.03406229242682457 -0.07078870385885239 0.15818585455417633 0.04065762832760811 0.06462614238262177 0.0011656415881589055 0.13305865228176117 -0.06596427410840988 0.08983533084392548 -0.03272733837366104 -0.036096569150686264 -0.06282321363687515 -0.08092585951089859
dominate 0.086036816239357 0.027435142546892166 -0.19100157916545868 -0.12695202231407166 0.05965904891490936 -0.08222239464521408 0.0032490966841578484 0.009676240384578705 -0.21683861315250397 0.18681997060775757 -0.03410272300243378 -0.008186607621610165 0.06049063056707382 0.003235176671296358 -0.041920945048332214 0.02475357986986637 0.004518913105130196 -0.2117079347372055 -0.007418680004775524 -0.08484857529401779
empty 0.4667019844055176 0.22529533505439758 -0.25957122445106506 -0.04303055629134178 0.14916148781776428 0.261351615190506 -0.10400557518005371 0.2376340925693512 -0.39573559165000916 -0.34240615367889404 -0.013022669591009617 -0.03985932469367981 -0.01065246481448412 -0.8042822480201721 0.10653794556856155 0.43930742144584656 0.2534392774105072 0.36619898676872253 0.15131352841854095 0.06078604608774185
deploy -0.1923852115869522 -0.38320446014404297 -0.24578140676021576 0.07974690198898315 0.2961985468864441 0.5891211628913879 -0.6361566185951233 0.3371477723121643 -0.5244535803794861 -0.05974087864160538 0.07509516179561615 -0.13929489254951477 0.14680491387844086 -0.19875846803188324 0.5823571681976318 0.49977564811706543 0.21152044832706451 0.12768489122390747 0.5078871250152588 -0.40143880248069763
compute 0.2819327712059021 0.5944059491157532 -0.8799529671669006 -0.28212547302246094 0.05818035081028938 0.32527831196784973 -0.3337975740432739 -0.766107439994812 -0.19007930159568787 0.24142859876155853 0.45234909653663635 -0.041323162615299225 0.19013775885105133 -0.3983021080493927 0.6423695087432861 -0.002507847500964999 0.0892556682229042 -0.8235450387001038 -0.5042427182197571 -0.6923991441726685
tie -0.5566608905792236 0.20322002470493317 0.19338634610176086 0.2884008288383484 0.3530057966709137 -0.17042171955108643 -0.27493801712989807 -0.062244728207588196 0.14700859785079956 -0.5048245191574097 -0.025459686294198036 0.3003019690513611 -0.08540987223386765 0.48004621267318726 0.3776108920574188 0.46029171347618103 0.5369971394538879 0.02753821387887001 0.30424946546554565 -0.4506453275680542
pad -0.34855663776397705 -0.042696740478277206 0.1481822431087494 0.13883885741233826 0.1167539432644844 0.055252548307180405 0.21783186495304108 0.2883439064025879 0.39127859473228455 0.5424262285232544 -0.03406209871172905 0.3045683801174164 0.5593734979629517 0.32949888706207275 0.43137598037719727 0.4649116098880768 0.06636645644903183 0.4511905610561371 0.0251393411308527 -0.4224699139595032
exceed 0.22719614207744598 0.4415782690048218 -0.34720316529273987 -0.1503712385892868 0.2703467905521393 -0.25820305943489075 0.0029277587309479713 0.1310461461544037 -0.433948814868927 0.365144282579422 -0.20811554789543152 0.010663149878382683 0.08739092200994492 -0.3807528614997864 0.06114725023508072 0.1374337077140808 -0.025303684175014496 -0.37976422905921936 -0.24911858141422272 -0.37595999240875244
enlarge 0.004853931721299887 -0.06164369359612465 -0.08851709961891174 0.019709540531039238 -0.1198880672454834 -0.40040019154548645 0.05646364763379097 0.2462492138147354 -0.4254988729953766 -0.06655894219875336 -0.17704373598098755 0.26831021904945374 -0.06694449484348297 -0.034570205956697464 0.03872716799378395 -0.35822704434394836 0.7329312562942505 0.42192912101745605 -0.06494303047657013 -0.35429683327674866
backfill -0.12198354303836823 -0.22562435269355774 0.11205598711967468 0.06476224958896637 -0.04231356084346771 -0.021153906360268593 -0.0434751994907856 0.18750439584255219 -0.22915767133235931 -0.1563003659248352 -0.03553907573223114 0.38232848048210144 -0.12637469172477722 0.15714804828166962 0.2838619351387024 0.2019646018743515 0.15985003113746643 0.18054437637329102 0.003128637094050646 -0.017763812094926834
disperse 0.281525194644928 -0.23806266486644745 -0.2753271162509918 0.13114292919635773 -0.6532838940620422 0.31263232231140137 -0.4951510429382324 0.5180866718292236 -0.2614286541938782 0.2499021738767624 0.3278830647468567 0.4293787181377411 -0.2263927310705185 -0.11572655290365219 0.3918522298336029 0.16886112093925476 -0.1425500214099884 0.27018919587135315 -0.021081242710351944 -0.026943910866975784
implement -0.05959158018231392 0.024923525750637054 -0.42431309819221497 0.18939118087291718 0.01505616307258606 0.2732493281364441 0.0035638688132166862 -0.3400082588195801 -0.19922494888305664 0.05761413648724556 0.35207200050354004 0.14475886523723602 0.22790281474590302 -0.3335879445075989 0.056392934173345566 0.08803045004606247 0.05557795614004135 -0.45902591943740845 -0.17202676832675934 -0.22721825540065765
tip 0.09029433876276016 -0.17543324828147888 -0.2496282160282135 -0.039153072983026505 -0.08952417224645615 0.0670267641544342 -0.21733205020427704 0.318583220243454 0.18576443195343018 -0.22759555280208588 -0.20473094284534454 0.285785436630249 -0.5685141682624817 0.16990415751934052 -0.02874615415930748 -0.11918305605649948 0.45821502804756165 0.3716890513896942 0.17295439541339874 -0.2704985439777374
avert 0.10178536921739578 -0.03540397435426712 -0.1693742871284485 -0.04580375552177429 0.015148637816309929 -0.1840793639421463 0.2699596881866455 0.3119700253009796 -0.19130320847034454 0.21472977101802826 -0.003909073770046234 0.14317633211612701 -0.048173531889915466 -0.2552976906299591 -0.0023744008503854275 0.2349839061498642 -0.13266213238239288 0.06471221148967743 0.034901704639196396 -0.08874081075191498
export 0.182223841547966 0.021013200283050537 -0.15789300203323364 0.03835216537117958 -0.1609937995672226 -0.021716220304369926 0.023997146636247635 0.038741886615753174 -0.23691663146018982 -0.08782698214054108 0.12658312916755676 0.3479837477207184 -0.13719908893108368 -0.009382358752191067 -0.028710031881928444 0.022935934364795685 -0.37199997901916504 -0.2327798753976822 0.030389156192541122 0.16213063895702362
incinerate 0.3641844689846039 -0.026068296283483505 -0.5712730884552002 0.2613687515258789 -0.33458566665649414 -0.014786419458687305 0.02350594475865364 0.144906148314476 -0.4739707410335541 0.112819604575634 0.2943652272224426 0.6215850114822388 -0.29679182171821594 -0.20787638425827026 0.7958587408065796 -0.007935624569654465 -0.7795563340187073 -0.23893187940120697 -0.06497813761234283 0.07763080298900604
lace -0.32520753145217896 -0.06388263404369354 0.012524198740720749 0.3491046726703644 0.2413627803325653 -0.06385082751512527 -0.292775958776474 0.05225721746683121 -0.06877443194389343 -0.38793665170669556 0.15396887063980103 0.1718456745147705 -0.26542261242866516 0.457420289516449 0.449644535779953 0.24994228780269623 0.6117346286773682 0.07711227238178253 -0.04908173158764839 -0.2659427523612976
erode 0.15229937434196472 -0.013380746357142925 -0.16260071098804474 -0.0783800333738327 -0.08671058714389801 -0.13448591530323029 0.12644919753074646 0.2659186124801636 -0.25954076647758484 0.08398442715406418 0.0731981173157692 0.11347553133964539 -0.11604364961385727 -0.05691356584429741 -0.011753869242966175 0.029887137934565544 0.04819819703698158 0.09397093951702118 -0.1368945837020874 0.03813254088163376
nestle -0.07527672499418259 0.010439884848892689 0.027300989255309105 0.044127579778432846 0.004789166152477264 0.0018191824201494455 0.010531081818044186 0.014372279867529869 0.04604628309607506 -0.01771831512451172 0.02925555594265461 0.028457583859562874 -0.01119487639516592 0.024316323921084404 0.01932395249605179 -0.013427299447357655 0.09359858930110931 0.03645452857017517 -0.014063889160752296 -0.054426223039627075
check 0.09438320249319077 0.028653468936681747 -0.48624640703201294 -0.28898969292640686 0.4006989300251007 -0.15187384188175201 0.18320457637310028 -0.04798870161175728 -0.05030925199389458 0.26657477021217346 -0.29728129506111145 0.032694485038518906 -0.013157553970813751 -0.8152481913566589 -0.07380714267492294 0.21622423827648163 0.31955596804618835 0.15081904828548431 8.762272773310542E-5 0.6743723750114441
sand 0.47536855936050415 -0.18028709292411804 -0.39451631903648376 0.5213404893875122 -0.19441933929920197 -0.011738336645066738 0.5095556378364563 0.44658002257347107 -0.001040108036249876 0.03212875872850418 0.5081380009651184 0.330840528011322 -0.0656919777393341 0.2373674511909485 0.4934011995792389 0.6939042210578918 0.09131716936826706 0.01069524697959423 0.06257949769496918 0.12366156280040741
wire -0.45530012249946594 0.1330110877752304 -0.3020769953727722 0.6185160279273987 0.26265230774879456 -0.02407299168407917 -0.5849236249923706 0.06324095278978348 0.12400370836257935 -0.0894482210278511 0.34116846323013306 -0.007861747406423092 -0.29613450169563293 0.40053048729896545 -0.28322091698646545 0.6763399839401245 0.19691956043243408 -0.16625940799713135 0.27856338024139404 -0.06196652352809906
straddle -0.7933347821235657 -0.14031416177749634 0.14705224335193634 -0.042300768196582794 0.06084245815873146 0.03390951454639435 0.15439863502979279 0.39385661482810974 0.3581070601940155 -0.22393910586833954 -0.18442444503307343 0.10878102481365204 0.20156897604465485 0.17853763699531555 0.4270182251930237 -0.07004957646131516 0.23846425116062164 0.2588670253753662 -0.027791611850261688 -0.4989158809185028
harm 0.2138500213623047 0.055542174726724625 -0.7282437682151794 0.16828468441963196 -0.5023238062858582 -0.14636659622192383 0.4814406931400299 0.40413978695869446 -0.13227221369743347 0.4701361358165741 0.3356727957725525 0.48226606845855713 -0.20366501808166504 -0.030842214822769165 0.6682370901107788 -0.005108919460326433 -0.4177423119544983 -0.19374850392341614 0.4122292995452881 0.03346508368849754
rope -0.3133600354194641 -0.4476764500141144 -0.05900154635310173 0.5122149586677551 0.6661378741264343 -0.20934805274009705 -0.42693719267845154 -0.03867904096841812 0.11495263129472733 -0.4093729853630066 -0.19419056177139282 0.36137112975120544 0.06352046877145767 0.704931914806366 0.6427590250968933 0.5813981294631958 0.7348048686981201 -0.3854941427707672 0.42383745312690735 -0.3194609582424164
sculpt -0.02920318767428398 -0.018320458009839058 0.02758624032139778 -5.407582502812147E-4 0.022469647228717804 -0.005353980232030153 -0.012027038261294365 -0.009133760817348957 -0.0011633974500000477 0.013027437962591648 0.019787395372986794 0.013289017602801323 -0.017637768760323524 0.0045825704000890255 -0.006357938051223755 -0.014497803524136543 0.01289194542914629 0.0074366237968206406 0.00415015360340476 0.0049958135932683945
orientate -0.08606799691915512 -0.13476285338401794 0.14133262634277344 -0.0027257835026830435 -0.0542883463203907 0.108943872153759 -0.15017089247703552 0.022873781621456146 0.11336569488048553 -0.01603124290704727 0.032597340643405914 0.06760378181934357 -0.0754363089799881 0.042093757539987564 0.11660903692245483 -0.028806641697883606 -0.009240384213626385 0.04676971584558487 -0.030400754883885384 -0.12996931374073029
outgas 0.07425595819950104 -0.003388794371858239 -0.03581511229276657 -0.03818283975124359 -0.06442037224769592 0.019055992364883423 0.055628687143325806 0.12631279230117798 -0.18335449695587158 0.02627045474946499 0.028384307399392128 0.16883528232574463 0.0017971061170101166 0.006937743630260229 0.05655704811215401 0.061446718871593475 -0.09714817255735397 -0.05015259608626366 -0.01810186170041561 0.017800066620111465
spoil 0.20639896392822266 -0.10631229728460312 -0.344306617975235 -0.24246898293495178 -0.29791781306266785 -0.4255172312259674 0.1271136850118637 0.24474747478961945 -0.2434409260749817 0.37901604175567627 0.17313501238822937 0.3351089358329773 -0.2948574125766754 -0.29386064410209656 0.0534425750374794 0.044716473668813705 -0.17552588880062103 0.028158236294984818 -0.10227616876363754 0.006036623381078243
multiply -0.14680111408233643 -0.16389648616313934 -0.07136882841587067 -8.765835664235055E-4 -0.03343316540122032 0.47112053632736206 -0.48062029480934143 0.055985212326049805 -0.19120116531848907 0.11137228459119797 -0.11020311713218689 0.20879046618938446 0.04878706857562065 -0.08499433845281601 0.15667429566383362 -0.09485940635204315 0.1650371104478836 -0.4532180428504944 0.004621437285095453 -0.3132447600364685
pilot -0.24250775575637817 0.005758189596235752 -0.6063202619552612 -0.12805476784706116 0.02918274700641632 0.16594448685646057 0.07633063942193985 -0.18764659762382507 -0.1643649786710739 0.20724692940711975 -0.5402328372001648 -0.11951114982366562 -0.06787275522947311 -0.48725345730781555 -0.17043516039848328 -0.2037310004234314 0.32664743065834045 0.1346273124217987 -0.06758257001638412 0.5164851546287537
twine -0.31625470519065857 0.002264053327962756 -0.036710526794195175 0.5509788990020752 0.2477113902568817 0.15753953158855438 -0.2972131669521332 0.0540543794631958 -0.4064469039440155 -0.051009781658649445 -0.11350403726100922 0.08142562955617905 -0.08713922649621964 0.24065370857715607 0.23839765787124634 0.3694728910923004 0.29113125801086426 0.10920678079128265 -0.09115318953990936 -0.3950176537036896
peak 0.20473788678646088 0.6774216294288635 -0.46202537417411804 0.15943606197834015 0.033021148294210434 0.05026400461792946 -0.34896495938301086 -0.019012941047549248 -0.3911941945552826 0.22941593825817108 0.06949620693922043 0.04424053058028221 -0.35346662998199463 0.033070169389247894 -0.006819708272814751 -0.31627801060676575 0.0012836492387577891 -0.24261511862277985 -0.31194809079170227 -0.5032404065132141
expose 0.054759517312049866 -0.28082624077796936 -0.32161572575569153 0.3658182621002197 -0.1697285920381546 -0.3789145052433014 0.09660530090332031 0.39853423833847046 0.12946662306785583 0.11165405809879303 0.421510249376297 -0.03340025991201401 -0.05182395130395889 -0.06807663291692734 0.11075921356678009 0.386715829372406 0.19949227571487427 0.2702026963233948 0.1753367781639099 -0.25745129585266113
concentrate 0.14429797232151031 -0.13902196288108826 -0.06895563006401062 -0.07527080178260803 -0.6383652091026306 0.3188849687576294 -0.4078909456729889 0.41002580523490906 -0.3498532474040985 -0.11947815865278244 0.34709393978118896 0.8011143207550049 -0.18993593752384186 0.12954162061214447 0.3704501688480377 0.24074824154376984 -0.37949278950691223 0.2304931879043579 -0.6073039770126343 0.3410941958427429
weld -0.15735939145088196 0.21303726732730865 -0.26323074102401733 0.43288227915763855 0.09763339161872864 -0.3826071321964264 0.26749229431152344 0.08144889771938324 0.1837346851825714 -0.28506481647491455 0.26885706186294556 0.01309130247682333 -0.47830790281295776 0.5029799938201904 -0.012606418691575527 0.3670338988304138 0.4421716034412384 0.28694239258766174 -0.12051496654748917 -0.3140352964401245
populate -0.019502826035022736 -0.007802312262356281 0.0047899954952299595 0.03230005130171776 -0.020375175401568413 -0.022865500301122665 -0.0015867430483922362 0.01800883561372757 -0.005020047537982464 -0.018678350374102592 0.057728663086891174 -0.007203124929219484 -0.007288915105164051 0.006081376224756241 0.025181161239743233 0.0581275075674057 0.03358292952179909 0.05017796903848648 0.006604630965739489 0.008295766077935696
puncture 0.21731095016002655 0.025636522099375725 -0.22154642641544342 0.1361292004585266 -0.06216229498386383 -0.021581580862402916 0.007035103626549244 0.4301591217517853 -0.13141588866710663 -0.02646784670650959 0.05192457512021065 -0.0012348348973318934 0.050687890499830246 -0.22482402622699738 0.34560850262641907 0.38437384366989136 0.5268411040306091 0.31105414032936096 0.3516777753829956 -0.10380852967500687
service -0.21780602633953094 0.1809452325105667 -0.18131451308727264 -0.1099654883146286 0.03717677295207977 -0.043614089488983154 0.5375906229019165 0.12678268551826477 -0.13863378763198853 0.21195638179779053 0.24886493384838104 0.15143783390522003 0.03152582794427872 -0.14602071046829224 0.05995708703994751 0.5731998085975647 0.3424057364463806 -0.1467592418193817 -0.19777359068393707 0.1450653076171875
automate 0.016088241711258888 0.023622438311576843 -0.014055006206035614 0.03575203940272331 0.01415451243519783 0.03738050162792206 -0.009727515280246735 1.3082131772534922E-5 -0.02492346055805683 -0.0019037819001823664 -0.018214169889688492 0.008550534024834633 -0.02523547038435936 -0.020978566259145737 0.022815419360995293 -0.005025625228881836 0.027385685592889786 0.009346027858555317 -0.0254004318267107 -0.013432872481644154
permit -0.23175166547298431 -0.26249071955680847 -0.01247613225132227 0.03362682834267616 -0.03857920691370964 -0.11482259631156921 0.0682758167386055 0.033472295850515366 -0.2120235562324524 0.09130949527025223 0.009817198850214481 -0.13194754719734192 0.1189771369099617 -0.38921651244163513 0.17017479240894318 0.0653374120593071 0.2168140709400177 0.034064941108226776 0.018331076949834824 0.008712884038686752
inject 0.20209509134292603 0.5796283483505249 -0.9940391182899475 0.15324778854846954 -0.19545303285121918 0.1752871572971344 0.22645537555217743 -0.05195704475045204 0.13376325368881226 0.10330802947282791 -0.22598351538181305 -0.07667442411184311 -0.3450315296649933 -0.08981560915708542 0.3805748522281647 -0.730811357498169 -0.18220315873622894 -0.11170385032892227 0.011710179969668388 0.41634950041770935
splash 0.25749900937080383 -0.28418564796447754 0.03745776787400246 -0.3964480459690094 0.1114986315369606 -0.14012008905410767 0.27355262637138367 0.7869195938110352 0.16959285736083984 0.003462087130174041 0.34107792377471924 0.5616092085838318 -0.1593867987394333 -0.4809110462665558 0.09583207964897156 0.2994140088558197 -0.06631811708211899 0.5534456968307495 0.3195718824863434 -0.002613519784063101
dimple 0.07092445343732834 -0.3334333896636963 0.10317414999008179 0.2597561776638031 -0.38144156336784363 -0.4587094187736511 0.0253100898116827 0.4842472970485687 -0.03613785654306412 -0.4305613040924072 0.1150536984205246 0.18823160231113434 -0.04430697485804558 0.29442283511161804 -0.051183708012104034 0.005346047692000866 0.6196995973587036 0.26770761609077454 0.02737671136856079 -0.5471399426460266
pocket 0.10096284747123718 -0.1897975653409958 0.3206815719604492 0.36202284693717957 0.07434860616922379 0.06345685571432114 0.19982770085334778 0.26335835456848145 0.1065969169139862 -0.18283630907535553 0.1362994760274887 0.053042832762002945 0.027871109545230865 -0.1972378045320511 -0.016793597489595413 0.0014693527482450008 0.3899697959423065 0.48275476694107056 0.044777438044548035 -0.43414172530174255
pile 0.0732438713312149 -0.2100396454334259 0.09043905884027481 0.6130282282829285 0.03261849656701088 -0.2265281230211258 0.14625515043735504 0.06558436155319214 0.1769241988658905 -0.20908154547214508 0.493849515914917 0.22085359692573547 -0.3990602493286133 0.27256256341934204 0.4837782680988312 0.06348524987697601 -0.06639209389686584 0.05272494629025459 0.2081473022699356 -0.18559758365154266
channel -0.05081552639603615 -0.2866276204586029 -0.0055979471653699875 0.11799106001853943 -0.052039071917533875 -0.15884163975715637 0.016917793080210686 -0.22451239824295044 -5.15644031111151E-4 -0.29438528418540955 0.09481807798147202 0.24251776933670044 -0.3943995237350464 -0.2949443459510803 -0.0874914601445198 -0.0739213079214096 -0.08025416731834412 0.5052620768547058 0.10407201200723648 0.02729426696896553
focus -0.31999683380126953 -0.33663251996040344 -0.27830708026885986 0.07223386317491531 -0.8705975413322449 0.6225410103797913 -1.4660136699676514 0.0989498570561409 0.21811051666736603 0.4443402886390686 0.8296059966087341 0.1926524043083191 0.003938335459679365 0.03306657075881958 0.19087669253349304 0.04422585293650627 -0.08202105760574341 0.19110281765460968 -0.9553743600845337 0.18811151385307312
hamper -0.03528660908341408 -0.15520614385604858 0.01627776026725769 0.0018206823151558638 0.07267540693283081 -0.0370270274579525 -0.04383455961942673 0.1647070348262787 -0.33194974064826965 0.3992614150047302 -0.13553249835968018 0.3167738914489746 0.18560011684894562 0.09369123727083206 -0.09170958399772644 0.16376720368862152 -0.11104685813188553 -0.22864723205566406 0.01364631112664938 0.004708128981292248
implant 0.29750457406044006 0.19322341680526733 -0.2880343198776245 0.2451339215040207 0.09828422218561172 0.2550085484981537 0.3584447205066681 0.1653061807155609 -0.07688094675540924 -0.14049403369426727 0.005395989399403334 0.47746017575263977 0.019680047407746315 0.11499352753162384 -0.017269672825932503 0.259181946516037 0.5100036859512329 0.20676927268505096 -0.20527298748493195 0.09296692907810211
approach 0.14916864037513733 0.22268319129943848 -0.3799063265323639 -0.16453097760677338 0.12308579683303833 0.1374569684267044 -0.2962739169597626 0.15489736199378967 -0.21599356830120087 0.5059467554092407 -0.012384791858494282 0.04372363165020943 0.005541123915463686 -0.33131638169288635 0.12976087629795074 -0.3995737135410309 0.08941496908664703 -0.08717621117830276 -0.31607842445373535 -0.36715060472488403
normalize 0.10322893410921097 0.02575000934302807 -0.066179059445858 -0.15319661796092987 0.06970018148422241 0.10497022420167923 -0.061875514686107635 -0.12004750221967697 -0.06447575986385345 0.1214480847120285 0.04271962121129036 -0.05723614618182182 0.0816672146320343 -0.11500442028045654 -0.008880696259438992 0.07524941116571426 -0.12038306146860123 -0.22912727296352386 -0.1064193844795227 -0.05305514484643936
bump 0.08458172529935837 -0.3542303144931793 -0.21557508409023285 -0.047685541212558746 -0.020183170214295387 -0.16475394368171692 -0.26963257789611816 0.2901269197463989 -0.37998881936073303 0.5443443655967712 -0.04744377359747887 0.061715491116046906 -0.12482799589633942 0.030165260657668114 0.3513011634349823 -0.016263417899608612 0.2803647220134735 0.4506371021270752 -0.11076007038354874 -0.25189658999443054
block -0.1703139990568161 -0.17436803877353668 0.07989764958620071 0.1901542693376541 0.10351068526506424 0.007190888747572899 0.10285212099552155 0.07278954982757568 0.22688108682632446 -0.014785834588110447 -0.09542176127433777 -0.1386909931898117 -0.07444358617067337 -0.2903401255607605 0.04147212952375412 0.053845182061195374 0.09167703986167908 0.18839098513126373 0.004235412925481796 0.12056002020835876
miniaturize 0.029520291835069656 0.06759150326251984 0.0015557475853711367 0.023502230644226074 -0.01847880706191063 -0.025603175163269043 0.033824753016233444 -0.019722143188118935 -0.008505212143063545 0.04410689324140549 0.046474847942590714 -0.008320626802742481 -0.09364474564790726 0.023246608674526215 0.015768038108944893 0.0450485497713089 -0.026211583986878395 0.02210107445716858 0.018648354336619377 0.028854303061962128
write 0.24883843958377838 0.1483653038740158 -0.45929616689682007 0.0035175071097910404 -0.06014583632349968 0.4505096673965454 -0.5145285129547119 -0.1677318960428238 0.06464463472366333 -0.04911740496754646 0.7757450342178345 -0.2501996159553528 0.25521963834762573 -0.5308337807655334 0.48348188400268555 0.4425670802593231 0.2496384233236313 -0.43718478083610535 -0.4603902995586395 -0.33003881573677063
flow -0.18092264235019684 0.0707896500825882 -0.5183398127555847 -0.04536280781030655 0.3728826344013214 -0.17936290800571442 -0.09232115745544434 0.06219489127397537 -0.22991368174552917 -0.08271980285644531 0.236515611410141 0.38506388664245605 -0.035987794399261475 -0.2639288604259491 -0.09232340008020401 -0.48657771944999695 -0.29539573192596436 0.4145735800266266 -0.036983516067266464 0.3784243166446686
order -0.0706176832318306 0.203116312623024 -0.13541197776794434 0.10499640554189682 0.037771426141262054 0.01051859837025404 -0.010409084148705006 0.03999656066298485 -0.17779715359210968 0.26024168729782104 0.05494251847267151 0.1676381230354309 -0.024740256369113922 -0.10274406522512436 0.14932338893413544 -0.13264158368110657 0.032185666263103485 -0.11014707386493683 -0.1205148845911026 -0.09521956741809845
modulate -0.02198495902121067 -0.12873217463493347 -0.5061538815498352 -0.019299525767564774 0.16641297936439514 -0.30531615018844604 -0.27976348996162415 -0.46229004859924316 -0.7103978991508484 0.627564013004303 -0.17733734846115112 0.2788098454475403 0.26759636402130127 -0.6341657638549805 -0.15019278228282928 0.16484148800373077 -0.03009996935725212 0.13336825370788574 -0.41965511441230774 0.0496978797018528
interpolate 0.009518206119537354 0.006076425313949585 -0.04513181373476982 -0.006039025261998177 -0.018900178372859955 0.06232314184308052 -0.02995508909225464 -0.03404443711042404 -0.04558243229985237 0.00971350260078907 0.03259113430976868 0.011118571273982525 -3.4332642098888755E-4 -0.012689914554357529 0.04984511062502861 -0.05926210805773735 0.012356811203062534 -0.09376148879528046 -0.041570380330085754 -0.07701348513364792
gore -0.024692252278327942 -0.1092730239033699 -0.0550396628677845 0.031013529747724533 -0.12337929010391235 -0.16819939017295837 -0.19480767846107483 0.07771638035774231 -0.0032140910625457764 -0.09726401418447495 0.12072216719388962 -0.03668830171227455 -0.15023116767406464 0.1775919497013092 -0.06704386323690414 0.07131391018629074 0.132145494222641 0.1704004406929016 -0.2600560188293457 -0.34937480092048645
centralize -0.09653106331825256 0.038009822368621826 0.06757569313049316 0.02476079761981964 -0.07945001125335693 -0.09018511325120926 -0.1066615879535675 0.29326921701431274 -0.06199805438518524 -0.0675225630402565 -0.1797509640455246 -0.05350460484623909 0.002148938598111272 -0.05116105452179909 0.0879967212677002 -0.050310321152210236 0.57600998878479 0.16931864619255066 -0.2363620549440384 -0.1184990331530571
retrofit -0.4392029941082001 0.08157918602228165 -0.006788047030568123 0.035333678126335144 -0.11890766769647598 -0.09811154007911682 0.19147536158561707 0.19368350505828857 -0.28694576025009155 -0.002625709632411599 0.49872899055480957 0.021181324496865273 -0.010331646539270878 -0.16057755053043365 0.4070776402950287 0.21767044067382812 0.0757935419678688 -0.39422667026519775 0.23985540866851807 0.3181101977825165
install -0.20269425213336945 0.13748101890087128 0.07553277164697647 0.07749398052692413 -0.08353093266487122 -0.1911725550889969 0.06803420186042786 0.22842805087566376 -0.26608818769454956 -0.36827540397644043 0.4053662419319153 0.17178261280059814 0.0404939278960228 -0.17283065617084503 0.1840493232011795 0.22057649493217468 0.8666831851005554 -0.41744789481163025 -0.01643555797636509 -0.08250460028648376
analyze 0.2611187994480133 0.42570918798446655 -0.6428933143615723 -0.15647178888320923 -0.1964108645915985 0.10578568279743195 -0.1372157335281372 -0.31262725591659546 -0.17452602088451385 0.1326570361852646 0.28352656960487366 -0.011270405724644661 0.021687692031264305 -0.16656868159770966 0.062217891216278076 0.25646549463272095 -0.1555497795343399 -0.5340951681137085 -0.12374703586101532 -0.17622283101081848
fluidize 0.19620129466056824 -0.6247990727424622 -0.12149309366941452 0.19282719492912292 -0.42266207933425903 -0.2661145329475403 0.23245584964752197 0.149039164185524 -0.02087097242474556 0.014602811075747013 0.13422110676765442 0.6273077726364136 -0.3882792294025421 0.012859024107456207 0.7183741927146912 -0.591704785823822 -0.9908090233802795 0.4830924868583679 -0.018394965678453445 0.04422973468899727
refract 0.15948207676410675 -0.4787237346172333 -0.5117462873458862 0.5752766132354736 -0.8196117877960205 0.5527628064155579 -1.397466778755188 0.22092118859291077 0.010375895537436008 0.3795400857925415 1.4392515420913696 0.5738187432289124 0.4470379054546356 0.23944123089313507 -0.3668774962425232 0.06625983864068985 -0.23990654945373535 0.7021088004112244 -1.2498068809509277 -0.22851203382015228
save -0.2885763347148895 0.3081258237361908 -0.3427560329437256 -0.28850045800209045 -0.13940131664276123 0.14755359292030334 0.2600896656513214 0.17447690665721893 -0.25728508830070496 -0.027740314602851868 0.35045742988586426 0.299618661403656 -0.23421014845371246 -0.2312549352645874 0.1679515689611435 0.09808993339538574 -0.060087841004133224 -0.5183166265487671 -0.06618073582649231 -0.13707971572875977
stagger -0.1769099235534668 -0.3499845266342163 -0.027620410546660423 -0.01945728249847889 -0.014885660260915756 0.01539932657033205 -0.19284909963607788 0.1546451598405838 -0.19492878019809723 -0.33476710319519043 0.06798772513866425 0.2350655198097229 -0.4555194079875946 0.05920462682843208 -0.002698698779568076 -0.18202127516269684 -0.0266244076192379 0.39798086881637573 -0.029097814112901688 -0.8759329915046692
restrict -0.11250963807106018 -0.10944273322820663 -0.0024687068071216345 -0.041414111852645874 0.170902818441391 -0.25612926483154297 0.06772554665803909 -0.02483225055038929 -0.2807260751724243 0.4432564973831177 -0.2515866160392761 -0.053219959139823914 0.018678082153201103 -0.45739081501960754 0.07641573250293732 -0.14034193754196167 0.08650269359350204 0.32114824652671814 -0.008677731268107891 0.04353543370962143
bandage 0.05642779916524887 0.14396992325782776 -0.006279991008341312 0.16753555834293365 -0.07845251262187958 -0.10704982280731201 -0.06138843297958374 0.11732553690671921 -0.11314796656370163 -0.08554205298423767 0.09735537320375443 0.10470641404390335 -0.015962254256010056 0.14289650321006775 0.13618461787700653 0.15319839119911194 0.13668252527713776 0.07859779894351959 0.0045111048966646194 -0.025722181424498558
scrap 0.5624909400939941 -0.22954809665679932 -0.51352459192276 0.5283223986625671 -0.37050661444664 0.3362730145454407 0.6889210343360901 0.6093512177467346 -0.08291804790496826 -0.2853691279888153 0.1693911850452423 0.1737428605556488 -0.5890330076217651 0.22918182611465454 0.5499994158744812 0.2764151394367218 -0.5740194916725159 -0.4193662405014038 -0.143704354763031 -0.13854777812957764
ladle 0.2700325548648834 -0.33970746397972107 -0.19479234516620636 0.24651765823364258 -0.3225612938404083 -0.08113325387239456 0.34411218762397766 0.5436261296272278 0.029295779764652252 -0.0013498279731720686 0.6180157661437988 -0.08640117198228836 -0.5853821635246277 0.05941068008542061 0.6141182780265808 0.7734947204589844 -0.10722236335277557 0.06884226948022842 -0.32383379340171814 0.025522379204630852
floss 0.1317771077156067 -0.04460769519209862 0.006336247082799673 -0.028124017640948296 -0.03196835517883301 -0.029848266392946243 -0.005712475627660751 0.0810735672712326 -0.0715785026550293 0.04323625564575195 0.07659761607646942 0.11250793188810349 -0.06522302329540253 0.11291582137346268 -0.07325423508882523 -0.033720288425683975 -0.0757131427526474 0.052058715373277664 0.06078697368502617 -0.00404521357268095
tow -0.2231932133436203 -0.06883632391691208 -0.07025257498025894 -0.2101237028837204 0.4460535943508148 0.6613233089447021 -0.4924665689468384 0.04654427245259285 -0.37624964118003845 -0.03186405450105667 -0.11573070287704468 0.3549351096153259 0.09636718034744263 0.17534323036670685 0.36942386627197266 0.9020872712135315 0.5825463533401489 -0.05019747465848923 0.22178062796592712 -0.16472256183624268
roast 0.22088588774204254 -0.2359318733215332 -0.19191555678844452 0.4293842613697052 -0.17067047953605652 0.09545357525348663 0.22465655207633972 0.2113804817199707 -0.087410569190979 -0.2355181723833084 0.6470105051994324 0.33305835723876953 -0.3589786887168884 -0.13735942542552948 0.6652307510375977 0.2487293928861618 -0.7404798865318298 -0.27717339992523193 0.07375472784042358 -0.2977038621902466
haul -0.2777434289455414 -0.15876486897468567 -0.18228842318058014 -0.0070271254517138 0.17200514674186707 0.3495393395423889 -0.12049557268619537 0.23903749883174896 -0.10856868326663971 -0.18321335315704346 -0.20787592232227325 0.44883793592453003 -0.0033015809021890163 0.29941144585609436 0.4833296537399292 0.42840954661369324 0.851605236530304 -0.10406617075204849 0.0432223305106163 -0.08362062275409698
photomask 0.10805730521678925 -0.059425123035907745 -0.2443765550851822 -0.010433757677674294 0.08015444129705429 0.03406933322548866 0.021964265033602715 0.017077093943953514 -0.12288502603769302 0.08129783719778061 0.09248843789100647 0.05077938735485077 0.059815600514411926 -0.013226688839495182 -0.03155236318707466 0.19391633570194244 -0.1072327122092247 -0.023012276738882065 -0.1615387499332428 -0.10971934348344803
quilt 0.14597973227500916 0.008890785276889801 -0.07473836839199066 0.3047846853733063 0.008771286346018314 -0.01136813685297966 -0.026118166744709015 0.10282458364963531 -0.2588457465171814 -0.07210151106119156 0.34137266874313354 0.3038853108882904 -0.1465202122926712 0.19410771131515503 0.1680968552827835 0.2774178385734558 -0.1121719479560852 0.14973537623882294 -0.0632505789399147 -0.17130650579929352
polymerize 0.016338028013706207 -0.05524304136633873 -0.15814997255802155 0.13915960490703583 -0.04735085368156433 -0.028969475999474525 -0.01997184194624424 0.09447650611400604 -0.1047675833106041 -0.01663636416196823 0.09115930646657944 0.14459137618541718 -0.11601099371910095 0.018768982961773872 0.09247949719429016 0.0970219224691391 0.028128009289503098 0.035942476242780685 -0.08957166224718094 -0.0018389541655778885
peel 0.44732221961021423 -0.05178644135594368 -0.4444836378097534 0.48329031467437744 -0.0997520387172699 0.09013903141021729 0.25830644369125366 0.5141205191612244 -0.2544797956943512 0.09859468042850494 0.16726559400558472 0.3872758448123932 -0.059174489229917526 0.8122559189796448 0.4364226460456848 0.4536300301551819 0.5896914601325989 0.4822993278503418 -0.18867826461791992 -0.3637116551399231
peen 0.3078233301639557 0.04340365156531334 -0.12963229417800903 0.3410814106464386 -0.22371377050876617 -0.030739497393369675 0.20473216474056244 0.505275547504425 -0.2197372168302536 0.0608302503824234 0.10131248831748962 0.10817389190196991 -0.1931586116552353 0.6842942833900452 0.3080967366695404 0.1859239786863327 0.47363409399986267 0.3683326840400696 -0.03120083548128605 -0.3305984437465668
hydrate 0.5391879677772522 0.1658850759267807 -0.4295669198036194 -0.012854820117354393 -0.4049910604953766 0.02151353843510151 0.47643008828163147 0.5903833508491516 -0.5579544901847839 -0.4787493348121643 0.4526473581790924 0.873826265335083 -0.1996799111366272 0.3043917417526245 0.4973565936088562 0.7080455422401428 -0.7061869502067566 -0.1267680823802948 -0.31678077578544617 0.014530811458826065
produce 0.16648495197296143 -0.051881954073905945 -0.3113233745098114 0.4375210702419281 -0.5896866321563721 0.2515040338039398 -0.1604490876197815 -0.061768073588609695 -0.34806180000305176 0.07942290604114532 0.06543853133916855 0.41593706607818604 -0.012266581878066063 0.0031549117993563414 0.11899632215499878 -0.16024060547351837 -0.3062152862548828 -0.2721433639526367 -0.206712543964386 0.04713793098926544
disable -0.06079578772187233 -0.09650326520204544 -0.7455029487609863 -0.19419261813163757 0.045894332230091095 0.24114888906478882 0.07473982125520706 0.4407390356063843 -0.4155641198158264 0.20880909264087677 -0.04444996640086174 -0.16983075439929962 0.3392646908760071 -0.6053786277770996 -0.0016841283068060875 0.43727773427963257 0.0215911865234375 -0.7186676859855652 0.31198760867118835 -0.505588710308075
ravel 0.024197837337851524 0.021482042968273163 0.023618023842573166 0.01606733351945877 0.011884381994605064 -0.0047482592053711414 0.016564078629016876 -0.022854594513773918 -0.021720247343182564 -7.489409181289375E-4 0.011027634143829346 0.009272965602576733 -0.005041548982262611 -0.012876704335212708 0.014930497854948044 0.02271844446659088 -0.013742600567638874 0.008229214698076248 0.02453649789094925 0.01224941574037075
infect 0.0626031830906868 -0.046525903046131134 -0.11012877523899078 0.027044273912906647 -0.09228909760713577 0.013346991501748562 0.11966783553361893 0.14459340274333954 -0.12367446720600128 -0.03181852400302887 0.12888102233409882 0.22970816493034363 0.004458495415747166 0.04704403877258301 0.20811352133750916 0.019604019820690155 -0.03323478624224663 -0.03228120505809784 0.0778031200170517 0.07556569576263428
pleat 0.17691457271575928 -0.3816281855106354 0.10221769660711288 0.5781025886535645 0.0068841781467199326 -0.3624575734138489 0.0600297749042511 0.15711985528469086 0.3805577754974365 0.07889299839735031 0.4557012915611267 0.4033381938934326 -0.14487430453300476 0.25096115469932556 0.4754442274570465 0.2758755087852478 0.04726391285657883 0.2972024381160736 0.044481825083494186 -0.5034744143486023
infiltrate 0.189955934882164 0.006001144647598267 -0.1765338033437729 0.11296601593494415 -0.16924162209033966 -0.07138559222221375 0.10664352029561996 0.1747872531414032 -0.14972960948944092 -0.029871782287955284 0.17539621889591217 0.03649013116955757 -0.09290830790996552 0.17358486354351044 0.10835718363523483 0.2630751430988312 -0.011449117213487625 0.10856571793556213 -0.20064154267311096 0.014432857744395733
prohibit -0.2606227695941925 0.12504208087921143 -0.5821395516395569 -0.31231582164764404 0.271085649728775 -0.33297470211982727 0.30534887313842773 0.030825434252619743 -0.10615044832229614 0.34604722261428833 -0.20942722260951996 -0.22982418537139893 0.2706197500228882 -0.7518258094787598 0.05198294296860695 -0.01124374009668827 0.07866387814283371 -0.6497130990028381 -0.23781324923038483 -0.36106690764427185
fuel 0.2886248230934143 0.4785715341567993 -0.6987819075584412 0.3985913395881653 -0.06203494966030121 -0.03466619551181793 -0.02946542762219906 -0.2497359663248062 -0.09131120890378952 0.05324145779013634 -0.03655095025897026 0.23632517457008362 -0.09783254563808441 -0.27738863229751587 0.3648667335510254 -0.742210865020752 -0.1961609274148941 -0.24238695204257965 0.11165092140436172 0.5590777397155762
spool -0.542138934135437 -0.41582393646240234 -0.468182772397995 0.09686189889907837 0.2944435179233551 0.2747241258621216 0.06178341060876846 -0.21778646111488342 -0.2861652672290802 0.1891966313123703 -0.6278323531150818 -0.11075757443904877 0.08580043911933899 -0.37011539936065674 -0.5457204580307007 -0.07267078012228012 0.3389352858066559 0.2801094949245453 -0.17803643643856049 0.6785002946853638
associate 0.06163821369409561 -0.05595659837126732 -0.25291332602500916 0.2912949323654175 -0.09448085725307465 0.14732418954372406 -0.013476422056555748 0.16266919672489166 -0.1760869175195694 0.023745814338326454 -0.013936661183834076 -0.3675808608531952 -0.12576285004615784 -0.29718366265296936 0.2424909770488739 -0.31934282183647156 0.3019464313983917 -0.07899342477321625 -0.4347054660320282 -0.2454286813735962
bruise -0.018086735159158707 -0.017265789210796356 -0.011260943487286568 -0.0025580241344869137 0.0180162712931633 0.0010318701388314366 -0.014028663747012615 -0.02271692082285881 -0.0055878423154354095 -0.021092409268021584 -0.01082699652761221 -0.011635267175734043 -0.023750806227326393 0.006307925097644329 -0.010206198319792747 0.02685181424021721 0.006741383112967014 0.018388189375400543 -0.007246651221066713 0.006467273458838463
buttress 0.20962968468666077 -0.0639614686369896 -0.2414873242378235 0.34059759974479675 -0.07728762924671173 -0.12766192853450775 0.023704903200268745 0.30241987109184265 -0.19543610513210297 -0.2445574253797531 -0.12076546251773834 0.20004525780677795 -0.19675104320049286 0.40275925397872925 0.5082663893699646 -0.10676592588424683 1.2057675123214722 -0.05423964932560921 -0.12638536095619202 -0.46567705273628235
lag -0.07921396195888519 0.5929896831512451 -0.7981759905815125 -0.29356467723846436 0.47286853194236755 -0.04962414503097534 -0.06367389112710953 -0.19792206585407257 -0.26540231704711914 0.5191807746887207 -0.2203795611858368 0.0856809914112091 0.005167796742171049 -0.2829640507698059 0.2531172037124634 -0.1179107055068016 -0.11123421788215637 -0.2511913776397705 -0.26863235235214233 -0.7109551429748535
glean 0.02401784062385559 -0.006723412778228521 -0.016225948929786682 0.023801058530807495 -0.0014384236419573426 0.00849671009927988 0.016475751996040344 0.010705831460654736 -0.009085481986403465 -0.001094877254217863 0.016803564503788948 -0.0012527531944215298 0.009334085509181023 0.021099170669913292 -0.013050621375441551 -0.021318143233656883 -0.009689098224043846 -0.02256871573626995 0.014718140475451946 0.016066530719399452
pin -0.2801363468170166 -0.2893986105918884 0.002315671881660819 0.2900868058204651 0.27859553694725037 0.27550122141838074 -0.07654652744531631 0.28835445642471313 0.30084550380706787 -0.31486275792121887 -0.301883339881897 -0.24863222241401672 0.20826974511146545 0.05768197402358055 0.24417506158351898 0.017135880887508392 0.499262273311615 0.0672035738825798 0.09661826491355896 -0.30024632811546326
colorize -0.006857513915747404 -0.020818514749407768 0.016446396708488464 0.011232816614210606 0.0083615155890584 0.00503521179780364 0.004775620065629482 -0.0030415994115173817 0.004826265387237072 -0.02395215630531311 -0.022786444053053856 0.022871850058436394 -0.022162482142448425 0.00890753511339426 -0.0019816404674202204 0.017092574387788773 -0.02494806796312332 2.0593755471054465E-4 -0.023861322551965714 -0.0034319008700549603
spoon -0.057129304856061935 -0.184742271900177 0.0769631415605545 0.1452089548110962 0.014370283111929893 0.11330249160528183 -0.05521011725068092 0.26188769936561584 -0.00564325088635087 -0.12907592952251434 0.06574584543704987 -0.05328697711229324 -2.754881279543042E-4 -0.06959649920463562 0.1349741667509079 0.11881306022405624 0.05374570190906525 0.06002410128712654 0.07651495933532715 -0.07002920657396317
raise -0.10530330240726471 -0.28308162093162537 -0.040669459849596024 -0.24887721240520477 0.13810357451438904 -0.17322610318660736 -0.12003287672996521 0.21410970389842987 -0.3189001679420471 -0.016871389001607895 -0.18645718693733215 0.29725292325019836 -0.00591951934620738 -0.23726743459701538 0.7172595262527466 0.18961003422737122 -0.2107619345188141 -0.3950049877166748 -0.1209837794303894 0.16617164015769958
pipe -0.23262548446655273 0.3684273064136505 -0.15140138566493988 0.05102163553237915 0.14259874820709229 -0.42079436779022217 0.11527413129806519 -0.10311128199100494 0.1908208131790161 -0.36139246821403503 0.13857102394104004 0.32093602418899536 -0.4574010372161865 -0.08317800611257553 0.03258512169122696 0.28065600991249084 -0.008520293049514294 0.16450515389442444 0.025198539718985558 0.2499982714653015
pit 0.4573287069797516 0.026616549119353294 -0.14212028682231903 -0.02151130884885788 -0.20461107790470123 -0.10319052636623383 0.4618167579174042 0.4676647186279297 -0.017514042556285858 0.34438759088516235 0.3127138018608093 0.4416213631629944 -0.43169718980789185 -0.09626280516386032 0.683657705783844 0.4391802251338959 -0.08545033633708954 -0.03418983146548271 0.07677621394395828 -0.09521608054637909
lap -0.06391479820013046 -0.04075980186462402 -0.234061598777771 0.5040589570999146 -0.023008711636066437 -0.31347575783729553 0.18447847664356232 0.07184775173664093 0.004243787378072739 -0.05328685790300369 0.14084206521511078 0.15526364743709564 -0.28197556734085083 0.42229023575782776 -0.09068983048200607 0.05366617068648338 0.4624255895614624 0.210422083735466 -0.3119749426841736 -0.5523638129234314
stock 0.03356344625353813 -0.08742843568325043 -0.11056650429964066 0.4638582468032837 0.06024773046374321 0.44801759719848633 0.21798890829086304 -0.12911614775657654 -0.16121630370616913 -0.6578254699707031 0.22745859622955322 -0.42709675431251526 0.0067195347510278225 0.3753572106361389 0.7155762314796448 0.48304036259651184 0.43817952275276184 -0.019086269661784172 -0.010585281066596508 -0.16724437475204468
suspend -0.35805052518844604 -0.06615965813398361 0.31062212586402893 0.12561556696891785 0.13430288434028625 0.0331641249358654 -0.3240399956703186 0.044590990990400314 0.10400212556123734 0.06815744191408157 0.20887500047683716 0.1957980841398239 -0.11624404788017273 0.03311656042933464 0.6763690710067749 0.36469072103500366 -0.07233138382434845 -0.09117577970027924 0.02872634120285511 0.056182049214839935
surge -0.03664538264274597 0.37657585740089417 -0.6560206413269043 -0.47258734703063965 0.46465811133384705 -0.11062400788068771 0.161152645945549 -0.1429993212223053 -0.4877704381942749 0.3586035370826721 -0.039037786424160004 0.29979607462882996 -0.27374035120010376 -0.5294367074966431 0.22476185858249664 -0.14577218890190125 0.16752317547798157 0.2541663348674774 0.11424286663532257 0.008546965196728706
swap -0.03113214112818241 -0.006255717948079109 -0.03407727926969528 -0.0057760002091526985 0.04752824455499649 0.06688668578863144 0.007380800321698189 -0.04350508004426956 -0.0767223909497261 0.090531125664711 -0.025134926661849022 0.009572621434926987 0.07937571406364441 -0.03412201255559921 -0.034969083964824677 -0.012104692868888378 1.7379980999976397E-4 -0.08567363768815994 -0.03142739459872246 -0.033351097255945206
dispense 0.021998852491378784 -0.16534729301929474 -0.18732252717018127 0.06545049697160721 0.10232696682214737 0.14888212084770203 0.13827791810035706 0.26945391297340393 -0.4645543694496155 -0.34835419058799744 0.15670301020145416 0.05300790071487427 0.014402339234948158 -0.7035959959030151 0.1299414485692978 0.5809035897254944 -0.10506054759025574 -0.17824289202690125 -0.2416633665561676 0.3001847565174103
hatch -0.053368791937828064 -0.4978737533092499 0.05699353292584419 -0.006040160544216633 0.3006473481655121 -0.22060497105121613 -0.28974780440330505 0.4413440525531769 0.14467421174049377 -0.1959553062915802 0.6458859443664551 -0.12062643468379974 -0.02235151268541813 -0.5252880454063416 0.45372894406318665 0.5502886176109314 0.131212517619133 -0.09374900162220001 0.11515817791223526 -0.10018149763345718
sway -0.37229931354522705 0.020595548674464226 0.44013074040412903 0.03519414737820625 -0.10819140821695328 0.18318170309066772 -0.2864454388618469 0.19014714658260345 -0.07282161712646484 0.10556254535913467 0.06662189215421677 -0.11903002113103867 0.17393481731414795 0.24874219298362732 0.8084178566932678 0.20871910452842712 0.4222922921180725 0.02492927946150303 0.051613979041576385 -0.38912588357925415
revert 0.19467772543430328 0.1642642617225647 -0.3913626968860626 -0.053886838257312775 0.08383934199810028 -0.12902121245861053 -0.12942413985729218 0.3664567768573761 -0.6097730398178101 -0.035472024232149124 -0.37542787194252014 -0.16800524294376373 0.058120500296354294 -0.4821944534778595 0.08021405339241028 0.25343838334083557 0.0029506301507353783 -0.422239750623703 0.28184768557548523 -0.4827931821346283
gasket 0.2840093970298767 0.41025102138519287 0.060476113110780716 0.7285459041595459 0.022904807701706886 -0.9435718059539795 0.3815682530403137 0.15647102892398834 0.5917052626609802 -0.05343078821897507 0.27750760316848755 -0.21662242710590363 0.040388576686382294 0.1341288983821869 0.14308039844036102 0.1703716218471527 0.42921018600463867 0.5480828881263733 0.05116812139749527 -0.03424108400940895
reconcile -0.01676967181265354 -0.02860741876065731 -0.004414999857544899 -0.015521206893026829 0.04558135196566582 0.024473926052451134 0.006461987271904945 0.005716525483876467 0.00570939015597105 0.012950688600540161 -0.021821539849042892 -0.028331279754638672 0.05437507852911949 -0.0012832892825827003 0.030796365812420845 -0.008723946288228035 6.588312680833042E-4 -0.030828610062599182 -0.001966699957847595 -0.009208380244672298
quantify 0.06380061060190201 0.0050369673408567905 -0.04174964874982834 -0.011653818190097809 -0.006978507153689861 0.05120932683348656 -0.01197428721934557 -0.022298363968729973 -0.01519478764384985 9.20820893952623E-5 0.02775091864168644 0.02288459613919258 -0.029357878491282463 -0.04172707721590996 0.011528944596648216 -0.023158784955739975 0.009044812992215157 -0.09443479776382446 -0.028850216418504715 -0.015959519892930984
condition -0.006254054605960846 0.353421688079834 -0.41559508442878723 -0.016404280439019203 0.3007170259952545 -0.12914498150348663 0.001445541623979807 -0.16681961715221405 -0.1389901340007782 0.2980254292488098 -0.026531081646680832 0.031378816813230515 0.1149861216545105 -0.4798026382923126 0.09764822572469711 -0.03291638195514679 -0.19908495247364044 -0.5913501977920532 -0.13807223737239838 -0.25363558530807495
roughen 0.667517900466919 -0.004439454060047865 -0.3103930354118347 0.4983571469783783 -0.3565951883792877 -0.1384866088628769 0.11135674268007278 0.4280188977718353 0.018254751339554787 0.321326345205307 0.08766116946935654 0.40424588322639465 -0.41274741291999817 0.7437887787818909 -0.15686897933483124 0.22683005034923553 0.31595203280448914 0.46011361479759216 -0.4333711564540863 -0.32206523418426514
reciprocate -0.02042786218225956 -0.09870690852403641 0.4110153317451477 0.40806689858436584 0.3858219087123871 0.5392861366271973 0.02584677003324032 -0.023006804287433624 0.06712684780359268 -0.2997501790523529 -0.6830597519874573 0.2626865804195404 -0.05045556649565697 -0.6123875379562378 -0.1497703641653061 -0.5115963220596313 0.060652390122413635 0.33507269620895386 0.0477941557765007 0.2959478199481964
swab 0.08062330633401871 -0.08432648330926895 -0.08611086010932922 0.07447256147861481 -0.016676299273967743 -0.05140658840537071 0.1448054015636444 0.22839896380901337 0.03530564904212952 0.007601732853800058 -0.04615962132811546 0.12571237981319427 -0.03398983180522919 -0.1552482545375824 0.08544965833425522 0.2081942856311798 0.2816646099090576 0.12797677516937256 0.08345723897218704 0.09990036487579346
improve -0.015715008601546288 0.33023306727409363 -0.24340827763080597 0.03614331781864166 -0.15514415502548218 0.005432990845292807 0.23657366633415222 0.09790004789829254 -0.3181978762149811 0.45678460597991943 0.15642982721328735 0.308536559343338 -0.25944966077804565 0.13200487196445465 0.211433544754982 -0.3497558534145355 0.013527845032513142 0.003190872725099325 -0.05843324586749077 -0.17425993084907532
try 0.034879788756370544 -0.1759590059518814 -0.16988521814346313 -0.11025004833936691 -0.18385076522827148 -0.028121838346123695 -0.3215143382549286 0.248679518699646 -0.30980923771858215 0.15762393176555634 -0.018215226009488106 -0.006093586329370737 0.17732003331184387 -0.09096220135688782 0.29241374135017395 0.255962610244751 0.12500905990600586 -6.327442242763937E-4 0.04812237620353699 -0.23427453637123108
twist -0.13496150076389313 -0.22695520520210266 -0.10501016676425934 0.22368118166923523 0.23707033693790436 0.03994820639491081 -0.45830830931663513 0.18483683466911316 -0.29206499457359314 -0.07636024802923203 -0.008250083774328232 0.3303048014640808 -0.023472441360354424 0.4313895106315613 0.06826701760292053 0.1918579488992691 0.5046579837799072 0.15807820856571198 0.037585169076919556 -0.5488770008087158
speckle 0.01133962906897068 -0.004535224754363298 0.007207050453871489 0.02478703483939171 -0.0026625331956893206 0.013518335297703743 0.016479142010211945 0.013325905427336693 0.015215180814266205 0.004748580511659384 0.012249819003045559 -0.005633189808577299 0.014824246056377888 -0.008115927688777447 -0.007243248634040356 0.010315826162695885 -0.016842858865857124 0.023880785331130028 -0.004066905472427607 0.006437736097723246
emanate -0.2405526489019394 -0.23257501423358917 -0.22365586459636688 0.09833330661058426 -0.37217026948928833 -0.008364737033843994 -0.5039060711860657 -0.06567387282848358 0.18692581355571747 0.006962103303521872 0.32484400272369385 0.015201079659163952 -0.4004538655281067 -0.26127421855926514 0.15102766454219818 0.09619159996509552 -0.20206549763679504 0.24929337203502655 -0.1346900910139084 -0.1758965700864792
irradiate -0.009269186295568943 -0.21681101620197296 -0.06256511062383652 -0.009471233934164047 -0.2745954692363739 0.047599826008081436 -0.28074201941490173 0.06571302562952042 0.0582495853304863 0.11307357251644135 0.45734256505966187 0.3596247732639313 0.009873113594949245 -0.16427643597126007 -0.08762216567993164 0.21562828123569489 -0.39372891187667847 0.08959690481424332 -0.21749190986156464 -0.13463637232780457
locate -0.22914044559001923 -0.3231293857097626 0.010537272319197655 0.24095609784126282 -0.04767485335469246 0.0463583879172802 -0.14862436056137085 0.2207367867231369 0.30891793966293335 -0.025087472051382065 0.13489845395088196 -0.1721305400133133 0.10239490121603012 -0.1601419895887375 0.1967538595199585 0.13332012295722961 0.6438226103782654 -0.08277931809425354 -0.35727939009666443 -0.19183887541294098
unite 0.2712613642215729 -0.16397424042224884 -0.039562731981277466 0.6031624674797058 -0.2848883867263794 -0.13203182816505432 0.35848188400268555 0.34991154074668884 -0.2547139823436737 -0.3781781494617462 0.19363829493522644 0.05163944885134697 -0.1921747922897339 0.5208647847175598 0.02722238563001156 0.20067380368709564 0.16742224991321564 0.3888648450374603 -0.06307470053434372 -0.34395918250083923
chatter 0.26883113384246826 0.050449419766664505 -0.06381115317344666 -0.22666360437870026 0.04219478741288185 -0.23148931562900543 0.09913795441389084 0.6831256747245789 -0.4686967730522156 0.9272514581680298 -0.1693851351737976 0.1428755670785904 0.13251326978206635 -0.06255719810724258 0.05061404034495354 0.38038283586502075 0.6115818023681641 0.290596067905426 0.0672360211610794 -0.17128220200538635
sandblast 0.10561169683933258 0.01500952523201704 -0.1298169046640396 0.3834376037120819 -0.09735319763422012 -0.07560889422893524 0.18800534307956696 0.15056772530078888 0.003677153727039695 0.035916704684495926 0.20183110237121582 0.18015731871128082 -0.2530609965324402 0.262327641248703 0.08187904208898544 0.2722906172275543 0.05333761125802994 0.10485243797302246 -0.11754792183637619 -0.10363702476024628
aspirate 0.2601719796657562 -0.35043078660964966 -0.5991204380989075 0.21621344983577728 -0.4201580584049225 0.025382831692695618 -0.08391877263784409 -0.08577019721269608 -0.3679565191268921 0.17839546501636505 0.00706346333026886 0.2508324980735779 -0.18152350187301636 -0.24230091273784637 0.2898922264575958 -0.4694482088088989 -0.4423425495624542 0.27261751890182495 0.04858069866895676 0.19449187815189362
wound -0.02363518252968788 0.01286990288645029 -0.12192963063716888 1.1634594202041626 0.7455044984817505 -0.24527209997177124 -0.5868150591850281 -0.24233075976371765 -0.2054475098848343 0.001410328084602952 -0.2020488828420639 0.202810600399971 -0.5507329106330872 0.6585908532142639 -0.45311716198921204 0.5698200464248657 0.004680994898080826 0.05501933768391609 0.07836179435253143 -0.426823228597641
pursue 0.13540197908878326 -0.010867157950997353 -0.20911072194576263 0.017982669174671173 -0.16258637607097626 -0.23581668734550476 -0.027873756363987923 0.04105312377214432 -0.12865714728832245 -0.07175890356302261 0.04568854719400406 0.15019308030605316 -0.12195117026567459 0.07254642993211746 -0.00807935744524002 0.017220985144376755 -0.2123066633939743 0.055103473365306854 -0.12153278291225433 -0.0734826996922493
convey 0.16789200901985168 -0.566802442073822 0.0517813041806221 0.10474683344364166 0.23164169490337372 0.18604233860969543 -0.08537573367357254 -0.222544327378273 -0.3137403726577759 -0.36572501063346863 0.13805049657821655 0.6392810940742493 -0.19182297587394714 -0.08686653524637222 0.08268463611602783 0.16541020572185516 -0.21252357959747314 0.14220276474952698 -0.11170840263366699 0.09551049768924713
flux -0.24380360543727875 -0.08873587101697922 -0.19730117917060852 0.763287365436554 0.13073354959487915 -0.03345448896288872 -0.5125929117202759 -0.03507830947637558 -0.232198566198349 0.35904228687286377 -0.00915229320526123 0.04115409404039383 -0.3172859251499176 0.2561032176017761 -0.4114202857017517 0.14179028570652008 -0.4454231858253479 -0.06815199553966522 -0.4017874598503113 -0.16658297181129456
contaminate 0.2566758096218109 -0.07909343391656876 -0.28812864422798157 -0.19794057309627533 -0.08907440304756165 -0.1897616684436798 0.426314115524292 0.4965403079986572 -0.25974777340888977 0.009900467470288277 0.25875040888786316 0.7149922251701355 -0.3825249671936035 -0.26024743914604187 0.1220126748085022 0.6632395386695862 -0.30322954058647156 0.04162298142910004 -0.061302170157432556 0.25247448682785034
burn 0.30352267622947693 0.11642972379922867 -0.8159692883491516 0.46740421652793884 -0.8162845373153687 0.2040831297636032 0.12507906556129456 0.3671174943447113 -0.04704644903540611 0.15947504341602325 0.10908714681863785 0.17858967185020447 -0.2556787133216858 -0.12882421910762787 0.6439398527145386 -0.5411874651908875 -0.5879325866699219 -0.3769747316837311 0.5275788307189941 0.22646060585975647
filtrate 0.07989471405744553 -0.18826335668563843 -0.1608641892671585 0.04365600645542145 -0.15386755764484406 -0.19292673468589783 0.18786871433258057 0.08309302479028702 0.05686663091182709 -0.1404937207698822 0.15009012818336487 0.5564672350883484 -0.1473618447780609 -0.37955009937286377 0.1305110603570938 0.08324067294597626 -0.31788018345832825 0.17515453696250916 -0.07087734341621399 0.2409708946943283
probe -0.0010689649498090148 0.3454856872558594 -0.34150245785713196 0.0718839019536972 -0.1539703607559204 -0.045348815619945526 -0.24113154411315918 0.03799840435385704 0.2513192296028137 0.030588194727897644 0.052746690809726715 0.07746917754411697 -0.29846280813217163 -0.438223272562027 0.03823130205273628 0.3418675363063812 0.02974461019039154 -0.585381269454956 -0.07973295450210571 0.09356605261564255
inflate 0.11150334775447845 0.08164045959711075 -0.010140077210962772 0.02527068369090557 0.0035111429169774055 -0.11284613609313965 -0.03733205422759056 0.48064714670181274 -0.2966165542602539 -0.09685453027486801 0.021494422107934952 0.025646494701504707 -0.059165552258491516 -0.39594194293022156 0.23386764526367188 0.5577133893966675 0.15281665325164795 0.25671735405921936 0.1816737949848175 0.19401662051677704
conduct -0.08475302904844284 0.23460659384727478 -0.1002475842833519 0.512808084487915 -0.08323044329881668 -0.11812181770801544 -0.21248967945575714 0.07275106012821198 0.006208100821822882 0.02092214673757553 0.350566029548645 0.20466652512550354 -0.33313071727752686 0.12797150015830994 -0.3299306035041809 0.5393390655517578 -0.48360490798950195 0.0587116964161396 -0.05792171135544777 -0.08853816986083984
bury 0.049016598612070084 0.04206284135580063 -0.024673495441675186 0.16128572821617126 -0.017367083579301834 -0.007148057222366333 0.08825533837080002 0.06593345105648041 -0.0023646834306418896 -0.07537269592285156 0.043433159589767456 0.03950777277350426 -0.089436836540699 0.05599607527256012 -0.004329776391386986 0.07186675816774368 0.09791193902492523 0.06781545281410217 0.00793541595339775 0.013759390451014042
harness -0.7485617995262146 0.17092546820640564 -0.19115276634693146 0.6402751803398132 0.18830639123916626 -0.11425497382879257 -0.5969696640968323 0.05156741291284561 0.17788639664649963 -0.32715243101119995 0.3349432647228241 -0.11916623264551163 -0.16057409346103668 0.13021352887153625 0.019501328468322754 0.7590962052345276 0.38038763403892517 -0.5375664234161377 0.44560444355010986 -0.21850910782814026
grapple -0.22396902740001678 -0.35212984681129456 0.05791497230529785 -0.0015790823381394148 0.0826776921749115 0.13027258217334747 -0.14329053461551666 0.4660540521144867 -0.12630018591880798 0.10429032146930695 -0.1352442502975464 -0.06788167357444763 0.1930270493030548 0.2939721643924713 0.29117342829704285 0.10874320566654205 0.3322450518608093 -0.059525907039642334 -0.019590340554714203 -0.1946604996919632
respond 0.012863733805716038 0.24153125286102295 -0.4592832028865814 -0.006589982658624649 0.1457158625125885 0.063332699239254 -0.2790515422821045 -0.33909258246421814 -0.5268155932426453 0.4959810972213745 -0.03026755154132843 0.27734512090682983 0.13439956307411194 -0.5319510698318481 -0.005527916830033064 0.1794731616973877 0.05468457564711571 -0.41555920243263245 -0.20272403955459595 -0.09923268109560013
ply 0.13206294178962708 0.1819503903388977 -0.39419546723365784 0.8645792007446289 0.2909970283508301 -0.08617614209651947 -0.1330624222755432 -0.07222079485654831 -0.5991775989532471 0.012011573649942875 0.3735285997390747 0.28597813844680786 -0.3510865867137909 1.072204351425171 -0.10027512162923813 0.8623449802398682 0.5460097193717957 0.44148775935173035 -0.3025638163089752 -0.7700984477996826
wall -0.05105774849653244 -0.10784284770488739 0.09381508082151413 0.144001767039299 -0.05178649723529816 -0.16604281961917877 -0.09401719272136688 0.03198011964559555 0.3673361837863922 -0.17455758154392242 0.173546701669693 0.14709250628948212 -0.29730862379074097 -0.16304974257946014 -6.796328816562891E-4 -0.01811113767325878 -0.042433835566043854 0.6093743443489075 0.12388508021831512 -0.16750699281692505
cluster -0.12804853916168213 -0.21612147986888885 -0.13659189641475677 0.2623351514339447 -0.1852431744337082 0.6047327518463135 -0.014862734824419022 0.11831703782081604 -0.24414655566215515 0.07277585566043854 0.508502721786499 0.3328017294406891 0.08003353327512741 -0.2504121959209442 -0.06625393778085709 0.005361134186387062 0.08697718381881714 0.05134952813386917 0.16836778819561005 -0.38470572233200073
tug 0.3372493386268616 -0.3983522057533264 -0.1901724934577942 -0.3051352798938751 0.21669591963291168 0.23852981626987457 -0.24679048359394073 0.4356091618537903 -0.4141537547111511 -0.054444245994091034 -0.1057763546705246 0.32221725583076477 -0.08449383080005646 0.4898087978363037 0.5214043259620667 0.21416445076465607 0.42828622460365295 -0.2023996263742447 0.055900122970342636 -0.3025810122489929
decay 0.2827281355857849 0.4430009126663208 -0.5764821171760559 0.07700973004102707 0.2854782044887543 -0.013109189458191395 -0.18922661244869232 0.24196356534957886 -0.688792884349823 0.49293965101242065 -0.1045994833111763 -0.15027286112308502 -0.08886728435754776 -0.24727243185043335 0.15931105613708496 0.2112492173910141 -0.2633250653743744 -0.36407798528671265 0.004861866589635611 -0.2183968871831894
absorb -1.241579739144072E-4 0.6228747367858887 0.4546060860157013 0.18296678364276886 -0.08938401192426682 0.10286957025527954 -0.1985110640525818 0.1978476494550705 -0.4084795117378235 0.4874601662158966 0.11473613232374191 0.6005380749702454 0.10559947788715363 0.081509068608284 0.37694090604782104 0.35146385431289673 -0.30149656534194946 0.5546592473983765 0.12320730835199356 0.03493358567357063
weatherproof -0.12386166304349899 0.027712717652320862 -0.06281323730945587 0.21047772467136383 -0.06301570683717728 -0.060249947011470795 -0.0651584044098854 0.25761428475379944 -0.20601466298103333 -0.12201336026191711 0.2772383391857147 0.214314803481102 -0.2306867092847824 0.2697041630744934 0.05449416860938072 0.5456770062446594 0.32501012086868286 -0.016303110867738724 0.2967394292354584 -0.22015507519245148
induct 0.011210555210709572 0.39010143280029297 -0.5945135951042175 0.4764464199542999 0.19085285067558289 0.10517080128192902 -0.06699664145708084 -0.21581603586673737 -0.2241668552160263 0.1893274188041687 -0.1579047292470932 -0.03517003729939461 -0.615229070186615 -0.08164716511964798 -0.09712181240320206 -0.021528154611587524 -0.38334786891937256 -0.19802437722682953 0.18046511709690094 0.16256460547447205
supply -0.19093509018421173 0.21764448285102844 -0.44910284876823425 -0.0678369477391243 0.03834829479455948 0.16160178184509277 -0.0628916546702385 -0.1308961659669876 -0.02752031572163105 -0.1477612555027008 -0.14805123209953308 0.37884870171546936 -0.20251837372779846 -0.3852732479572296 -0.1635666787624359 0.09280852973461151 -0.2543543875217438 -0.24907425045967102 0.16408786177635193 0.4771866798400879
circulate 0.026533400639891624 -0.09712617844343185 0.12905937433242798 0.1335371881723404 0.16179224848747253 -0.37825724482536316 0.11057212948799133 0.21172909438610077 -0.30504512786865234 -0.35031187534332275 0.19722291827201843 0.727073609828949 -0.12481853365898132 -0.4265799820423126 -0.15909145772457123 0.1705089509487152 -0.6006089448928833 0.03962819650769234 0.16252630949020386 0.051126629114151
fracture 0.42756497859954834 0.42706990242004395 -0.5042005777359009 0.018314378336071968 -0.2961306571960449 0.24599768221378326 0.1337755173444748 0.5616172552108765 -0.6046897172927856 0.09225942194461823 0.1276177614927292 0.2821671962738037 -0.19755321741104126 0.4399612247943878 0.29077544808387756 0.2816305458545685 1.0801570415496826 0.5228055715560913 0.12232617288827896 -0.2750748097896576
incubate 0.024089839309453964 0.021747715771198273 0.020973816514015198 -0.011768082156777382 -0.009644095785915852 -0.02491248957812786 -0.015572397038340569 0.007025780621916056 0.019509969279170036 0.0016803611069917679 0.016973737627267838 0.01113013457506895 -0.02269478514790535 -0.017448579892516136 0.020834460854530334 0.017467627301812172 -0.02245480567216873 -0.0011922826524823904 0.002730925800278783 0.003264474682509899
rectify -0.029804745689034462 0.061344582587480545 -0.1476159542798996 -0.08574751019477844 -0.05453358218073845 -0.03047039918601513 -0.08998505026102066 -0.10953599959611893 -0.18153369426727295 0.01016540452837944 0.12373772263526917 0.3273178040981293 -0.09246581792831421 -0.11362847685813904 -0.04997364804148674 0.04436621814966202 -0.3544628322124481 -0.13525302708148956 0.10315179824829102 -0.05406108498573303
lessen 0.152031809091568 0.11599202454090118 -0.2620804011821747 0.15486997365951538 0.00604180246591568 0.02762841060757637 -0.07307475805282593 0.2823777198791504 -0.602820873260498 0.5260453820228577 -0.3877709209918976 0.24367251992225647 -0.22977471351623535 0.08429419249296188 0.3313728868961334 0.08073431998491287 0.13806350529193878 0.3372403383255005 0.3472859859466553 -0.25946947932243347
merge 0.21615009009838104 -0.22271913290023804 -0.20030388236045837 0.057726144790649414 -0.37275174260139465 -0.19243498146533966 -0.05325261503458023 0.005176064558327198 -0.1230790913105011 -0.022007372230291367 -0.23175621032714844 0.05474913492798805 -0.8745924234390259 -0.04443598538637161 0.01947804167866707 -0.37262246012687683 0.1838430017232895 0.815078854560852 -0.2014031857252121 -0.18719491362571716
snug -0.14392811059951782 -0.13190874457359314 0.31031548976898193 0.42009735107421875 -0.45237213373184204 -0.45522835850715637 0.050902605056762695 0.3766207695007324 -0.06587444990873337 -0.1893707662820816 0.14337342977523804 -0.050657521933317184 0.12123361974954605 0.05121796950697899 0.2666310667991638 0.05723389610648155 1.128964900970459 0.13836361467838287 0.10560770332813263 -0.4545709490776062
dock -0.3586762547492981 -0.11236468702554703 0.3255787789821625 -0.2605605721473694 0.21148402988910675 0.35001224279403687 -0.3353993892669678 0.1354164034128189 -0.23768599331378937 -0.07394444942474365 0.1850942224264145 0.3081839382648468 0.06307750195264816 -0.032161496579647064 0.5454803109169006 0.6282293200492859 0.4859966039657593 -0.1053335890173912 0.19659779965877533 0.008274829015135765
press 0.04917214810848236 -0.03924114257097244 0.10269617289304733 0.5786532163619995 0.1382739394903183 -0.11194316297769547 0.028731057420372963 0.4030967056751251 0.34872448444366455 -0.0012423570733517408 -0.37288230657577515 -0.06390746682882309 0.24084919691085815 0.1384812742471695 -0.09615079313516617 0.14970330893993378 0.3876381516456604 0.11098100990056992 -0.4183766841888428 -0.06041872873902321
drift 0.029688576236367226 0.2878589332103729 -0.2481662631034851 -0.41141170263290405 -0.07063790410757065 0.09356297552585602 -0.0590483732521534 4.5558399870060384E-4 -0.42169034481048584 0.23863734304904938 0.2210310846567154 0.16801153123378754 0.03608231991529465 -0.29505279660224915 0.6101528406143188 -0.15219762921333313 0.19213078916072845 -0.22600190341472626 -0.3489057123661041 -0.5347732901573181
pace -0.10451431572437286 -0.11844930797815323 0.07685893774032593 0.11001314222812653 -0.02151690423488617 0.10436349362134933 0.06560947746038437 0.10905315726995468 -0.028189748525619507 -0.04905657842755318 -0.08703789860010147 0.07552149146795273 0.11432551592588425 0.02602531760931015 0.03369588404893875 -0.030764169991016388 0.10600118339061737 0.027700023725628853 -0.1326717585325241 -0.06629064679145813
impregnate 0.24336369335651398 0.08432497084140778 -0.20647509396076202 0.45183008909225464 -0.16006295382976532 0.023091193288564682 0.34060683846473694 0.2939700186252594 -0.20935849845409393 0.011776944622397423 0.4091570973396301 0.21759843826293945 -0.1308784782886505 0.5504664778709412 0.198541060090065 0.4530583918094635 -0.03989776596426964 0.17717325687408447 -0.06437290459871292 0.11551845818758011
pigment 0.6252641081809998 -0.17054615914821625 -0.748562753200531 0.623136043548584 -0.49556514620780945 0.18875283002853394 0.2515150010585785 0.24457302689552307 0.29235586524009705 0.44244998693466187 1.0995984077453613 0.4105347692966461 0.03667103126645088 0.6764487028121948 0.16518202424049377 0.8119347095489502 -0.21510879695415497 0.1571146845817566 -0.5901297926902771 0.04642342031002045
mute 0.15885138511657715 -0.04322779178619385 -0.29306554794311523 -0.32679638266563416 0.07616525143384933 0.08527563512325287 0.01373875979334116 0.08835220336914062 -0.12698371708393097 0.1997029334306717 0.03925032168626785 0.09519240260124207 0.017034603282809258 -1.1970473860856146E-4 0.07314550876617432 -0.11457941681146622 0.03826254606246948 -0.0718819722533226 0.04271180182695389 -0.11605151742696762
forecast 0.08397004008293152 0.3900578022003174 -0.4422966241836548 -0.24132849276065826 0.1683180034160614 0.11976458877325058 -0.027603689581155777 -0.3176000416278839 -0.1273636668920517 0.21293942630290985 0.10905489325523376 -0.06372960656881332 0.09198769927024841 -0.28193235397338867 0.03293118253350258 -0.006112310104072094 -0.1426025629043579 -0.6100079417228699 -0.07679581642150879 -0.18154007196426392
deteriorate 0.011870874091982841 0.17541520297527313 -0.25991272926330566 0.057784680277109146 -0.23387782275676727 -0.056269366294145584 0.01367896981537342 0.03946160525083542 -0.32634857296943665 0.2142684906721115 0.23175331950187683 0.18835210800170898 -0.11297210305929184 -0.09964966773986816 0.17532750964164734 0.16685737669467926 -0.17133274674415588 -0.15996314585208893 -0.07991449534893036 -0.08086756616830826
recognize 0.25717997550964355 0.4107043147087097 -0.43800726532936096 -0.13690581917762756 -0.061890989542007446 0.2998816668987274 -0.03981828689575195 -0.08516108989715576 -0.3349887728691101 0.2689613103866577 0.4005274772644043 -0.07833953946828842 0.10657379776239395 -0.5889504551887512 0.3294377326965332 0.1485758125782013 -0.0527808777987957 -0.6311107873916626 -0.33333665132522583 -0.503949761390686
warehouse -0.044683851301670074 -0.10522165894508362 -0.11066298931837082 0.061196986585855484 -0.19342830777168274 -0.05744386091828346 -0.06921833008527756 -0.0017526240553706884 -0.28127843141555786 -0.20830827951431274 0.18136310577392578 0.17482952773571014 -0.1289856880903244 -0.09935656934976578 0.15948909521102905 0.1907745599746704 -0.2789206802845001 0.059862010180950165 -0.1898341178894043 -0.011865703389048576
pack -0.01100508775562048 0.12209954857826233 0.2634664475917816 0.3866409659385681 -0.08361222594976425 -0.09233838319778442 0.19292451441287994 0.22443698346614838 -0.09181264787912369 -0.13935530185699463 0.15970641374588013 0.20508138835430145 0.1104356124997139 -0.027546802535653114 -0.11378244310617447 0.36145785450935364 0.07989995181560516 0.02930735982954502 -0.05919978395104408 0.0295148603618145
input -0.4832122027873993 0.077573761343956 -0.28577619791030884 0.20912790298461914 0.07923118770122528 0.5917747020721436 0.12497565895318985 -0.5498738288879395 -0.057695962488651276 0.3583540916442871 0.10196930170059204 0.6181012988090515 0.6128727197647095 -0.4870695173740387 -0.726352334022522 -0.07600845396518707 -0.025612356141209602 -0.6357294321060181 -0.2038329839706421 -0.48460936546325684
induce 0.056143708527088165 -0.13199004530906677 -0.2446824014186859 0.29941847920417786 -0.18106219172477722 -0.09139588475227356 -0.27072426676750183 -0.02101328782737255 -0.3763800859451294 0.3286609351634979 -0.19039560854434967 0.38053464889526367 -0.288900762796402 -0.09167749434709549 0.033100370317697525 -0.2319236844778061 -0.22870375216007233 0.12184270471334457 0.1684810370206833 -0.07301793247461319
bisect -0.3222109079360962 -0.5219339728355408 0.08285017311573029 -0.2802642583847046 0.01801859587430954 0.5125802159309387 -0.29184550046920776 0.4572470188140869 0.09265384078025818 -0.29557791352272034 -0.03386109694838524 0.13678385317325592 -0.51817786693573 0.2440546452999115 -0.07859195023775101 -0.4240783452987671 0.45135262608528137 0.6477516889572144 -0.5574573874473572 -0.6779094934463501
sparge 0.013812241144478321 -0.008803954347968102 -0.019833941012620926 0.05691372975707054 -0.049012795090675354 -0.07468171417713165 0.018653083592653275 0.02683800831437111 -0.04077721759676933 -0.061306823045015335 0.031184377148747444 0.20815762877464294 -0.2201375812292099 -0.11113161593675613 0.13130733370780945 0.028546808287501335 -0.12759970128536224 -0.01516980491578579 -0.1190420538187027 0.09657309204339981
difference 0.3026945888996124 0.6058902740478516 -0.4879686236381531 -0.18386565148830414 0.43658122420310974 -0.10534730553627014 -0.10843227058649063 -0.5223425030708313 -0.11037611216306686 0.35711243748664856 -0.04550415650010109 0.2629894018173218 0.149329274892807 -0.4737056493759155 0.2000795602798462 -0.28908851742744446 -0.12230602651834488 -0.28730395436286926 -0.6010201573371887 -0.44222164154052734
baffle -0.06141408160328865 -0.587577223777771 0.012569599784910679 -0.05728140100836754 0.0012293481267988682 -0.34934279322624207 -0.07036498188972473 0.11080082505941391 0.02629060298204422 -0.026628660038113594 0.47524794936180115 0.338420033454895 -0.30257126688957214 -0.4727562367916107 0.34617912769317627 -0.3401857912540436 -0.45432010293006897 0.8135683536529541 0.4811755418777466 -0.13072477281093597
circle 0.16318948566913605 -0.12372445315122604 0.12636898458003998 -0.17577622830867767 0.2649393677711487 0.526301920413971 -0.157196506857872 0.22874842584133148 0.27835941314697266 -0.27656158804893494 -0.257797509431839 0.3650006055831909 -0.5211673378944397 0.10038798302412033 -0.1717246025800705 -0.404363751411438 0.44914212822914124 0.2961946129798889 -0.6490949392318726 -0.8463104963302612
cup 0.11458291858434677 -0.002426579361781478 0.3154500126838684 0.34842386841773987 0.03769281134009361 0.09262879192829132 -0.05887541547417641 0.2152682989835739 0.4218725562095642 -0.24545854330062866 0.004420310724526644 -0.002299521816894412 -0.13923418521881104 -0.25723060965538025 0.07968251407146454 0.36380213499069214 0.29758700728416443 0.3169267177581787 0.03184361755847931 -0.05932779982686043
bathe 0.03684990853071213 -0.27525249123573303 -0.1558317244052887 -0.21391010284423828 0.044847000390291214 -0.33801203966140747 0.049022823572158813 0.22098010778427124 -0.204372376203537 0.02520904876291752 0.06753402948379517 0.3085551857948303 0.0014169208006933331 -0.24544459581375122 0.08297256380319595 -0.08881999552249908 -0.3035505712032318 0.10483431816101074 0.11913265287876129 0.14246301352977753
autoclave 0.11766034364700317 0.0914439931511879 -0.19007925689220428 0.34549444913864136 -0.17831504344940186 -0.19079504907131195 0.17635709047317505 0.41621503233909607 -0.18546314537525177 -0.3900021016597748 0.29518693685531616 0.2952039837837219 -0.3104814291000366 0.28119534254074097 0.3608011305332184 0.6096541881561279 -0.02162780426442623 -0.17627188563346863 -0.28992101550102234 0.1257150024175644
cut -0.015567499212920666 0.03128072991967201 -0.4124302566051483 0.10458310693502426 -0.08162935078144073 0.07096120715141296 0.0291270948946476 0.10812206566333771 0.14307017624378204 -0.20111341774463654 0.06635801494121552 0.17965033650398254 -0.2974356710910797 0.16504345834255219 -0.1659552901983261 0.1272450089454651 0.5464561581611633 -0.08656260371208191 -0.2657865285873413 -0.2126525342464447
starve 0.06082066893577576 0.04283680394291878 -0.11251872032880783 -0.03033832646906376 -0.046482231467962265 0.058860450983047485 0.0015326403081417084 0.02563789114356041 0.025262895971536636 0.029841922223567963 0.09377815574407578 0.07030946016311646 -0.04100172966718674 0.013474834151566029 0.09044128656387329 -0.07747414708137512 -0.1116451844573021 -0.03194402530789375 0.04987771809101105 0.0351378470659256
chase -0.09848036617040634 0.018745403736829758 -0.08813142776489258 -0.025974711403250694 -0.06052997335791588 0.043678782880306244 -0.18718385696411133 -0.015194323845207691 0.046298615634441376 0.07585756480693817 0.2816842198371887 0.06773727387189865 -0.07682888209819794 -0.13367381691932678 0.12805962562561035 0.14365682005882263 0.0453784242272377 0.0034789906349033117 -0.05380772799253464 -0.22208714485168457
pop 0.23869691789150238 -0.20185893774032593 -0.11190001666545868 0.04195687919855118 0.11092178523540497 -0.12850260734558105 -0.1683872938156128 0.5406404137611389 -0.29413682222366333 -0.17125745117664337 -0.018075328320264816 -0.1763496696949005 0.19025428593158722 -0.22068975865840912 0.29372352361679077 0.41698211431503296 0.6537787914276123 0.2341078519821167 0.21075013279914856 -0.40901049971580505
combust -0.26996907591819763 0.6200111508369446 -0.8056517243385315 -0.028884263709187508 -0.11271851509809494 0.3940120041370392 0.2962193489074707 0.020463941618800163 0.09532348066568375 0.01125171035528183 -0.2631148099899292 0.1230548694729805 -0.11307649314403534 -0.11361817270517349 0.35548463463783264 -0.5755798816680908 -0.5871777534484863 0.021688776090741158 0.15859965980052948 0.19942401349544525
tear 0.24387888610363007 0.08516460657119751 -0.5948173999786377 0.11000333726406097 -0.0677679106593132 -0.05413483455777168 0.26771679520606995 0.5450664162635803 -0.20065082609653473 0.25470173358917236 0.17561444640159607 -0.13630031049251556 -0.08515883982181549 0.3716118633747101 0.3715541660785675 0.5760648250579834 0.5320508480072021 0.37410709261894226 0.2044534981250763 -0.6737549304962158
interleave -0.08824499696493149 -0.044601935893297195 -0.007876873947679996 0.018395332619547844 -0.037755146622657776 -0.16623550653457642 -0.07716454565525055 0.06042744591832161 -0.15511147677898407 0.04420178011059761 0.009706470184028149 0.035556599497795105 -0.1170646995306015 -0.057431865483522415 -0.04932039976119995 -0.0455673411488533 -0.03818296641111374 0.15630367398262024 -0.1239367127418518 -0.21461142599582672
encrypt -0.0023545408621430397 -4.599173189490102E-5 -0.027980053797364235 0.001339843263849616 0.006026647984981537 0.01620742492377758 -0.021057695150375366 -0.003825990715995431 0.010075941681861877 0.006844872608780861 -0.014810300432145596 0.012306143529713154 0.0036754223983734846 -0.013957938179373741 -0.014298344030976295 0.01637551374733448 0.0190019179135561 0.006781889591366053 -8.139959536492825E-4 0.006103002466261387
